svm_type c_svc
kernel_type linear
nr_class 3
total_sv 1155
rho 7.583980962614091 13.16751528736874 1.0080100433009642
label 36 38 42
nr_sv 333 370 452
SV
0 4 1:0.80827184 2:0.53361169 3:0.74935267 4:0.39186904 5:0.45388987 6:0.65201737 7:0.2481436 8:0.57697198 9:0.35589611 10:0.61657833 11:0.37466487 12:0.44292857 13:0.35747328 14:0.55291379 15:0.31983126 16:0.28782784 17:0.18913251 18:0.40860714 
4 4 1:0.75523912 2:0.65873393 3:0.69254613 4:0.56068427 5:0.55458116 6:0.75157486 7:0.36041193 8:0.56438172 9:0.37150506 10:0.43839565 11:0.33859247 12:0.36814426 13:0.49200602 14:0.52581516 15:0.25397438 16:0.25310798 17:0.51616137 18:0.63853103 
0 4 1:0.83952435 2:0.52696917 3:0.69961629 4:0.28554563 5:0.41275327 6:0.56385905 7:0.15844205 8:0.55402886 9:0.23262086 10:0.48352406 11:0.2725275 12:0.45372945 13:0.27914847 14:0.35718928 15:0.2192554 16:0.25800624 17:0.25659935 18:0.47239828 
0 4 1:0.73686619 2:0.57777967 3:0.72814844 4:0.42406994 5:0.47359848 6:0.75282347 7:0.25816421 8:0.56827484 9:0.33774592 10:0.55826381 11:0.39231211 12:0.43975905 13:0.25290664 14:0.42804447 15:0.28554946 16:0.44330445 17:0.2148611 18:0.41218841 
0 4 1:0.68743557 2:0.62580257 3:0.63149133 4:0.4881028 5:0.5106358 6:0.65950497 7:0.4114463 8:0.624114 9:0.4567113 10:0.39885464 11:0.32982101 12:0.3049668 13:0.42137009 14:0.50456912 15:0.37465933 16:0.52679412 17:0.499148 18:0.42731501 
0 4 1:0.75963078 2:0.65330199 3:0.76578902 4:0.47827086 5:0.43266242 6:0.65919761 7:0.33509862 8:0.66487025 9:0.38088338 10:0.44343317 11:0.36627246 12:0.49651469 13:0.48742149 14:0.66163581 15:0.36807352 16:0.32092378 17:0.45140477 18:0.59525007 
0 4 1:0.79613431 2:0.54397795 3:0.76800734 4:0.47601596 5:0.56422839 6:0.69774316 7:0.28786805 8:0.58638031 9:0.35575258 10:0.54507039 11:0.41372342 12:0.46937671 13:0.37521774 14:0.45254869 15:0.30031123 16:0.33879991 17:0.35639064 18:0.44493134 
0 4 1:0.77867119 2:0.56728418 3:0.76449064 4:0.39537619 5:0.47006325 6:0.67088667 7:0.26773056 8:0.57436092 9:0.32055533 10:0.45252269 11:0.17302473 12:0.41203405 13:0.27408056 14:0.38392035 15:0.32622741 16:0.29772214 17:0.35150763 18:0.5471092 
4 0 1:0.55104425 2:0.56439354 3:0.84473176 4:0.43963395 5:0.63659231 6:0.7569446 7:0.40311268 8:0.6381168 9:0.49093285 10:0.58437388 11:0.64681062 12:0.67216978 13:0.43980012 14:0.49303992 15:0.28056363 16:0.36419625 17:0.49934016 18:0.5404752 
4 4 1:0.75581279 2:0.63976573 3:0.75055112 4:0.46088124 5:0.49015808 6:0.7415738 7:0.30142018 8:0.66846323 9:0.47133754 10:0.58067945 11:0.47657405 12:0.45629012 13:0.41356638 14:0.56160511 15:0.30788848 16:0.40109046 17:0.536616 18:0.47080181 
0 4 1:0.73551365 2:0.60840135 3:0.81050444 4:0.42005092 5:0.50566634 6:0.72415058 7:0.36553139 8:0.69385424 9:0.44825067 10:0.48726173 11:0.44778087 12:0.51040336 13:0.34886821 14:0.52884822 15:0.3075281 16:0.15774153 17:0.32498734 18:0.5545028 
0 4 1:0.70722374 2:0.55931817 3:0.73079846 4:0.41594456 5:0.52511387 6:0.75456807 7:0.29908197 8:0.59587852 9:0.37617328 10:0.53664782 11:0.39581363 12:0.43773831 13:0.50891263 14:0.63887361 15:0.41645852 16:0.2846578 17:0.28198676 18:0.44023186 
0 4 1:0.75870137 2:0.59806782 3:0.72720741 4:0.5078172 5:0.5412929 6:0.7386984 7:0.34121315 8:0.71133511 9:0.46482774 10:0.51434297 11:0.46111873 12:0.44734069 13:0.34789906 14:0.53404142 15:0.22778792 16:0.17051074 17:0.35035163 18:0.66468855 
4 0 1:0.75224287 2:0.55771727 3:0.76474904 4:0.53316049 5:0.51310177 6:0.75643645 7:0.34483877 8:0.6572229 9:0.40436982 10:0.46307487 11:0.38684841 12:0.53907786 13:0.40989179 14:0.44591979 15:0.26852892 16:0.33853374 17:0.46314233 18:0.650909 
1.537320805562584 4 1:0.66057492 2:0.5323048 3:0.68602326 4:0.55052537 5:0.55717516 6:0.74247095 7:0.28517618 8:0.58906322 9:0.40603879 10:0.46364013 11:0.39573716 12:0.48607992 13:0.43990797 14:0.51304819 15:0.26415717 16:0.2317304 17:0.28950382 18:0.51783265 
4 4 1:0.84052639 2:0.4741458 3:0.64616389 4:0.49936257 5:0.50082188 6:0.72553414 7:0.3042254 8:0.71351106 9:0.33303376 10:0.5282853 11:0.35524556 12:0.52835851 13:0.52944821 14:0.52020721 15:0.31458369 16:0.39925325 17:0.24574776 18:0.58800021 
4 4 1:0.50579223 2:0.67451912 3:0.5572218 4:0.41735498 5:0.58102765 6:0.62330851 7:0.43084075 8:0.60819545 9:0.51509375 10:0.48426617 11:0.35766562 12:0.36201121 13:0.41222001 14:0.64036597 15:0.38012209 16:0.26704176 17:0.41653492 18:0.36504202 
4 4 1:0.73775462 2:0.57914094 3:0.73237404 4:0.46137249 5:0.4149491 6:0.75210663 7:0.36635323 8:0.64716852 9:0.4544704 10:0.5113934 11:0.31531006 12:0.52241817 13:0.38434561 14:0.57533133 15:0.41275819 16:0.19787285 17:0.40936724 18:0.5545765 
0 4 1:0.7331309 2:0.57230961 3:0.82155335 4:0.40727169 5:0.48495131 6:0.69279659 7:0.30211773 8:0.67958325 9:0.4293252 10:0.41090496 11:0.30617449 12:0.48954684 13:0.38476478 14:0.59861429 15:0.32820422 16:0.33205431 17:0.30894311 18:0.42482042 
4 4 1:0.81713313 2:0.57641966 3:0.77969878 4:0.46186649 5:0.48904412 6:0.73785049 7:0.30735743 8:0.68997216 9:0.27267846 10:0.38789148 11:0.30477771 12:0.54932718 13:0.39942027 14:0.57385526 15:0.28700306 16:0.42844123 17:0.43929352 18:0.58475187 
0 4 1:0.79904261 2:0.57425156 3:0.7982772 4:0.41199306 5:0.46184251 6:0.73132675 7:0.29657988 8:0.62967894 9:0.40263944 10:0.50798599 11:0.46879687 12:0.59592101 13:0.39381475 14:0.57174845 15:0.33171764 16:0.5213678 17:0.36642479 18:0.6194098 
0 4 1:0.77319136 2:0.80970755 3:0.51285731 4:0.50347077 5:0.5187355 6:0.26331124 7:0.60755491 8:0.32382997 9:0.38478832 10:0.47278134 11:0.20474045 12:0.53496703 13:0.70142735 14:0.36787466 15:0.39900272 16:0.021133671 17:0.35606603 18:0.33289748 
0 4 1:0.79148233 2:0.83766977 3:0.52545647 4:0.47012698 5:0.48151654 6:0.33473983 7:0.6233048 8:0.34457893 9:0.3289935 10:0.47346944 11:0.22635064 12:0.45999937 13:0.59539447 14:0.36573208 15:0.56726511 16:0.32328211 17:0.38011571 18:0.33394575 
0 4 1:0.77001415 2:0.83408482 3:0.47516298 4:0.4837925 5:0.54099938 6:0.26262361 7:0.65674132 8:0.37038393 9:0.47505101 10:0.62421032 11:0.30461903 12:0.5214256 13:0.60000165 14:0.20255413 15:0.48530761 16:0.19831129 17:0.3511076 18:0.45005921 
4 0 1:0.45184159 2:0.90909524 3:0.38724061 4:0.59556898 5:0.62383985 6:0.23443751 7:0.80332503 8:0.31945823 9:0.38312991 10:0.65949201 11:0.33453957 12:0.68788329 13:0.76751342 14:0.27856514 15:0.59318302 16:0.32986649 17:0.46776592 18:0.68995006 
0 4 1:0.76803447 2:0.80960712 3:0.51010603 4:0.54372333 5:0.52431159 6:0.26489305 7:0.65213274 8:0.32363224 9:0.38477172 10:0.57495631 11:0.20505458 12:0.3960565 13:0.60452726 14:0.25937776 15:0.46735063 16:0.35000027 17:0.51172955 18:0.40139132 
0 4 1:0.74363194 2:0.80658159 3:0.42450571 4:0.48503367 5:0.52396566 6:0.36224387 7:0.67898332 8:0.31602702 9:0.36231378 10:0.52856665 11:0.25751697 12:0.50596307 13:0.55603959 14:0.34228916 15:0.47745745 16:0.25945108 17:0.31464531 18:0.45347158 
4 0 1:0.57604854 2:0.86896333 3:0.40136801 4:0.63649215 5:0.57696374 6:0.30687518 7:0.88521002 8:0.29943808 9:0.37507087 10:0.65970538 11:0.22482466 12:0.59472213 13:0.7615449 14:0.25413296 15:0.55143061 16:0.3132416 17:0.57480642 18:0.62770054 
4 0 1:0.56087937 2:0.96280916 3:0.41748156 4:0.48302512 5:0.54109435 6:0.3376611 7:0.68222387 8:0.2627507 9:0.42026712 10:0.55825595 11:0.29241542 12:0.64375457 13:0.69653169 14:0.29096844 15:0.6429047 16:0.38063144 17:0.50268878 18:0.6377079 
4 0 1:0.53037129 2:0.91223678 3:0.37976025 4:0.54185082 5:0.57326261 6:0.36643176 7:0.82455603 8:0.32767507 9:0.53362397 10:0.63422484 11:0.16661539 12:0.55801204 13:0.62562547 14:0.31944904 15:0.70962765 16:0.33518369 17:0.51583545 18:0.70480549 
4 0 1:0.61311465 2:0.92464323 3:0.35186558 4:0.57142892 5:0.61260938 6:0.28255909 7:0.78990675 8:0.25972108 9:0.36325105 10:0.68410483 11:0.30072367 12:0.523807 13:0.62387714 14:0.29994216 15:0.66216171 16:0.36759141 17:0.58907756 18:0.69036509 
4 0 1:0.53773667 2:0.89664643 3:0.2794278 4:0.56876861 5:0.55750965 6:0.26628155 7:0.71959515 8:0.19493656 9:0.4451426 10:0.67278894 11:0.25024663 12:0.54063744 13:0.46599925 14:0.26040862 15:0.65952476 16:0.20791163 17:0.45062992 18:0.64637656 
4 0 1:0.33171605 2:0.81330707 3:0.47835457 4:0.52718732 5:0.65741461 6:0.33473165 7:0.6447517 8:0.31133724 9:0.50815114 10:0.67264591 11:0.34494796 12:0.69704505 13:0.97024472 14:0.51870713 15:0.67808391 16:0.44358876 17:0.31513048 18:0.65462584 
4 0 1:0.40812612 2:0.90717307 3:0.48135477 4:0.53430736 5:0.60129076 6:0.30412618 7:0.76336551 8:0.29856452 9:0.38745874 10:0.59125578 11:0.26054974 12:0.58490173 13:0.72685911 14:0.31922541 15:0.61186915 16:0.37909787 17:0.44921343 18:0.59912534 
4 0 1:0.54681769 2:0.92426771 3:0.44546166 4:0.47499435 5:0.50728383 6:0.24328377 7:0.66382937 8:0.17886067 9:0.37893204 10:0.67883852 11:0.264898 12:0.4490639 13:0.55431677 14:0.32289295 15:0.71737942 16:0.31650875 17:0.53926997 18:0.86666072 
4 0 1:0.49523922 2:0.83076447 3:0.44151735 4:0.4929608 5:0.59125556 6:0.23891916 7:0.57045299 8:0.26016143 9:0.47720679 10:0.63583436 11:0.38159272 12:0.65142019 13:0.60165362 14:0.21511318 15:0.60843225 16:0.49119479 17:0.49397332 18:0.51984285 
4 0 1:0.51739815 2:0.88401482 3:0.44446202 4:0.46631434 5:0.59104207 6:0.28838928 7:0.6853421 8:0.32539983 9:0.4484588 10:0.70714511 11:0.48058787 12:0.58223633 13:0.469505 14:0.23725286 15:0.63064559 16:0.38097164 17:0.56097385 18:0.64985298 
4 0 1:0.44752662 2:0.87110337 3:0.41278225 4:0.48964284 5:0.5343476 6:0.37927172 7:0.70801554 8:0.31831794 9:0.43236557 10:0.60043552 11:0.33006914 12:0.49479713 13:0.67545146 14:0.47866464 15:0.62606079 16:0.40377794 17:0.50797937 18:0.80793742 
0 4 1:0.75289104 2:0.84953791 3:0.47054159 4:0.52344801 5:0.55932449 6:0.23492403 7:0.61957157 8:0.27136983 9:0.38731715 10:0.61799874 11:0.33871495 12:0.47124682 13:0.57759293 14:0.29498222 15:0.4791404 16:0.030932718 17:0.23062385 18:0.38370333 
0 4 1:0.50602387 2:0.88428483 3:0.36195022 4:0.43508535 5:0.58543206 6:0.35438904 7:0.70952247 8:0.35895919 9:0.53873246 10:0.72280303 11:0.32134273 12:0.38728675 13:0.61259048 14:0.39237681 15:0.58678984 16:0.20169047 17:0.43140094 18:0.63974053 
0 4 1:0.7322134 2:0.8796653 3:0.37115719 4:0.50820451 5:0.56506138 6:0.20621008 7:0.65559265 8:0.26807083 9:0.36855189 10:0.56291317 11:0.15305101 12:0.44659205 13:0.63585335 14:0.33465619 15:0.6402373 16:0.17577716 17:0.2467137 18:0.44657818 
4 4 1:0.44774294 2:0.63680256 3:0.44123515 4:0.52504474 5:0.63750554 6:0.60084171 7:0.57906521 8:0.47100205 9:0.80629429 10:0.29200152 11:0.66541586 12:0.7287986 13:0.44744974 14:0.72540211 15:0.39092106 16:0.46438723 17:0.68423869 18:0.28514112 
4 4 1:0.45311173 2:0.72762136 3:0.40859558 4:0.56187599 5:0.62103682 6:0.59879658 7:0.62558649 8:0.44658245 9:0.72655162 10:0.2918145 11:0.62762132 12:0.6249048 13:0.73450513 14:0.79558679 15:0.26059923 16:0.60085128 17:0.67386494 18:0.1805357 
4 4 1:0.49556879 2:0.67906446 3:0.53144733 4:0.63527141 5:0.65443231 6:0.59870518 7:0.55707217 8:0.33256546 9:0.75630738 10:0.43651079 11:0.644985 12:0.49388303 13:0.51724402 14:0.83312036 15:0.35495957 16:0.47904463 17:0.72034699 18:0.23177246 
0 4 1:0.55424828 2:0.76604891 3:0.69751075 4:0.36602736 5:0.66031348 6:0.59718044 7:0.63764847 8:0.65867691 9:0.71396892 10:0.31840938 11:0.53424833 12:0.58089767 13:0.67707647 14:0.63730802 15:0.40160726 16:0.46783516 17:0.54770497 18:0.2754165 
0 3.3196929908129982 1:0.5866112 2:0.71518752 3:0.53247787 4:0.55858459 5:0.69673296 6:0.71104093 7:0.6725814 8:0.40776238 9:0.81148939 10:0.44921959 11:0.56525076 12:0.62053487 13:0.48254911 14:0.67262001 15:0.49572942 16:0.59481537 17:0.66415103 18:0.32709235 
4 4 1:0.51691304 2:0.79665943 3:0.50909925 4:0.62057595 5:0.63969835 6:0.5561357 7:0.61653935 8:0.39159679 9:0.7432677 10:0.42467477 11:0.62776901 12:0.60535527 13:0.50892208 14:0.7363284 15:0.43895586 16:0.50906937 17:0.65404058 18:0.28456264 
4 4 1:0.41321109 2:0.82851909 3:0.50777575 4:0.58583048 5:0.65021663 6:0.54832492 7:0.55632567 8:0.40685236 9:0.66725021 10:0.28291123 11:0.75036325 12:0.71924896 13:0.47941614 14:0.70573624 15:0.36262764 16:0.43575925 17:0.54660822 18:0.27866618 
0 4 1:0.5645588 2:0.7892176 3:0.60384815 4:0.39890125 5:0.58028277 6:0.68412808 7:0.69207031 8:0.4984073 9:0.80572962 10:0.43876098 11:0.52315091 12:0.50914818 13:0.48863644 14:0.66187121 15:0.43359003 16:0.55717313 17:0.70427533 18:0.35447613 
4 4 1:0.40097993 2:0.70099047 3:0.39140512 4:0.50537632 5:0.64918651 6:0.61757562 7:0.63519314 8:0.54980456 9:0.73269909 10:0.21050805 11:0.5374859 12:0.60749236 13:0.50934518 14:0.74197545 15:0.43029497 16:0.47634523 17:0.58379064 18:0.13039767 
4 4 1:0.4930958 2:0.64704206 3:0.60121577 4:0.59202797 5:0.66679058 6:0.60664272 7:0.66399817 8:0.52801277 9:0.71963923 10:0.40950521 11:0.75857694 12:0.58349331 13:0.3800153 14:0.72591892 15:0.50910007 16:0.53018972 17:0.6679996 18:0.4067529 
0 4 1:0.55222667 2:0.76095736 3:0.61575488 4:0.40380872 5:0.64749863 6:0.66628719 7:0.62834955 8:0.49462774 9:0.77757141 10:0.43748158 11:0.54015217 12:0.46939615 13:0.47470535 14:0.67918699 15:0.54633495 16:0.67981098 17:0.70940636 18:0.39776625 
4 0 1:0.36274519 2:0.63805573 3:0.49044446 4:0.63076864 5:0.696112 6:0.60406776 7:0.61541215 8:0.44823736 9:0.81203648 10:0.55768682 11:0.72409119 12:0.49781107 13:0.46051946 14:0.6968049 15:0.48815768 16:0.63386695 17:0.59191962 18:0.41224088 
4 0 1:0.39828017 2:0.70814418 3:0.53972269 4:0.59783599 5:0.65093201 6:0.57730794 7:0.62893241 8:0.38985495 9:0.61679717 10:0.4632204 11:0.62205419 12:0.52740096 13:0.52754682 14:0.6154194 15:0.39412889 16:0.4376538 17:0.64906671 18:0.41357401 
0 4 1:0.65640865 2:0.7113999 3:0.54321877 4:0.60534325 5:0.63557969 6:0.66418358 7:0.60529752 8:0.43366893 9:0.82800982 10:0.35546048 11:0.63443068 12:0.51753853 13:0.42746099 14:0.72470369 15:0.31844623 16:0.53117485 17:0.58244225 18:0.2497967 
0 4 1:0.50926243 2:0.67271449 3:0.66302684 4:0.4651929 5:0.69049175 6:0.62518529 7:0.59168973 8:0.48423824 9:0.72769729 10:0.40717819 11:0.53304781 12:0.51236127 13:0.59137138 14:0.75501054 15:0.54857946 16:0.59835132 17:0.70589538 18:0.3062936 
4 4 1:0.44080259 2:0.73390648 3:0.5644719 4:0.56457384 5:0.48626518 6:0.6358974 7:0.61727587 8:0.41562231 9:0.88986055 10:0.35235995 11:0.5910576 12:0.5730365 13:0.42833065 14:0.756161 15:0.40849962 16:0.67916521 17:0.64319762 18:0.10491406 
0 4 1:0.59821683 2:0.73833361 3:0.59700436 4:0.51474265 5:0.65023429 6:0.61222077 7:0.60067031 8:0.50657623 9:0.83825255 10:0.3966467 11:0.64009351 12:0.72405821 13:0.51957225 14:0.72066126 15:0.52547706 16:0.50374764 17:0.65509721 18:0.34928803 
4 4 1:0.5064055 2:0.61105445 3:0.53152773 4:0.60250785 5:0.55978663 6:0.59030541 7:0.59143018 8:0.42025625 9:0.74438206 10:0.3467239 11:0.80087185 12:0.66808484 13:0.39155291 14:0.70408706 15:0.3170157 16:0.48422165 17:0.68054145 18:0.24916614 
4 4 1:0.57830091 2:0.63547062 3:0.47229283 4:0.44883618 5:0.55504141 6:0.69149289 7:0.66487917 8:0.43781501 9:0.84337197 10:0.3448321 11:0.52573423 12:0.66231578 13:0.50892749 14:0.71640191 15:0.47483269 16:0.5306238 17:0.63323713 18:0.34448145 
4 4 1:0.41673661 2:0.66172361 3:0.42438939 4:0.62737674 5:0.56866017 6:0.63873207 7:0.61017763 8:0.30405602 9:0.86413411 10:0.44286016 11:0.64458448 12:0.6854892 13:0.47047642 14:0.69964104 15:0.37183317 16:0.59386061 17:0.63764096 18:0.21729589 
4 4 1:0.58067938 2:0.65933693 3:0.37622138 4:0.69509909 5:0.63119915 6:0.65641294 7:0.63166634 8:0.44320315 9:0.86737106 10:0.1648543 11:0.49968614 12:0.63291218 13:0.55589558 14:0.79629958 15:0.23570166 16:0.5177451 17:0.72982186 18:0.30125001 
0 4 1:0.63501879 2:0.72418866 3:0.61159915 4:0.51061136 5:0.64979824 6:0.69806478 7:0.585222 8:0.33941925 9:0.7607355 10:0.372536 11:0.56199606 12:0.65105799 13:0.5208699 14:0.72531895 15:0.50189053 16:0.46334231 17:0.55063116 18:0.27464103 
4 0 1:0.55707768 2:0.70483775 3:0.60635857 4:0.63206158 5:0.51580438 6:0.58611579 7:0.57541151 8:0.46639067 9:0.8243115 10:0.45849073 11:0.7636927 12:0.64175972 13:0.49897585 14:0.67438485 15:0.35960032 16:0.55343031 17:0.66462312 18:0.46219532 
0 4 1:0.55363831 2:0.74820765 3:0.54358785 4:0.52554702 5:0.65475999 6:0.65692233 7:0.68122735 8:0.46481113 9:0.79361026 10:0.485 11:0.60682859 12:0.52830386 13:0.43973824 14:0.67390883 15:0.48821415 16:0.53949833 17:0.59781968 18:0.35640459 
0 4 1:0.58109219 2:0.75258943 3:0.67063447 4:0.4340416 5:0.61933275 6:0.60854123 7:0.59445814 8:0.48569378 9:0.79905419 10:0.5890808 11:0.79256476 12:0.59876441 13:0.45715133 14:0.63538432 15:0.36720634 16:0.39140681 17:0.54926838 18:0.17865854 
4 4 1:0.59360933 2:0.66249609 3:0.55876817 4:0.44900734 5:0.5150944 6:0.67763864 7:0.66187209 8:0.33396613 9:0.76592554 10:0.48330819 11:0.62469371 12:0.72892641 13:0.63172183 14:0.64186091 15:0.41488991 16:0.63712063 17:0.7392053 18:0.35751305 
4 4 1:0.42337109 2:0.74897128 3:0.50779411 4:0.44867511 5:0.64053883 6:0.58580083 7:0.53661459 8:0.34294399 9:0.70651514 10:0.42773955 11:0.6359322 12:0.64064635 13:0.51519633 14:0.68645746 15:0.49565814 16:0.50069762 17:0.53860068 18:0.21723571 
4 4 1:0.53661863 2:0.68551391 3:0.41528105 4:0.51485766 5:0.56102423 6:0.64237398 7:0.62791366 8:0.42294002 9:0.89903496 10:0.3454982 11:0.63652819 12:0.88291576 13:0.56191394 14:0.73739075 15:0.43102129 16:0.49464864 17:0.70189171 18:0.35313247 
0 4 1:0.59516224 2:0.73428228 3:0.5711632 4:0.5944838 5:0.57094394 6:0.51797067 7:0.60721981 8:0.35438384 9:0.65020655 10:0.43247645 11:0.6563901 12:0.58108032 13:0.46838665 14:0.61827513 15:0.36380179 16:0.4631083 17:0.57970471 18:0.32281298 
4 0 1:0.45539045 2:0.69059204 3:0.55440836 4:0.70809322 5:0.53334918 6:0.61180424 7:0.56590007 8:0.29644204 9:0.80082087 10:0.41459691 11:0.73737613 12:0.47622936 13:0.35077198 14:0.81641034 15:0.35974844 16:0.50772282 17:0.61147018 18:0.28579978 
4 4 1:0.55864068 2:0.81901798 3:0.56524795 4:0.43478415 5:0.67158089 6:0.6163925 7:0.62628469 8:0.44905394 9:0.75722161 10:0.5609185 11:0.68135091 12:0.57206382 13:0.48654116 14:0.63821404 15:0.44544947 16:0.578867 17:0.75543931 18:0.36436829 
0 4 1:0.5883497 2:0.78065208 3:0.63138656 4:0.43770938 5:0.59351862 6:0.66925779 7:0.64817388 8:0.47416685 9:0.78759471 10:0.41491755 11:0.60389342 12:0.55974297 13:0.47413623 14:0.74742469 15:0.52643191 16:0.5657595 17:0.62517916 18:0.25510446 
0 4 1:0.67038905 2:0.7797046 3:0.46423125 4:0.49870245 5:0.65827887 6:0.65644242 7:0.63413792 8:0.42305607 9:0.76693097 10:0.32524797 11:0.45741639 12:0.46450022 13:0.50821168 14:0.79950466 15:0.46674805 16:0.48739923 17:0.58772673 18:0.23308927 
1.3048492262116664 0 1:0.50266508 2:0.73602459 3:0.61652118 4:0.72347974 5:0.68891773 6:0.60707023 7:0.56803355 8:0.39370241 9:0.80327859 10:0.42049433 11:0.62765048 12:0.44858998 13:0.42732738 14:0.6983374 15:0.30477844 16:0.65023629 17:0.73346548 18:0.31662523 
0 4 1:0.57678066 2:0.82611639 3:0.56077686 4:0.46788898 5:0.68713564 6:0.69065923 7:0.67793895 8:0.47320718 9:0.72281216 10:0.37566342 11:0.61076324 12:0.62278641 13:0.58870944 14:0.73735331 15:0.34065417 16:0.32810932 17:0.62538268 18:0.24458528 
0 4 1:0.49898496 2:0.81579999 3:0.58867139 4:0.38353825 5:0.64667873 6:0.67104547 7:0.60906403 8:0.4818352 9:0.8266594 10:0.47944392 11:0.62225373 12:0.56247291 13:0.44201557 14:0.6340054 15:0.44082161 16:0.5828054 17:0.66116493 18:0.17291127 
4 0 1:0.37128008 2:0.78523542 3:0.58767507 4:0.45731658 5:0.5847206 6:0.68202619 7:0.62005411 8:0.43538198 9:0.83023493 10:0.54187118 11:0.66252776 12:0.56683624 13:0.68964999 14:0.77057128 15:0.47931934 16:0.59082245 17:0.65307843 18:0.33617319 
0 4 1:0.53186076 2:0.71613852 3:0.66639724 4:0.32712068 5:0.73708547 6:0.77814599 7:0.71012528 8:0.60248752 9:0.77697003 10:0.47415766 11:0.58774954 12:0.51371438 13:0.62832194 14:0.76516472 15:0.49624683 16:0.38917152 17:0.61044883 18:0.3893449 
4 4 1:0.39083342 2:0.67316895 3:0.54944847 4:0.38834443 5:0.68360649 6:0.73357141 7:0.6375427 8:0.61849901 9:0.87721253 10:0.42782248 11:0.65358451 12:0.70451247 13:0.52472024 14:0.66073005 15:0.61045885 16:0.69005989 17:0.67378311 18:0.41865753 
4 4 1:0.62361382 2:0.70144802 3:0.55177717 4:0.50713013 5:0.62413885 6:0.65190883 7:0.6386932 8:0.46753477 9:0.83030057 10:0.42681989 11:0.62050828 12:0.65775555 13:0.65847079 14:0.8613604 15:0.50902453 16:0.51242549 17:0.70250283 18:0.43368311 
0 4 1:0.67875669 2:0.68456644 3:0.66265776 4:0.51515227 5:0.60780283 6:0.65299462 7:0.60179827 8:0.40993547 9:0.77077065 10:0.39936613 11:0.634246 12:0.6427711 13:0.47358982 14:0.75919121 15:0.49739283 16:0.38856851 17:0.58889606 18:0.28236914 
0 4 1:0.50226159 2:0.81564018 3:0.5067631 4:0.4184951 5:0.61141952 6:0.51701067 7:0.61004194 8:0.47644963 9:0.71323192 10:0.46463109 11:0.57416584 12:0.51105528 13:0.49868456 14:0.65992162 15:0.47196033 16:0.47210257 17:0.60153144 18:0.35173138 
0 4 1:0.56339373 2:0.72145126 3:0.64527795 4:0.3715921 5:0.79466252 6:0.69596529 7:0.57322735 8:0.42269784 9:0.64219569 10:0.49052035 11:0.67886732 12:0.6659438 13:0.69585019 14:0.67785855 15:0.51914343 16:0.55383216 17:0.68216434 18:0.47812824 
4 0 1:0.54597627 2:0.68670256 3:0.72689241 4:0.59081384 5:0.47119954 6:0.78618539 7:0.54065529 8:0.55861647 9:0.60933208 10:0.36925944 11:0.52446233 12:0.45466351 13:0.59622411 14:0.51320264 15:0.30851689 16:0.40870698 17:0.75270518 18:0.42908686 
4 0 1:0.50229976 2:0.60243557 3:0.7014144 4:0.58978093 5:0.45346222 6:0.74179111 7:0.60820496 8:0.56470219 9:0.79070207 10:0.49172957 11:0.61396259 12:0.534086 13:0.89073007 14:0.64557588 15:0.50839682 16:0.51825172 17:0.58170782 18:0.49035482 
4 0 1:0.52939989 2:0.61645933 3:0.7779462 4:0.65298644 5:0.53812423 6:0.80383793 7:0.61722035 8:0.55059266 9:0.69069401 10:0.44108523 11:0.52332667 12:0.46251154 13:0.8422818 14:0.60511533 15:0.48738323 16:0.60913343 17:0.69791238 18:0.40597554 
4 0 1:0.46659943 2:0.56846393 3:0.71144666 4:0.59603801 5:0.43239807 6:0.84412592 7:0.54391426 8:0.52864156 9:0.68514492 10:0.56302424 11:0.65686838 12:0.55787109 13:0.87658671 14:0.61820521 15:0.48712855 16:0.47164699 17:0.62012089 18:0.39772376 
4 0 1:0.550674 2:0.61653125 3:0.71585289 4:0.58668987 5:0.50242161 6:0.8451614 7:0.63868289 8:0.6100408 9:0.7917786 10:0.55095409 11:0.67924745 12:0.62248871 13:0.85586001 14:0.56434872 15:0.41348972 16:0.49008214 17:0.59724907 18:0.36909706 
4 0 1:0.55060367 2:0.6016879 3:0.70973458 4:0.61720555 5:0.4482142 6:0.84099883 7:0.50220469 8:0.5597672 9:0.66854828 10:0.48313202 11:0.63311654 12:0.58052448 13:0.73768786 14:0.51286567 15:0.46168135 16:0.37569131 17:0.62297363 18:0.34947414 
4 0 1:0.45194552 2:0.60476409 3:0.73875235 4:0.6195976 5:0.43794715 6:0.79799114 7:0.48306292 8:0.55086692 9:0.72059176 10:0.57954213 11:0.63595683 12:0.58658331 13:0.77477512 14:0.49964535 15:0.55004327 16:0.5075531 17:0.55858327 18:0.4390504 
0 4 1:0.48546119 2:0.66232981 3:0.74233532 4:0.44784887 5:0.64187008 6:0.57437112 7:0.40468343 8:0.75721515 9:0.67272537 10:0.28141232 11:0.6717381 12:0.37544519 13:0.60808913 14:0.56489765 15:0.48926925 16:0.48331641 17:0.57023027 18:0.48303512 
0 4 1:0.60186681 2:0.74944237 3:0.71614878 4:0.47297945 5:0.6158392 6:0.64909522 7:0.38230227 8:0.72871031 9:0.57498667 10:0.31792528 11:0.57217116 12:0.10359433 13:0.48349368 14:0.53543695 15:0.50277088 16:0.60013266 17:0.61010554 18:0.3417223 
0 4 1:0.67626782 2:0.76470703 3:0.76463746 4:0.39104356 5:0.61916937 6:0.70211971 7:0.46782976 8:0.46809014 9:0.53174011 10:0.45380536 11:0.45905033 12:0.47354173 13:0.66594723 14:0.78656726 15:0.50717313 16:0.33973502 17:0.67858319 18:0.55427835 
0 4 1:0.6223661 2:0.76137712 3:0.71701058 4:0.39623387 5:0.82837439 6:0.73824854 7:0.4618502 8:0.58557195 9:0.39221707 10:0.4462119 11:0.45699368 12:0.53710933 13:0.66229563 14:0.64803634 15:0.35208579 16:0.26695096 17:0.66357408 18:0.40368369 
4 0 1:0.52044934 2:0.66723173 3:0.85847544 4:0.41403464 5:0.62991209 6:0.67666761 7:0.46634818 8:0.56694612 9:0.49792095 10:0.60685487 11:0.48232336 12:0.57768933 13:0.57927788 14:0.6231388 15:0.42463703 16:0.37496885 17:0.66610548 18:0.30186798 
0 4 1:0.71599392 2:0.72367211 3:0.7500889 4:0.40005932 5:0.59583652 6:0.7470697 7:0.46146035 8:0.54663233 9:0.53431364 10:0.44493718 11:0.60094283 12:0.58741446 13:0.55993188 14:0.64952321 15:0.27348803 16:0.33773823 17:0.66457461 18:0.46498744 
4 4 1:0.674235 2:0.63663286 3:0.74651212 4:0.51614744 5:0.55191757 6:0.68208775 7:0.59376205 8:0.52094751 9:0.52134471 10:0.60351344 11:0.64490238 12:0.44344674 13:0.50725068 14:0.73949153 15:0.44623304 16:0.29828985 17:0.7091015 18:0.46989466 
0 4 1:0.66169431 2:0.71824686 3:0.75472868 4:0.43039116 5:0.68978002 6:0.67971012 7:0.40813841 8:0.50239301 9:0.5399451 10:0.42871486 11:0.56580194 12:0.42545334 13:0.60851252 14:0.70126573 15:0.23565167 16:0.24602102 17:0.72870217 18:0.52929561 
4 1.7168341571264805 1:0.44228486 2:0.55045292 3:0.80229743 4:0.38858582 5:0.67256219 6:0.71170321 7:0.42784627 8:0.7292507 9:0.52455284 10:0.57385482 11:0.57712944 12:0.72624707 13:0.58668391 14:0.6012754 15:0.16411786 16:0.38159454 17:0.67271146 18:0.64168252 
4 0 1:0.48811027 2:0.6623328 3:0.82751308 4:0.37694974 5:0.71609449 6:0.77986485 7:0.49033333 8:0.65393573 9:0.50159077 10:0.54483742 11:0.47249937 12:0.56674334 13:0.43791421 14:0.71922971 15:0.36497914 16:0.3579744 17:0.63976273 18:0.43834068 
4 0 1:0.48871492 2:0.57072622 3:0.73623445 4:0.43519525 5:0.7066356 6:0.7021097 7:0.42824776 8:0.68313845 9:0.58958615 10:0.56331384 11:0.47995547 12:0.6302924 13:0.61872861 14:0.75252538 15:0.43103422 16:0.65797177 17:0.69480439 18:0.4566356 
4 0 1:0.51965255 2:0.60442818 3:0.81631355 4:0.44748424 5:0.54841724 6:0.62826162 7:0.45295086 8:0.59548104 9:0.49723577 10:0.52533037 11:0.57970575 12:0.58321234 13:0.43659864 14:0.63479357 15:0.37236541 16:0.396151 17:0.57497223 18:0.43144348 
4 0 1:0.597035 2:0.61622644 3:0.7569267 4:0.52127689 5:0.56782975 6:0.75814558 7:0.49492758 8:0.64385191 9:0.53553728 10:0.58569655 11:0.50651263 12:0.56629696 13:0.52056495 14:0.72884275 15:0.24822996 16:0.36681016 17:0.63402242 18:0.63306472 
4 0 1:0.52254548 2:0.59237267 3:0.80166854 4:0.48424296 5:0.65272772 6:0.74250479 7:0.4437421 8:0.68150498 9:0.54838475 10:0.54338574 11:0.50432461 12:0.48624264 13:0.6005719 14:0.71383638 15:0.3610695 16:0.4692916 17:0.66876356 18:0.68134254 
4 0 1:0.44930787 2:0.59311061 3:0.87699029 4:0.41460008 5:0.57446607 6:0.71250903 7:0.50084144 8:0.5846157 9:0.53244418 10:0.758153 11:0.50759002 12:0.66535807 13:0.5287723 14:0.66672176 15:0.43582675 16:0.43407506 17:0.68372943 18:0.61598596 
0 4 1:0.58816332 2:0.64969489 3:0.80272389 4:0.41477802 5:0.58887527 6:0.76746262 7:0.48983455 8:0.64377978 9:0.50474234 10:0.46379184 11:0.64071325 12:0.58754618 13:0.80055305 14:0.73178409 15:0.2840062 16:0.26348599 17:0.55924523 18:0.53904125 
4 0 1:0.6164462 2:0.62742717 3:0.76636472 4:0.49156158 5:0.44612843 6:0.70349167 7:0.52055887 8:0.54095811 9:0.50447305 10:0.55247536 11:0.42343208 12:0.66530927 13:0.76556625 14:0.75614135 15:0.53378102 16:0.54258286 17:0.66615566 18:0.79134895 
0 4 1:0.62267379 2:0.77798052 3:0.79498257 4:0.3159365 5:0.62282462 6:0.6391135 7:0.456021 8:0.55634939 9:0.47084218 10:0.51576822 11:0.5002412 12:0.49341132 13:0.63423888 14:0.68204165 15:0.44453501 16:0.19764257 17:0.69776653 18:0.56015184 
4 4 1:0.55173323 2:0.62190303 3:0.67958782 4:0.40661677 5:0.74020614 6:0.67868153 7:0.47224735 8:0.73002928 9:0.48866483 10:0.55713772 11:0.57244788 12:0.53727174 13:0.67182184 14:0.68586783 15:0.35452286 16:0.24530103 17:0.77307947 18:0.67102185 
4 0 1:0.40998652 2:0.59373184 3:0.9331827 4:0.45377107 5:0.63161062 6:0.6815268 7:0.43339884 8:0.65997022 9:0.46312535 10:0.73321324 11:0.54617831 12:0.72994535 13:0.55412497 14:0.65624674 15:0.36058564 16:0.53441011 17:0.74345671 18:0.53006661 
0 4 1:0.67044085 2:0.78350266 3:0.73051538 4:0.40879194 5:0.71092964 6:0.67930953 7:0.52748541 8:0.61083853 9:0.48539482 10:0.49469033 11:0.37629286 12:0.40474023 13:0.62208642 14:0.5615043 15:0.24820412 16:0.086019637 17:0.53747313 18:0.35079063 
4 0 1:0.63464903 2:0.60750541 3:0.76014721 4:0.56861806 5:0.56404743 6:0.75774943 7:0.51944277 8:0.57270477 9:0.517266 10:0.58410526 11:0.39881775 12:0.53899801 13:0.48914939 14:0.70880144 15:0.42992491 16:0.40434693 17:0.61277188 18:0.52925119 
4 0 1:0.56295822 2:0.72073231 3:0.78063255 4:0.41720249 5:0.72392619 6:0.72943191 7:0.41738044 8:0.54687842 9:0.37601501 10:0.46979707 11:0.49703096 12:0.69536133 13:0.87525084 14:0.8174679 15:0.34427214 16:0.24424294 17:0.6239588 18:0.63218548 
0 4 1:0.66423158 2:0.75369312 3:0.69134669 4:0.42080715 5:0.73990576 6:0.71989742 7:0.48908257 8:0.63611834 9:0.47883359 10:0.50760961 11:0.39385952 12:0.41600317 13:0.72698256 14:0.61815585 15:0.35556517 16:0.15082796 17:0.55463544 18:0.427839 
0 4 1:0.66964528 2:0.76434482 3:0.68100413 4:0.37986596 5:0.7532168 6:0.67703137 7:0.5415468 8:0.52552967 9:0.5300457 10:0.52535188 11:0.5599187 12:0.29424886 13:0.63708494 14:0.69360632 15:0.37228184 16:0.31501145 17:0.7083404 18:0.47585161 
0 4 1:0.85330474 2:0.67750924 3:0.81249003 4:0.44110644 5:0.40286121 6:0.60155637 7:0.27637907 8:0.73229746 9:0.43656453 10:0.47748275 11:0.46166143 12:0.3923409 13:0.44487942 14:0.61606681 15:0.43703116 16:0.39637603 17:0.45047843 18:0.40084634 
0 4 1:0.74515699 2:0.74021971 3:0.81857446 4:0.41435508 5:0.49118276 6:0.54034748 7:0.48224396 8:0.66909377 9:0.49723252 10:0.4926587 11:0.57784012 12:0.41317849 13:0.39528647 14:0.61566889 15:0.40647197 16:0.4240614 17:0.53782505 18:0.44521824 
0 4 1:0.74243251 2:0.57154763 3:0.72036229 4:0.57707071 5:0.57791466 6:0.5588954 7:0.31961785 8:0.75028374 9:0.44916217 10:0.39345857 11:0.5647884 12:0.4482694 13:0.43298616 14:0.76634438 15:0.446975 16:0.4893044 17:0.47078326 18:0.43340059 
0 4 1:0.80862263 2:0.6549367 3:0.7722231 4:0.5065116 5:0.49007991 6:0.60563321 7:0.33891171 8:0.67513517 9:0.50378607 10:0.4600774 11:0.63432912 12:0.48264918 13:0.46062306 14:0.67069949 15:0.42029347 16:0.58454574 17:0.47720709 18:0.38775013 
0 4 1:0.81981423 2:0.68806002 3:0.7361091 4:0.50050699 5:0.49145402 6:0.66162863 7:0.30168414 8:0.59389799 9:0.56897362 10:0.50160605 11:0.63144281 12:0.46591485 13:0.17448829 14:0.61151743 15:0.44289773 16:0.58183329 17:0.59914508 18:0.44634361 
0 4 1:0.79242783 2:0.58133826 3:0.71619211 4:0.60369268 5:0.44446824 6:0.6028855 7:0.34927875 8:0.58458302 9:0.55906844 10:0.42180949 11:0.49751061 12:0.47379251 13:0.40057455 14:0.74378249 15:0.49183101 16:0.69136036 17:0.50955999 18:0.1658211 
0 4 1:0.81514627 2:0.73405491 3:0.73956007 4:0.45813966 5:0.48208579 6:0.59612119 7:0.33667546 8:0.62610105 9:0.52776397 10:0.42287424 11:0.57726857 12:0.44036674 13:0.43399353 14:0.54597678 15:0.3348879 16:0.46289198 17:0.49553593 18:0.48101945 
0 4 1:0.84150287 2:0.84221627 3:0.7609103 4:0.31425077 5:0.4503284 6:0.55854419 7:0.41850044 8:0.65180751 9:0.53823547 10:0.48016121 11:0.53762542 12:0.48568339 13:0.40113088 14:0.67898364 15:0.50371215 16:0.5203964 17:0.50396255 18:0.49637251 
0 4 1:0.80850999 2:0.65595814 3:0.73088615 4:0.55211238 5:0.52630924 6:0.68337557 7:0.42895883 8:0.66526304 9:0.59815937 10:0.48492409 11:0.58930293 12:0.50649526 13:0.32112623 14:0.5532448 15:0.35226076 16:0.54949826 17:0.55757707 18:0.45791365 
0 4 1:0.82295238 2:0.72695042 3:0.76561014 4:0.48688539 5:0.49317537 6:0.54489147 7:0.37070309 8:0.63676266 9:0.5275059 10:0.50569207 11:0.59149614 12:0.5061427 13:0.37420598 14:0.59826754 15:0.4075207 16:0.50049564 17:0.49052051 18:0.28187422 
0 4 1:0.81838155 2:0.76227184 3:0.80712611 4:0.41644838 5:0.50381112 6:0.58801227 7:0.38498694 8:0.6884576 9:0.48529562 10:0.42062439 11:0.59651949 12:0.50268535 13:0.46813509 14:0.68982845 15:0.51711116 16:0.46795858 17:0.51610634 18:0.47446356 
0 4 1:0.8337732 2:0.82762034 3:0.75338126 4:0.30429573 5:0.42157402 6:0.57201801 7:0.42871996 8:0.59161793 9:0.54666577 10:0.51595946 11:0.54205088 12:0.43889982 13:0.56563529 14:0.65467375 15:0.42726503 16:0.43585306 17:0.46326702 18:0.31642549 
0 4 1:0.8692216 2:0.78756698 3:0.73351369 4:0.37431314 5:0.40798493 6:0.59165254 7:0.37299568 8:0.62687472 9:0.57790777 10:0.47361675 11:0.56661485 12:0.48673298 13:0.57558029 14:0.7044632 15:0.48885976 16:0.53608535 17:0.50478295 18:0.48500421 
0 4 1:0.72115379 2:0.68986503 3:0.69856523 4:0.6218491 5:0.51170838 6:0.68871617 7:0.63201446 8:0.58874303 9:0.70537877 10:0.38381901 11:0.72320301 12:0.61490054 13:0.6542319 14:0.50780886 15:0.25128547 16:0.33042367 17:0.69806264 18:0.5456853 
0.25675427915954935 4 1:0.63091221 2:0.69852352 3:0.59175004 4:0.55033721 5:0.60419138 6:0.61646143 7:0.62733275 8:0.58095587 9:0.73071369 10:0.38821897 11:0.58955604 12:0.62811698 13:0.70536433 14:0.66317923 15:0.39617497 16:0.38333456 17:0.69125468 18:0.52010461 
0 4 1:0.79385105 2:0.70307362 3:0.63869838 4:0.49962177 5:0.58373861 6:0.71435686 7:0.54863441 8:0.55946309 9:0.62345781 10:0.44192823 11:0.50178682 12:0.5032677 13:0.67788564 14:0.53291845 15:0.3926791 16:0.49464879 17:0.68282732 18:0.53788676 
0 4 1:0.67089148 2:0.63259827 3:0.72330655 4:0.44884919 5:0.64260588 6:0.69932642 7:0.44177558 8:0.8383538 9:0.6643757 10:0.43561378 11:0.68772168 12:0.53553109 13:0.79752009 14:0.54386779 15:0.4181675 16:0.12530246 17:0.63606849 18:0.53693745 
0 4 1:0.64405341 2:0.65516136 3:0.7760435 4:0.45364957 5:0.68396652 6:0.6593367 7:0.42597733 8:0.77769753 9:0.6177859 10:0.30169125 11:0.68158622 12:0.53905 13:0.69961211 14:0.63393554 15:0.59865631 16:0.29308734 17:0.69751863 18:0.61060088 
4 4 1:0.62209475 2:0.40814445 3:0.31934245 4:0.61525693 5:0.577676 6:0.71002885 7:0.37144576 8:0.52161873 9:0.85918449 10:0.35376034 11:0.51099816 12:0.62202889 13:0.60389787 14:0.74214913 15:0.54682651 16:0.17699326 17:0.58719117 18:0.45282108 
4 4 1:0.67589001 2:0.60707996 3:0.77594365 4:0.50881626 5:0.54869073 6:0.76716961 7:0.50638793 8:0.7894295 9:0.57960901 10:0.4610524 11:0.67806346 12:0.73880825 13:0.74944681 14:0.64906291 15:0.45825188 16:0.19700759 17:0.63830489 18:0.47469353 
0 4 1:0.63214038 2:0.58754925 3:0.78445353 4:0.46498901 5:0.616194 6:0.73051867 7:0.49559285 8:0.73128157 9:0.68341108 10:0.41074446 11:0.65435706 12:0.62246027 13:0.64229009 14:0.72381415 15:0.56824558 16:0.38426896 17:0.81664824 18:0.57309236 
4 4 1:0.5317424 2:0.57078256 3:0.71347679 4:0.53719016 5:0.58998631 6:0.83782163 7:0.41713604 8:0.76840165 9:0.79214445 10:0.32363156 11:0.64787174 12:0.78163212 13:0.77672103 14:0.67853816 15:0.47895852 16:0.41354364 17:0.82438468 18:0.41796016 
4 0 1:0.61024959 2:0.55530534 3:0.74032686 4:0.58054719 5:0.39695038 6:0.69566425 7:0.57618308 8:0.714299 9:0.61405031 10:0.38472735 11:0.52693852 12:0.48562248 13:0.54479971 14:0.5592247 15:0.56035279 16:0.5564198 17:0.59282244 18:0.44406811 
4 0 1:0.39353032 2:0.57225763 3:0.80565539 4:0.34628195 5:0.62390145 6:0.78220972 7:0.62378962 8:0.808624 9:0.49861033 10:0.41329759 11:0.67908282 12:1 13:0.50663477 14:0.52190205 15:0.58181606 16:0.44042429 17:0.66280916 18:0.48454271 
0 4 1:0.64737903 2:0.74663039 3:0.74361603 4:0.34450554 5:0.52287432 6:0.6522837 7:0.50648936 8:0.72651678 9:0.59899856 10:0.42137841 11:0.62952515 12:0.52275208 13:0.38485003 14:0.72795109 15:0.4969694 16:0.25647061 17:0.63929862 18:0.27939683 
4 0 1:0.53627853 2:0.61940139 3:0.65267426 4:0.44725479 5:0.67331675 6:0.86374058 7:0.57072984 8:0.81909047 9:0.47127273 10:0.51849876 11:0.61135214 12:0.70623376 13:0.51839854 14:0.62822833 15:0.71781523 16:0.39962678 17:0.41615392 18:0.36280675 
4 4 1:0.63862493 2:0.6196329 3:0.69778024 4:0.50400925 5:0.62425083 6:0.77950869 7:0.48256267 8:0.7655718 9:0.5535426 10:0.43674516 11:0.6454554 12:0.73366585 13:0.53288067 14:0.72209533 15:0.73233248 16:0.33963765 17:0.62921889 18:0.46998889 
0 4 1:0.60435502 2:0.70615273 3:0.82466469 4:0.35098467 5:0.53465115 6:0.57720353 7:0.55760586 8:0.75676262 9:0.6149243 10:0.40663551 11:0.69659551 12:0.6738892 13:0.5971256 14:0.64933526 15:0.63597241 16:0.38538742 17:0.61753533 18:0.36471139 
4 0 1:0.65330126 2:0.57723506 3:0.75867929 4:0.55230216 5:0.55655219 6:0.7648932 7:0.45137249 8:0.74327056 9:0.60183554 10:0.51528028 11:0.66102684 12:0.67064475 13:0.71725125 14:0.54160089 15:0.59572234 16:0.45567638 17:0.72906944 18:0.38849942 
4 4 1:0.5738397 2:0.59687404 3:0.7454391 4:0.49536527 5:0.62568198 6:0.76377176 7:0.58258764 8:0.8199213 9:0.57181711 10:0.48821177 11:0.62883484 12:0.63896107 13:0.36281362 14:0.6313923 15:0.44968302 16:0.41626943 17:0.66849413 18:0.34303776 
4 4 1:0.63621947 2:0.62684991 3:0.71358782 4:0.44792666 5:0.62074671 6:0.82346667 7:0.50202347 8:0.72558829 9:0.50177386 10:0.3972919 11:0.64237631 12:0.92534204 13:0.49206792 14:0.67726495 15:0.63633178 16:0.29145944 17:0.63274703 18:0.52877925 
4 0 1:0.47641204 2:0.4734407 3:0.77951125 4:0.5192017 5:0.69498222 6:0.89252803 7:0.6429989 8:0.77959079 9:0.3874148 10:0.46744288 11:0.66770919 12:0.75548717 13:0.42451473 14:0.62993654 15:0.51122189 16:0.40354864 17:0.71142166 18:0.48541739 
4 0 1:0.30217248 2:0.58743926 3:0.71773884 4:0.43074109 5:0.74458833 6:0.69327755 7:0.56971591 8:0.77815462 9:0.68620632 10:0.52849151 11:0.70300482 12:0.72675673 13:0.60215197 14:0.62412047 15:0.58148219 16:0.56728992 17:0.69892888 18:0.47320484 
4 0 1:0.49205957 2:0.62886539 3:0.77478936 4:0.4441408 5:0.52834197 6:0.86712429 7:0.57406734 8:0.82895664 9:0.65857899 10:0.46241681 11:0.56452472 12:0.67538945 13:0.39268094 14:0.50903572 15:0.6253697 16:0.46250735 17:0.6102984 18:0.12006198 
4 0 1:0.42361737 2:0.50641087 3:0.81027346 4:0.40412807 5:0.57460325 6:0.70358546 7:0.57851681 8:0.85348195 9:0.62831406 10:0.5231186 11:0.61162908 12:0.68989876 13:0.55059471 14:0.60132022 15:0.60434998 16:0.29830421 17:0.5954823 18:0.54321362 
4 4 1:0.53520856 2:0.50560163 3:0.66618802 4:0.38698543 5:0.76566607 6:0.87397257 7:0.55748822 8:0.76961965 9:0.52796172 10:0.43215089 11:0.68531006 12:0.85950731 13:0.61491608 14:0.41899497 15:0.55807339 16:0.3917395 17:0.54386049 18:0.37792625 
4 0 1:0.54675327 2:0.54007018 3:0.86506408 4:0.55652387 5:0.67022775 6:0.72720239 7:0.51932356 8:0.69134609 9:0.55377161 10:0.49944702 11:0.63251538 12:0.64472501 13:0.51791341 14:0.4748098 15:0.50181944 16:0.50305764 17:0.73495107 18:0.47836787 
0 0.26510946140599284 1:0.68616566 2:0.68104497 3:0.73102365 4:0.4697125 5:0.52409298 6:0.74000951 7:0.5122002 8:0.58404406 9:0.66547557 10:0.44614668 11:0.69018932 12:0.58453646 13:0.67682521 14:0.74654385 15:0.70420832 16:0.46847348 17:0.61040969 18:0.44556274 
4 4 1:0.57694143 2:0.60308845 3:0.69907637 4:0.55876244 5:0.58560982 6:0.6375614 7:0.40309593 8:0.7837998 9:0.55271484 10:0.57584731 11:0.77722261 12:0.81469114 13:0.67108887 14:0.64676874 15:0.66703366 16:0.39172752 17:0.68191741 18:0.43146772 
4 4 1:0.63410989 2:0.55731794 3:0.72305032 4:0.54749972 5:0.60807588 6:0.65982707 7:0.42536536 8:0.78866105 9:0.56077481 10:0.40164773 11:0.62666155 12:0.56586869 13:0.36661255 14:0.59263349 15:0.63709625 16:0.59257964 17:0.80577826 18:0.46697893 
4 0 1:0.32738477 2:0.48402556 3:0.84655221 4:0.43947846 5:0.61415528 6:0.72655752 7:0.58420211 8:0.73163395 9:0.62785902 10:0.48947112 11:0.72671588 12:0.61523332 13:0.69096512 14:0.48691057 15:0.40763916 16:0.54954753 17:0.63123174 18:0.40039147 
4 4 1:0.61951222 2:0.55078795 3:0.72681087 4:0.47174048 5:0.53317037 6:0.60193724 7:0.43439112 8:0.73086993 9:0.53119221 10:0.51447209 11:0.57149485 12:0.49645384 13:0.5449857 14:0.65307819 15:0.63615854 16:0.50960619 17:0.72449999 18:0.49680843 
4 0 1:0.63256422 2:0.4438718 3:0.76326505 4:0.61789499 5:0.4453281 6:0.76040825 7:0.37866695 8:0.66572505 9:0.61751725 10:0.56430865 11:0.61774711 12:0.56955475 13:0.4928117 14:0.67565753 15:0.66987047 16:0.51218233 17:0.74874583 18:0.5438521 
4 0 1:0.41252177 2:0.5011982 3:0.84802815 4:0.57570985 5:0.70972089 6:0.82486001 7:0.57371474 8:0.75833057 9:0.57680223 10:0.41352301 11:0.68397232 12:0.60524626 13:0.61499817 14:0.52190118 15:0.48742958 16:0.47989696 17:0.66966493 18:0.50425545 
4 4 1:0.44461625 2:0.5628829 3:0.6819659 4:0.4004044 5:0.47941987 6:0.75114809 7:0.44748363 8:0.75983751 9:0.60622498 10:0.46487526 11:0.5075622 12:0.58573605 13:0.79852631 14:0.74060008 15:0.66718882 16:0.50751558 17:0.59847993 18:0.40106585 
4 0 1:0.54166534 2:0.5357809 3:0.7925765 4:0.52575744 5:0.4813595 6:0.84900504 7:0.40058304 8:0.70537058 9:0.52195817 10:0.56128564 11:0.57988655 12:0.54554335 13:0.50395525 14:0.63346599 15:0.51476019 16:0.45112319 17:0.62491219 18:0.52398675 
4 0 1:0.62751215 2:0.55044248 3:0.73981399 4:0.55463695 5:0.48704737 6:0.68172113 7:0.33366659 8:0.69224592 9:0.53161506 10:0.5532077 11:0.59080167 12:0.58196157 13:0.5208049 14:0.55900935 15:0.65062821 16:0.49863429 17:0.67001536 18:0.44887572 
2.5865890715915252 0 1:0.34193599 2:0.53108122 3:0.89130526 4:0.51217922 5:0.6721946 6:0.7915979 7:0.55236283 8:0.76189515 9:0.71616749 10:0.51447598 11:0.66781157 12:0.57262148 13:0.54448839 14:0.50396589 15:0.47505259 16:0.51641618 17:0.6760512 18:0.48662968 
4 0 1:0.55195182 2:0.60586248 3:0.7945433 4:0.47696807 5:0.3937425 6:0.82399381 7:0.34679301 8:0.70128293 9:0.50126983 10:0.50689774 11:0.47814155 12:0.53977825 13:0.53985921 14:0.68977087 15:0.64565738 16:0.3774293 17:0.48077549 18:0.50259492 
4 0 1:0.56471706 2:0.66981347 3:0.53539485 4:0.83384794 5:0.59857035 6:0.50824027 7:0.64424707 8:0.44502418 9:0.73889967 10:0.39711812 11:0.65170297 12:0.66291746 13:0.68564461 14:0.79863061 15:0.50108748 16:0.64153592 17:0.71662006 18:0.40725962 
4 4 1:0.68919641 2:0.7675379 3:0.48146764 4:0.64470754 5:0.35405878 6:0.57636 7:0.66336255 8:0.41504325 9:0.78546264 10:0.32266807 11:0.60381177 12:0.51344122 13:0.62916665 14:0.88152822 15:0.42843851 16:0.6018546 17:0.64810485 18:0.49661807 
4 4 1:0.66301826 2:0.71488171 3:0.46773244 4:0.73904772 5:0.39141104 6:0.56223738 7:0.69232559 8:0.44564523 9:0.77355913 10:0.24658541 11:0.53621919 12:0.48356665 13:0.47451917 14:0.83020765 15:0.48624772 16:0.59427879 17:0.63520935 18:0.43297359 
4 4 1:0.69803963 2:0.69713944 3:0.45359696 4:0.69919376 5:0.48753459 6:0.64520212 7:0.68285245 8:0.45605917 9:0.89854735 10:0.37131809 11:0.68223184 12:0.58421812 13:0.48573208 14:0.74271032 15:0.42683816 16:0.67559723 17:0.66388286 18:0.45472475 
0 4 1:0.69435837 2:0.63423447 3:0.55527033 4:0.77294911 5:0.62305043 6:0.64375655 7:0.68816385 8:0.45245784 9:0.83626532 10:0.40365611 11:0.72024595 12:0.69286913 13:0.50857534 14:0.69340906 15:0.35105449 16:0.48199509 17:0.63155478 18:0.38465965 
4 0 1:0.26816416 2:0.59570031 3:0.7184668 4:0.52287781 5:0.49916891 6:0.61304823 7:0.66343909 8:0.61586154 9:0.94247042 10:0.50152007 11:0.71491886 12:0.63589895 13:0.59666848 14:0.8453641 15:0.66524553 16:0.68087508 17:0.63043339 18:0.42944774 
4 0 1:0.49246356 2:0.75934834 3:0.5478363 4:0.64563452 5:0.52452107 6:0.54853354 7:0.66009183 8:0.48572445 9:0.8312567 10:0.33600204 11:0.51624015 12:0.54422141 13:0.43566611 14:0.6851001 15:0.4996857 16:0.63011528 17:0.71782567 18:0.55842773 
4 4 1:0.56472573 2:0.80940527 3:0.50503923 4:0.62931032 5:0.46413736 6:0.52469933 7:0.6586898 8:0.409171 9:0.76911428 10:0.2634808 11:0.47206656 12:0.57994384 13:0.43573577 14:0.69731986 15:0.49877002 16:0.65026739 17:0.71426467 18:0.45482159 
0 4 1:0.67715933 2:0.77162873 3:0.52387419 4:0.65154619 5:0.49320831 6:0.57757547 7:0.61541132 8:0.39756642 9:0.81069085 10:0.25664801 11:0.48732484 12:0.50231535 13:0.28660344 14:0.63284077 15:0.44412722 16:0.39702935 17:0.48194179 18:0.4533429 
0 4 1:0.63686043 2:0.84919818 3:0.51037006 4:0.66325685 5:0.48707919 6:0.47972477 7:0.54797472 8:0.32889877 9:0.71733673 10:0.38638996 11:0.60691379 12:0.51071815 13:0.47859032 14:0.62316891 15:0.34199681 16:0.45015321 17:0.56930503 18:0.31297833 
0 4 1:0.53677009 2:0.761866 3:0.57909517 4:0.51765682 5:0.56254788 6:0.45550873 7:0.59890965 8:0.56174384 9:0.83394156 10:0.48576567 11:0.5323222 12:0.41738287 13:0.48243801 14:0.78074926 15:0.63196516 16:0.55790282 17:0.62209389 18:0.43772632 
4 4 1:0.65687295 2:0.82932001 3:0.49433339 4:0.67708921 5:0.45648462 6:0.44543211 7:0.61482377 8:0.3510675 9:0.7292494 10:0.39955384 11:0.58250014 12:0.42638193 13:0.29795461 14:0.69603748 15:0.43520625 16:0.52791089 17:0.74071928 18:0.49864385 
0 4 1:0.60274187 2:0.84206784 3:0.51496759 4:0.56012249 5:0.40103632 6:0.42416232 7:0.5374486 8:0.41323781 9:0.75340271 10:0.51407184 11:0.68469073 12:0.50985788 13:0.60363016 14:0.7574889 15:0.37257855 16:0.27823943 17:0.4662838 18:0.33795277 
4 4 1:0.66835621 2:0.80339691 3:0.41455785 4:0.77973268 5:0.44905934 6:0.4071184 7:0.62936373 8:0.2801354 9:0.66653688 10:0.34051978 11:0.57492725 12:0.49077939 13:0.4077687 14:0.78268995 15:0.45689083 16:0.5017135 17:0.59683762 18:0.47975407 
0 4 1:0.7067973 2:0.77989949 3:0.52376838 4:0.6911328 5:0.48489228 6:0.48817498 7:0.53732904 8:0.31677974 9:0.79754523 10:0.35311805 11:0.61911748 12:0.59611396 13:0.40051594 14:0.74619902 15:0.47856819 16:0.53277376 17:0.62467874 18:0.31174944 
0 4 1:0.44769423 2:0.71752962 3:0.47768613 4:0.60375936 5:0.51591155 6:0.41338917 7:0.50781994 8:0.57461913 9:0.82271155 10:0.19233134 11:0.53217671 12:0.54433632 13:0.28085312 14:0.49413701 15:0.45154737 16:0.65138418 17:0.42770844 18:0.35020225 
0 4 1:0.67215014 2:0.80130238 3:0.46225299 4:0.67400742 5:0.52456867 6:0.48726722 7:0.64568305 8:0.43272143 9:0.75794963 10:0.37676089 11:0.59693916 12:0.5887366 13:0.46662639 14:0.6131538 15:0.36109887 16:0.43844871 17:0.50825941 18:0.32185635 
4 4 1:0.61190663 2:0.82003709 3:0.47830576 4:0.75808204 5:0.44891632 6:0.46561907 7:0.57380255 8:0.24576326 9:0.73702747 10:0.34488757 11:0.58314437 12:0.47064498 13:0.26670632 14:0.76926153 15:0.42937687 16:0.40006498 17:0.6324373 18:0.35766881 
0 4 1:0.65448488 2:0.86210057 3:0.55139809 4:0.59975293 5:0.47686492 6:0.39207194 7:0.55133264 8:0.39345793 9:0.75477313 10:0.35354519 11:0.53562753 12:0.68932222 13:0.49848385 14:0.68727571 15:0.54746126 16:0.42385007 17:0.60120285 18:0.49087867 
0 4 1:0.66783608 2:0.79562529 3:0.53340013 4:0.6581514 5:0.49937908 6:0.46440344 7:0.62022854 8:0.37836266 9:0.72806804 10:0.37844063 11:0.54677978 12:0.51288871 13:0.32541141 14:0.55694632 15:0.3192474 16:0.42892915 17:0.61012345 18:0.39957653 
4 4 1:0.60344725 2:0.80309508 3:0.48118458 4:0.61394459 5:0.46990252 6:0.47952314 7:0.56194947 8:0.40665388 9:0.73418649 10:0.27436933 11:0.60736275 12:0.49634589 13:0.35180924 14:0.69617515 15:0.48020916 16:0.62068906 17:0.64493015 18:0.50076211 
0 4 1:0.59816954 2:0.84427251 3:0.4206238 4:0.64295237 5:0.53815378 6:0.45613058 7:0.61442392 8:0.59000402 9:0.82966925 10:0.2401697 11:0.4481162 12:0.61478515 13:0.36641972 14:0.55437722 15:0.48086712 16:0.52551621 17:0.51518093 18:0.23119453 
0 4 1:0.60541227 2:0.79954521 3:0.55805541 4:0.63584489 5:0.47002301 6:0.41208795 7:0.49376712 8:0.42324164 9:0.72865917 10:0.40510348 11:0.67091697 12:0.57723684 13:0.55417104 14:0.70169888 15:0.42791351 16:0.46179015 17:0.56026219 18:0.45493174 
0 4 1:0.62324835 2:0.84792341 3:0.48500091 4:0.62190171 5:0.45627517 6:0.45015978 7:0.5482786 8:0.30791795 9:0.8452483 10:0.40864959 11:0.43454941 12:0.568651 13:0.50594705 14:0.67426168 15:0.4703029 16:0.56505242 17:0.57588975 18:0.28184374 
0 4 1:0.61252665 2:0.85104297 3:0.5103723 4:0.6265573 5:0.46688005 6:0.48734894 7:0.66908753 8:0.39792366 9:0.73394838 10:0.42645026 11:0.61681219 12:0.47128254 13:0.36892171 14:0.75828432 15:0.44269791 16:0.31016865 17:0.55246485 18:0.47970219 
0 4 1:0.54153501 2:0.86291282 3:0.48440371 4:0.66703735 5:0.47423207 6:0.44685679 7:0.66584992 8:0.42744015 9:0.69916229 10:0.32443198 11:0.46569945 12:0.2933805 13:0.29355091 14:0.63414323 15:0.36157785 16:0.56147114 17:0.60706704 18:0.38707063 
0 4 1:0.54221354 2:0.78034202 3:0.57808943 4:0.61531577 5:0.51892158 6:0.41459516 7:0.53924506 8:0.46042903 9:0.76296065 10:0.3087805 11:0.46939856 12:0.35693899 13:0.28077594 14:0.70918774 15:0.44872668 16:0.36703012 17:0.5063406 18:0.31905201 
4 0 1:0.21699933 2:0.61031844 3:0.634073 4:0.59873862 5:0.47287977 6:0.60255927 7:0.66737684 8:0.54797157 9:0.89971319 10:0.4617416 11:0.78404716 12:0.68718161 13:0.59803865 14:0.75444821 15:0.46763095 16:0.74518308 17:0.69638704 18:0.46032 
0 4 1:0.83366445 2:0.63765016 3:0.83647328 4:0.39269542 5:0.38108509 6:0.66681826 7:0.2380842 8:0.68149751 9:0.43612898 10:0.42619267 11:0.3602695 12:0.33518935 13:0.38376648 14:0.63287044 15:0.42372583 16:0.39137299 17:0.42580201 18:0.29213081 
4 0 1:0.5753804 2:0.69020807 3:0.80392493 4:0.40113837 5:0.40697783 6:0.69118145 7:0.31953549 8:0.65863825 9:0.4354675 10:0.55029256 11:0.60139468 12:0.57937076 13:0.43736067 14:0.50197533 15:0.41432433 16:0.42312661 17:0.52783048 18:0.43757832 
4 4 1:0.48550843 2:0.4454616 3:0.56948131 4:0.42000331 5:0.47274931 6:0.77334749 7:0.50977477 8:0.85413388 9:0.34199902 10:0.48783838 11:0.54968414 12:0.49439662 13:0.45276087 14:0.64207462 15:0.49372404 16:0.57927431 17:0.44558765 18:0.42561605 
0 4 1:0.75828891 2:0.62436556 3:0.71735101 4:0.50509514 5:0.45885363 6:0.82308985 7:0.3513359 8:0.76593585 9:0.51694873 10:0.44123877 11:0.52703325 12:0.2737237 13:0.28327801 14:0.40978499 15:0.33835311 16:0.44549454 17:0.49632195 18:0.30072739 
0 4 1:0.7807707 2:0.62984965 3:0.76026997 4:0.5178803 5:0.50572886 6:0.79674465 7:0.28157302 8:0.75254375 9:0.42867718 10:0.36388637 11:0.37077865 12:0.38502283 13:0.61868309 14:0.56205653 15:0.37707278 16:0.47087167 17:0.39659554 18:0.23725214 
0 4 1:0.82689363 2:0.60223538 3:0.87466163 4:0.41916701 5:0.38231512 6:0.66694775 7:0.2322147 8:0.72348449 9:0.37873537 10:0.41333481 11:0.39296151 12:0.28116359 13:0.19879864 14:0.47370357 15:0.26926618 16:0.47044227 17:0.49095252 18:0.25698915 
4 0 1:0.34119185 2:0.4335546 3:0.73034155 4:0.50501214 5:0.55275646 6:0.79886429 7:0.47312868 8:0.77346299 9:0.53008897 10:0.47867137 11:0.67359166 12:0.38979074 13:0.48486358 14:0.45523588 15:0.35038336 16:0.51347924 17:0.48714651 18:0.24276397 
0 4 1:0.7514757 2:0.62839392 3:0.72151694 4:0.45691562 5:0.44470801 6:0.83226604 7:0.39478264 8:0.81417363 9:0.46604508 10:0.42228489 11:0.37127806 12:0.22918718 13:0.48716547 14:0.54976655 15:0.375943 16:0.40138041 17:0.41255288 18:0.23874807 
0 4 1:0.85348419 2:0.6094772 3:0.82373711 4:0.38891972 5:0.27758306 6:0.73411712 7:0.20644206 8:0.70337038 9:0.31991899 10:0.42876436 11:0.32217229 12:0.20656269 13:0.31605808 14:0.42041288 15:0.32528392 16:0.54945029 17:0.38168172 18:0.23639004 
0 4 1:0.82038046 2:0.62136389 3:0.78900345 4:0.46325632 5:0.3638269 6:0.6808382 7:0.26091015 8:0.76367721 9:0.40955877 10:0.44199133 11:0.37072468 12:0.25572175 13:0.39980932 14:0.53050749 15:0.37818731 16:0.39097125 17:0.41839942 18:0.1636167 
4 4 1:0.63253334 2:0.40297333 3:0.63664883 4:0.51905544 5:0.71478146 6:0.88966097 7:0.31280301 8:0.8276623 9:0.35324651 10:0.70100869 11:0.4125827 12:0.55631382 13:0.42501141 14:0.5641451 15:0.28896829 16:0.49661428 17:0.34742687 18:0.32665536 
0 4 1:0.85920564 2:0.6140849 3:0.79100562 4:0.40474051 5:0.41734023 6:0.64813348 7:0.27634517 8:0.68648791 9:0.41208798 10:0.45543147 11:0.42742423 12:0.4279555 13:0.40274275 14:0.56387503 15:0.30002769 16:0.35971824 17:0.35756167 18:0.28353682 
0 4 1:0.86146943 2:0.61244627 3:0.72268203 4:0.50354785 5:0.43078521 6:0.69124613 7:0.35380805 8:0.69310297 9:0.36832158 10:0.48587672 11:0.37679496 12:0.29640011 13:0.62703953 14:0.61005856 15:0.30359043 16:0.40029602 17:0.28496744 18:0.29904177 
4 4 1:0.6391759 2:0.62243228 3:0.68974969 4:0.5248419 5:0.40862425 6:0.72200242 7:0.17978327 8:0.60131428 9:0.3063397 10:0.56611376 11:0.36687387 12:0.23282666 13:0.52112321 14:0.55915448 15:0.37590752 16:0.38440253 17:0.41455088 18:0.2734209 
0 4 1:0.7972569 2:0.63791315 3:0.81646631 4:0.44951205 5:0.39142288 6:0.69682637 7:0.29675478 8:0.75936169 9:0.45032729 10:0.41249111 11:0.32701395 12:0.3045573 13:0.44706985 14:0.51641279 15:0.37858948 16:0.50550241 17:0.41040543 18:0.35493536 
0 4 1:0.73092071 2:0.59361142 3:0.75073108 4:0.5367992 5:0.40082707 6:0.67106416 7:0.28335876 8:0.64541279 9:0.35313209 10:0.46836439 11:0.47154316 12:0.36992885 13:0.48104494 14:0.45786408 15:0.36996109 16:0.31846794 17:0.38182164 18:0.26586839 
0 4 1:0.56096734 2:0.51233535 3:0.72802189 4:0.48243281 5:0.56662178 6:0.66822884 7:0.43525234 8:0.71163324 9:0.54670786 10:0.45487774 11:0.65888429 12:0.32200245 13:0.56802387 14:0.47638915 15:0.36613217 16:0.26841969 17:0.4197271 18:0.37241359 
0 1.3224262383376486 1:0.7404546 2:0.68719966 3:0.76340754 4:0.52698346 5:0.41475794 6:0.76596789 7:0.35399101 8:0.76918365 9:0.52195636 10:0.5321263 11:0.50962962 12:0.29579665 13:0.50594283 14:0.61816485 15:0.42387444 16:0.24438744 17:0.46989856 18:0.29207828 
0 4 1:0.79146716 2:0.58306373 3:0.83702044 4:0.46164855 5:0.38275833 6:0.75325394 7:0.21321686 8:0.70471374 9:0.41776803 10:0.48047225 11:0.42483691 12:0.23860163 13:0.28025056 14:0.49478522 15:0.21332867 16:0.36394068 17:0.52514655 18:0.35092284 
4 4 1:0.66406805 2:0.61075771 3:0.72608328 4:0.41702041 5:0.38452024 6:0.78938362 7:0.26506536 8:0.73962994 9:0.35640073 10:0.62904265 11:0.43156577 12:0.47812478 13:0.5640532 14:0.57213423 15:0.40634153 16:0.62878204 17:0.41225364 18:0.52695221 
4 0 1:0.61661983 2:0.54510155 3:0.81394114 4:0.398891 5:0.42559379 6:0.79821812 7:0.2390192 8:0.67820031 9:0.38698626 10:0.46505414 11:0.31879346 12:0.41408609 13:0.31451767 14:0.49934176 15:0.36802856 16:0.50059771 17:0.43341239 18:0.41364333 
4 0 1:0.49367981 2:0.51368276 3:0.7139599 4:0.56009861 5:0.45855604 6:0.80014815 7:0.34141162 8:0.72247017 9:0.49931068 10:0.47595407 11:0.6005733 12:0.50270037 13:0.77395465 14:0.646267 15:0.52567482 16:0.28040084 17:0.41866526 18:0.31514525 
4 -0 1:0.41943908 2:0.43342299 3:0.70133981 4:0.53359204 5:0.73115005 6:0.95466315 7:0.29193284 8:0.56893501 9:0.44379141 10:0.62312543 11:0.58580531 12:0.3306724 13:0.41213103 14:0.37569846 15:0.3331688 16:0.46423117 17:0.43990408 18:0.53456379 
0 4 1:0.79104763 2:0.61665073 3:0.78235959 4:0.52464839 5:0.39307092 6:0.77694546 7:0.2547439 8:0.77058484 9:0.44565895 10:0.52981764 11:0.45792697 12:0.25438316 13:0.50166947 14:0.52315492 15:0.33102376 16:0.45343326 17:0.50918056 18:0.34971188 
0 4 1:0.76440459 2:0.61973333 3:0.79952385 4:0.5326868 5:0.37567724 6:0.70528874 7:0.26775925 8:0.73044498 9:0.52309698 10:0.44227635 11:0.52733377 12:0.26171654 13:0.36979271 14:0.49828301 15:0.36665689 16:0.48477519 17:0.49056623 18:0.26255015 
0 4 1:0.74748426 2:0.54785834 3:0.81006708 4:0.53013324 5:0.44054494 6:0.86836762 7:0.26117135 8:0.87966603 9:0.39755064 10:0.50698099 11:0.4045829 12:0.3308883 13:0.49003643 14:0.60857203 15:0.38545468 16:0.4064882 17:0.42350214 18:0.21186475 
0 4 1:0.67350785 2:0.61480722 3:0.6956878 4:0.48947712 5:0.48176784 6:0.74800181 7:0.29431488 8:0.65008052 9:0.5575089 10:0.45727759 11:0.47892993 12:0.2759408 13:0.59321707 14:0.44486598 15:0.40451173 16:0.31959957 17:0.49299783 18:0.39578042 
4 0 1:0.59979584 2:0.41518619 3:0.78293502 4:0.52332032 5:0.38803647 6:0.78480545 7:0.28517453 8:0.80397669 9:0.47900881 10:0.61249603 11:0.3809639 12:0.48559098 13:0.50630399 14:0.58389129 15:0.43488605 16:0.68840891 17:0.45284229 18:0.41515943 
0 4 1:0.79032937 2:0.70865835 3:0.63252116 4:0.43553191 5:0.39159319 6:0.63497483 7:0.17886352 8:0.55239522 9:0.27762777 10:0.36698712 11:0.32094056 12:0.32568097 13:0.51680448 14:0.52693202 15:0.47085827 16:0.56162532 17:0.44270843 18:0.32983809 
0 4 1:0.83630816 2:0.62184238 3:0.83411377 4:0.44261287 5:0.32310018 6:0.66141355 7:0.23753268 8:0.74195358 9:0.38420887 10:0.43530529 11:0.34786626 12:0.25937123 13:0.44759035 14:0.63816831 15:0.44248474 16:0.40914434 17:0.35141971 18:0.23471914 
0 4 1:0.84065527 2:0.63947185 3:0.8274088 4:0.44290218 5:0.35356445 6:0.70755121 7:0.24979434 8:0.76032692 9:0.39649353 10:0.43089761 11:0.39210697 12:0.32246087 13:0.30180266 14:0.52123735 15:0.46554961 16:0.40242165 17:0.4880333 18:0.40101548 
0 4 1:0.83986702 2:0.61666515 3:0.81890152 4:0.40640813 5:0.39514549 6:0.64741098 7:0.23213602 8:0.68583159 9:0.44163165 10:0.40295288 11:0.37090357 12:0.28514027 13:0.14246141 14:0.52766006 15:0.35172607 16:0.47856632 17:0.5095585 18:0.40970532 
0 4 1:0.81881509 2:0.64705521 3:0.85130133 4:0.4204224 5:0.31823489 6:0.69848923 7:0.27411069 8:0.82034046 9:0.47770498 10:0.49203596 11:0.40863141 12:0.18837041 13:0.25706833 14:0.51059319 15:0.39753763 16:0.44490036 17:0.49001837 18:0.32891426 
4 4 1:0.84542026 2:0.55102951 3:0.83175674 4:0.43388221 5:0.36802503 6:0.81051605 7:0.17032093 8:0.75440765 9:0.2828144 10:0.48015646 11:0.32597132 12:0.3318285 13:0.19733562 14:0.62571047 15:0.44397839 16:0.72081765 17:0.56812142 18:0.46468928 
4 4 1:0.6472306 2:0.52018356 3:0.70037658 4:0.54266576 5:0.5352989 6:0.78481814 7:0.35851781 8:0.80499824 9:0.43118162 10:0.52533868 11:0.55154217 12:0.37949476 13:0.46852152 14:0.49245944 15:0.25498991 16:0.30815821 17:0.49541664 18:0.42253125 
4 0 1:0.76516075 2:0.54674217 3:0.82460583 4:0.5914259 5:0.40454537 6:0.79284366 7:0.24376853 8:0.82247676 9:0.41322195 10:0.47998843 11:0.4706514 12:0.38341193 13:0.41706574 14:0.58059123 15:0.43710971 16:0.54751413 17:0.53386361 18:0.2151421 
0 4 1:0.82940937 2:0.60614155 3:0.86399011 4:0.42689754 5:0.40795817 6:0.76537274 7:0.26067814 8:0.79015609 9:0.39249 10:0.49066243 11:0.39263309 12:0.37112336 13:0.3999639 14:0.53189032 15:0.38330347 16:0.50031428 17:0.50039927 18:0.40158927 
0 4 1:0.80997894 2:0.6521139 3:0.81129041 4:0.47626424 5:0.35146956 6:0.71393487 7:0.25680649 8:0.76111977 9:0.47621465 10:0.50517604 11:0.48574185 12:0.31208285 13:0.42794497 14:0.50166517 15:0.41487808 16:0.48908142 17:0.54898881 18:0.59967062 
4 0 1:0.66369441 2:0.52171179 3:0.71494466 4:0.61361016 5:0.49455129 6:0.81332332 7:0.27840611 8:0.75327545 9:0.42995352 10:0.43462281 11:0.49413982 12:0.36075019 13:0.67480941 14:0.54637802 15:0.44538987 16:0.39546762 17:0.4135265 18:0.35672881 
4 4 1:0.63028968 2:0.55176923 3:0.68111343 4:0.6264645 5:0.4170389 6:0.65912991 7:0.28684585 8:0.71109935 9:0.40497146 10:0.58044714 11:0.46670964 12:0.48365831 13:0.58152466 14:0.68870012 15:0.50366508 16:0.46619187 17:0.44799751 18:0.31199408 
0 4 1:0.78555608 2:0.56364245 3:0.68967984 4:0.63763126 5:0.48793141 6:0.82086512 7:0.30754579 8:0.70376715 9:0.38073635 10:0.49515782 11:0.4734863 12:0.33328278 13:0.42869696 14:0.63007404 15:0.36903254 16:0.28375918 17:0.3338174 18:0.30233823 
4 0 1:0.49690911 2:0.46787654 3:0.84106118 4:0.4173848 5:0.4468312 6:0.61528421 7:0.4038553 8:0.69104563 9:0.45327108 10:0.52831585 11:0.36920238 12:0.51608116 13:0.17311043 14:0.58987919 15:0.35628362 16:0.5954132 17:0.27837196 18:0.56067677 
4 0 1:0.69319445 2:0.53315326 3:0.79035042 4:0.70197484 5:0.39377063 6:0.73204064 7:0.29974983 8:0.77371215 9:0.38690415 10:0.48897687 11:0.50955864 12:0.48434852 13:0.48714263 14:0.60829403 15:0.45847136 16:0.48928195 17:0.34908756 18:0.24919019 
0 4 1:0.7961331 2:0.61709016 3:0.80751573 4:0.53656419 5:0.45548932 6:0.69267655 7:0.32313498 8:0.73114741 9:0.37337244 10:0.39574115 11:0.41239997 12:0.37253718 13:0.47360162 14:0.5436106 15:0.24099085 16:0.42215301 17:0.4907479 18:0.4883451 
0 4 1:0.77273711 2:0.63482768 3:0.79515662 4:0.49084602 5:0.4477643 6:0.69601292 7:0.31958077 8:0.71906336 9:0.51427789 10:0.47801306 11:0.51979548 12:0.23535529 13:0.34669592 14:0.55202018 15:0.30878291 16:0.36654404 17:0.52162834 18:0.4388395 
4 4 1:0.71299055 2:0.51676972 3:0.67303217 4:0.51702611 5:0.40457109 6:0.74534644 7:0.28116981 8:0.66946105 9:0.38728402 10:0.59525839 11:0.4781244 12:0.26312054 13:0.50024415 14:0.56042009 15:0.31121758 16:0.39013502 17:0.5113056 18:0.40045245 
0 4 1:0.64442095 2:0.57621196 3:0.76956248 4:0.52261323 5:0.53061132 6:0.69958412 7:0.31131358 8:0.77895986 9:0.54282998 10:0.39956894 11:0.52216984 12:0.51640898 13:0.62411945 14:0.55517024 15:0.37440975 16:0.38791076 17:0.46160695 18:0.34763431 
4 0 1:0.80170786 2:0.60934329 3:0.77297843 4:0.55876053 5:0.41324965 6:0.7401948 7:0.24061041 8:0.67367171 9:0.39023099 10:0.55489714 11:0.53304821 12:0.43664316 13:0.47563156 14:0.54626952 15:0.35848224 16:0.53369648 17:0.48327018 18:0.50653502 
1.1413271383319061 0 1:0.5328698 2:0.71357894 3:0.70901029 4:0.3722727 5:0.47559378 6:0.67015087 7:0.30618655 8:0.63774432 9:0.51509501 10:0.50849358 11:0.44187033 12:0.45095444 13:0.54358181 14:0.54802786 15:0.34995948 16:0.57439927 17:0.42025156 18:0.33446932 
0 4 1:0.77342761 2:0.6354414 3:0.73496402 4:0.56200768 5:0.43918355 6:0.71283483 7:0.34260155 8:0.72641467 9:0.47847654 10:0.43645642 11:0.47283068 12:0.18076807 13:0.26459486 14:0.55022103 15:0.30909388 16:0.34464209 17:0.44039369 18:0.45824192 
4 0 1:0.53676241 2:0.62448836 3:0.78395206 4:0.42328934 5:0.46437319 6:0.64344499 7:0.33964478 8:0.64682557 9:0.58253998 10:0.56679898 11:0.55204175 12:0.34121434 13:0.54727549 14:0.52326519 15:0.39530978 16:0.69498716 17:0.60164158 18:0.46776883 
0 4 1:0.79832817 2:0.72814299 3:0.77677912 4:0.40084316 5:0.41704528 6:0.66765588 7:0.32864194 8:0.74763591 9:0.42232008 10:0.53721079 11:0.3482234 12:0.33351994 13:0.62586412 14:0.3923354 15:0.25027353 16:0.34001139 17:0.40019359 18:0.31135102 
0 4 1:0.73732586 2:0.70738524 3:0.75094167 4:0.43616808 5:0.52013505 6:0.70771369 7:0.31087359 8:0.61351105 9:0.58520503 10:0.53669478 11:0.57669133 12:0.36904616 13:0.59583665 14:0.57349949 15:0.35841413 16:0.30093073 17:0.54926788 18:0.36165579 
0 4 1:0.71710681 2:0.64305216 3:0.79870462 4:0.45123582 5:0.30085139 6:0.76354549 7:0.19433512 8:0.76411748 9:0.37070441 10:0.49583323 11:0.41563784 12:0.22925058 13:0.48583628 14:0.55226191 15:0.49453502 16:0.40591013 17:0.45988463 18:0.41975208 
4 4 1:0.68955757 2:0.65714933 3:0.63343957 4:0.47513197 5:0.44233117 6:0.72237016 7:0.27202911 8:0.72990079 9:0.43462876 10:0.42179879 11:0.41118939 12:0.39323271 13:0.50667877 14:0.58688898 15:0.46954958 16:0.33924199 17:0.54613951 18:0.23893662 
4 4 1:0.777798 2:0.56471299 3:0.69917007 4:0.46971937 5:0.38995963 6:0.78223612 7:0.31174589 8:0.7127783 9:0.41646717 10:0.47020046 11:0.4668503 12:0.23973013 13:0.43460663 14:0.51853956 15:0.38218873 16:0.3467337 17:0.51157829 18:0.2283009 
0 4 1:0.82161617 2:0.57766438 3:0.81481179 4:0.430224 5:0.40570033 6:0.70124203 7:0.20009897 8:0.66466735 9:0.29165221 10:0.5001416 11:0.40178594 12:0.27892606 13:0.25213717 14:0.55478211 15:0.21173184 16:0.39347511 17:0.42440091 18:0.41097036 
0 4 1:0.86247041 2:0.62383946 3:0.81982679 4:0.41086479 5:0.39250234 6:0.63496748 7:0.210894 8:0.61397325 9:0.4108148 10:0.40867866 11:0.35895423 12:0.2400406 13:0.48323053 14:0.58733854 15:0.29142448 16:0.46037845 17:0.34068083 18:0.5050416 
0 4 1:0.80422703 2:0.67948826 3:0.74651 4:0.41079891 5:0.43000245 6:0.688282 7:0.30369798 8:0.74646282 9:0.51504123 10:0.49298754 11:0.49490539 12:0.23490612 13:0.39987671 14:0.47487796 15:0.31992888 16:0.23753423 17:0.33319498 18:0.44998494 
0 4 1:0.73515438 2:0.65090719 3:0.79556388 4:0.5551099 5:0.44971394 6:0.74759099 7:0.27363992 8:0.67000731 9:0.44126919 10:0.40954695 11:0.45942293 12:0.39978114 13:0.60387374 14:0.59529326 15:0.38900252 16:0.28039848 17:0.50642192 18:0.039002846 
0 4 1:0.84277842 2:0.70736977 3:0.80357439 4:0.39980438 5:0.36394045 6:0.69796406 7:0.25010773 8:0.6318058 9:0.4382397 10:0.38648572 11:0.43451395 12:0.25016629 13:0.38020351 14:0.55305221 15:0.29538462 16:0.45062119 17:0.45920533 18:0.3920783 
0 4 1:0.70637705 2:0.59228555 3:0.7604791 4:0.30704992 5:0.4580416 6:0.65384677 7:0.32319748 8:0.64861414 9:0.4286286 10:0.43916909 11:0.39101385 12:0.29337443 13:0.55993492 14:0.59038635 15:0.33240796 16:0.32428939 17:0.40557589 18:0.13392055 
0 4 1:0.74707552 2:0.56833694 3:0.78959435 4:0.49722351 5:0.38041295 6:0.68526857 7:0.31267783 8:0.65336231 9:0.50488045 10:0.50779543 11:0.57579431 12:0.35672778 13:0.52924047 14:0.52018988 15:0.17044763 16:0.20507625 17:0.43542545 18:0.33263264 
4 4 1:0.67233098 2:0.48146528 3:0.68667977 4:0.45658041 5:0.54111101 6:0.71921948 7:0.38151649 8:0.74681785 9:0.39142842 10:0.51327493 11:0.3752839 12:0.27012212 13:0.44463219 14:0.44786972 15:0.28063788 16:0.38247309 17:0.56478018 18:0.42413303 
0 4 1:0.77735667 2:0.67652686 3:0.75023297 4:0.42767491 5:0.38569496 6:0.6262114 7:0.25143339 8:0.6632895 9:0.38633442 10:0.40516268 11:0.41660907 12:0.25111498 13:0.3762609 14:0.47169021 15:0.33765286 16:0.27584606 17:0.40017503 18:0.15895188 
0 4 1:0.71119563 2:0.59748792 3:0.71530108 4:0.48732498 5:0.48620067 6:0.67507581 7:0.28628579 8:0.73293531 9:0.42928946 10:0.46064349 11:0.40743063 12:0.33986206 13:0.48214444 14:0.57792351 15:0.25268452 16:0.44882853 17:0.41266297 18:0.24510821 
0 4 1:0.78027246 2:0.63381818 3:0.77910704 4:0.46383275 5:0.4452904 6:0.70150751 7:0.25713376 8:0.65882634 9:0.48847633 10:0.46973225 11:0.51575425 12:0.20823331 13:0.36886741 14:0.45834506 15:0.37257927 16:0.47676971 17:0.50953454 18:0.2292676 
0 4 1:0.80526251 2:0.61367983 3:0.7864531 4:0.51838503 5:0.41538791 6:0.63907286 7:0.24234385 8:0.65670025 9:0.36064763 10:0.47837107 11:0.41863988 12:0.36519917 13:0.38605317 14:0.55111395 15:0.34308503 16:0.49631737 17:0.46530255 18:0.431638 
4 4 1:0.64242667 2:0.41109867 3:0.68332419 4:0.5822117 5:0.46100383 6:0.72230572 7:0.26384048 8:0.7826221 9:0.4439878 10:0.53951993 11:0.57257986 12:0.44974678 13:0.67522308 14:0.59091433 15:0.39553757 16:0.50918374 17:0.45040783 18:0.32930341 
0 4 1:0.84239453 2:0.62672562 3:0.84009949 4:0.45306807 5:0.36923443 6:0.68349898 7:0.25528758 8:0.64503481 9:0.43964841 10:0.48747926 11:0.38034757 12:0.23538482 13:0.49849754 14:0.56768854 15:0.29376185 16:0.45891976 17:0.3886126 18:0.34706779 
0 4 1:0.75413581 2:0.53482431 3:0.77337184 4:0.58499283 5:0.36421848 6:0.74750116 7:0.28434741 8:0.83187544 9:0.51332549 10:0.47862793 11:0.52477023 12:0.28068466 13:0.39110749 14:0.49944235 15:0.30765177 16:0.28817033 17:0.46121529 18:0.36479438 
3.7861206522824014 4 1:0.80380762 2:0.53026897 3:0.71247588 4:0.49027411 5:0.41055295 6:0.8102314 7:0.28987117 8:0.87069728 9:0.49255912 10:0.50051511 11:0.50984796 12:0.38971722 13:0.33824028 14:0.67615415 15:0.51161897 16:0.57072448 17:0.46655633 18:0.47018556 
0 4 1:0.79724461 2:0.59669108 3:0.85770934 4:0.37900685 5:0.42457136 6:0.75105221 7:0.30064898 8:0.67160792 9:0.49549505 10:0.46026826 11:0.43566676 12:0.49092017 13:0.30315622 14:0.62718042 15:0.32467028 16:0.55123032 17:0.431511 18:0.38522149 
4 4 1:0.81510553 2:0.68151158 3:0.69069283 4:0.46954936 5:0.34278136 6:0.7793608 7:0.17245647 8:0.59640216 9:0.37541312 10:0.34955992 11:0.51216633 12:0.3991343 13:0.26628596 14:0.42278817 15:0.35322006 16:0.38590479 17:0.59760431 18:0.31684623 
4 4 1:0.7480646 2:0.63403847 3:0.69896936 4:0.53602303 5:0.49068539 6:0.86960705 7:0.16638221 8:0.6069765 9:0.34506887 10:0.39683421 11:0.60946483 12:0.39095575 13:0.37132892 14:0.54115562 15:0.28104106 16:0.29464644 17:0.55990184 18:0.35370731 
4 4 1:0.78433313 2:0.59011099 3:0.84730169 4:0.44785453 5:0.3723301 6:0.67501606 7:0.25875621 8:0.76483528 9:0.42933268 10:0.53480864 11:0.4542334 12:0.40446755 13:0.52144925 14:0.57541074 15:0.35494379 16:0.49665231 17:0.60406642 18:0.43998635 
0 4 1:0.78928921 2:0.59658591 3:0.75608857 4:0.46144683 5:0.40400707 6:0.65398943 7:0.3187315 8:0.77843301 9:0.39450622 10:0.60664826 11:0.47843913 12:0.35273645 13:0.52110821 14:0.41798644 15:0.28894579 16:0.32828371 17:0.48777627 18:0.33087997 
0 4 1:0.72876827 2:0.74404689 3:0.64943915 4:0.51850967 5:0.40408322 6:0.68067265 7:0.36524724 8:0.69718228 9:0.52191308 10:0.33838226 11:0.47760739 12:0.35003482 13:0.38046431 14:0.40463456 15:0.41328132 16:0.32644074 17:0.51921631 18:0.075785363 
0 4 1:0.82764344 2:0.67093108 3:0.55776707 4:0.43952481 5:0.29943006 6:0.75141476 7:0.22100463 8:0.58505272 9:0.50489225 10:0.29422507 11:0.72133743 12:0.37310799 13:0.35746846 14:0.4376427 15:0.22489155 16:0.33228589 17:0.39103549 18:0.24859689 
0 4 1:0.80189176 2:0.73294155 3:0.59927597 4:0.36752353 5:0.40264081 6:0.62514254 7:0.29162459 8:0.5236967 9:0.4981577 10:0.29947598 11:0.56269551 12:0.49754652 13:0.12015324 14:0.51632923 15:0.2172096 16:0.59326645 17:0.40669003 18:0.12982236 
4 4 1:0.60895823 2:0.61434028 3:0.42416992 4:0.53741266 5:0.5948566 6:0.6775911 7:0.35202791 8:0.66789495 9:0.6043786 10:0.43520204 11:0.5834731 12:0.46560743 13:0.50710006 14:0.50947195 15:0.39005872 16:0.60382142 17:0.61480006 18:0.386366 
0 4 1:0.76594521 2:0.64788027 3:0.75863443 4:0.51459563 5:0.4999536 6:0.72939149 7:0.29435288 8:0.67928882 9:0.43926342 10:0.43481554 11:0.418423 12:0.24098206 13:0.37269764 14:0.59536836 15:0.17016467 16:0.25767869 17:0.4126762 18:0.38135847 
4 4 1:0.75464215 2:0.61418356 3:0.72411468 4:0.48227622 5:0.53361251 6:0.7078101 7:0.28012817 8:0.71815373 9:0.46205525 10:0.49152234 11:0.4829951 12:0.45677839 13:0.65350017 14:0.65582117 15:0.55348317 16:0.482904 17:0.64228959 18:0.33907335 
0 4 1:0.7490267 2:0.47511051 3:0.85543805 4:0.39014581 5:0.47550736 6:0.53123327 7:0.32301456 8:0.70209347 9:0.43868989 10:0.53744217 11:0.33699831 12:0.6250447 13:0.47162009 14:0.78623889 15:0.39139973 16:0.69819061 17:0.32331098 18:0.55177507 
4 0 1:0.5247126 2:0.63927995 3:0.69970447 4:0.6193174 5:0.52279391 6:0.67082972 7:0.39884948 8:0.66898013 9:0.54324191 10:0.47977892 11:0.66014506 12:0.24525241 13:0.64260583 14:0.57158824 15:0.3817728 16:0.35963011 17:0.56262517 18:0.57332471 
0 4 1:0.56809151 2:0.61346848 3:0.62434971 4:0.49956389 5:0.45125528 6:0.64531143 7:0.32860245 8:0.59991383 9:0.56533413 10:0.42065246 11:0.53929463 12:0.37569701 13:0.34525785 14:0.58957682 15:0.51133371 16:0.45688863 17:0.35674746 18:0.35135442 
4 4 1:0.70323193 2:0.60868456 3:0.68596418 4:0.58657886 5:0.51282756 6:0.61103477 7:0.27700422 8:0.58131333 9:0.43304977 10:0.53699999 11:0.62198912 12:0.33016659 13:0.44730914 14:0.66082537 15:0.27272698 16:0.58451646 17:0.47905176 18:0.43363934 
0 4 1:0.64969854 2:0.59609113 3:0.64669149 4:0.63824108 5:0.49878836 6:0.61989031 7:0.35081782 8:0.67906544 9:0.57722349 10:0.57935606 11:0.62231482 12:0.31516427 13:0.50738584 14:0.61622993 15:0.37560067 16:0.46385434 17:0.43840795 18:0.35191009 
4 4 1:0.66694801 2:0.6170178 3:0.702405 4:0.61094452 5:0.48624365 6:0.64725376 7:0.3531944 8:0.74845836 9:0.45278554 10:0.44409178 11:0.63808508 12:0.35233076 13:0.46905701 14:0.65277554 15:0.32377892 16:0.39968653 17:0.55834222 18:0.50643435 
4 4 1:0.68669939 2:0.60793662 3:0.6930738 4:0.55522998 5:0.47911459 6:0.63687543 7:0.3470233 8:0.61054213 9:0.50652795 10:0.56509675 11:0.50898586 12:0.47467339 13:0.38710991 14:0.61546742 15:0.26166933 16:0.46379533 17:0.4858452 18:0.58661937 
4 0 1:0.45816764 2:0.49655025 3:0.77311035 4:0.75006756 5:0.49269113 6:0.69813163 7:0.47119724 8:0.73923223 9:0.54015735 10:0.4994752 11:0.71014277 12:0.17873906 13:0.58096276 14:0.54287694 15:0.40373694 16:0.48251187 17:0.49112691 18:0.261889 
0 4 1:0.67113618 2:0.58991489 3:0.68935858 4:0.65819725 5:0.44192768 6:0.62746575 7:0.35243297 8:0.6640453 9:0.44668973 10:0.44444271 11:0.62225499 12:0.34544688 13:0.53110184 14:0.73269754 15:0.44168953 16:0.27950794 17:0.28489389 18:0.48730979 
0 4 1:0.68789374 2:0.59995547 3:0.75922634 4:0.46645877 5:0.48893498 6:0.62977169 7:0.41720074 8:0.68028059 9:0.62403098 10:0.42048756 11:0.38857791 12:0.38294495 13:0.2708067 14:0.68970405 15:0.33247389 16:0.55836651 17:0.44460389 18:0.58547746 
0 4 1:0.64908413 2:0.6499959 3:0.67184587 4:0.54940802 5:0.38549051 6:0.71587406 7:0.33893499 8:0.64198982 9:0.58669652 10:0.47982225 11:0.55868139 12:0.22059136 13:0.50954417 14:0.67822322 15:0.39048975 16:0.47962018 17:0.46254916 18:0.45461056 
0 4 1:0.67376304 2:0.66153072 3:0.64177671 4:0.50703923 5:0.44755871 6:0.67935136 7:0.38301912 8:0.60735985 9:0.57855675 10:0.48538009 11:0.4235676 12:0.30752905 13:0.42626207 14:0.63317895 15:0.30535257 16:0.39152662 17:0.36357842 18:0.26019364 
4 4 1:0.66978911 2:0.5969901 3:0.62152635 4:0.61565852 5:0.53424384 6:0.66519048 7:0.35972034 8:0.63490833 9:0.54421785 10:0.5361983 11:0.46806805 12:0.40658459 13:0.43636942 14:0.60504186 15:0.27653722 16:0.29140954 17:0.54705896 18:0.4488322 
4 4 1:0.6878157 2:0.63215618 3:0.71438868 4:0.53245228 5:0.48326365 6:0.67890653 7:0.40302794 8:0.62855162 9:0.41864574 10:0.45741649 11:0.59484262 12:0.42655428 13:0.36087599 14:0.58038119 15:0.28393385 16:0.46205319 17:0.49286779 18:0.57773955 
0 4 1:0.65029868 2:0.65635398 3:0.64635777 4:0.49892729 5:0.40910269 6:0.65472767 7:0.39415523 8:0.69132654 9:0.53422227 10:0.46378607 11:0.32348515 12:0.20856603 13:0.35948555 14:0.50429161 15:0.3266634 16:0.5252393 17:0.44435244 18:0.45305458 
0 4 1:0.64823744 2:0.69678093 3:0.64663358 4:0.53764456 5:0.50855657 6:0.6421087 7:0.44004008 8:0.59109488 9:0.53351305 10:0.47813223 11:0.48332077 12:0.27484351 13:0.53319486 14:0.6555554 15:0.34373249 16:0.39200304 17:0.33495713 18:0.46083977 
0 4 1:0.67968667 2:0.6381751 3:0.68370146 4:0.55366959 5:0.46468922 6:0.62351319 7:0.30937586 8:0.56934864 9:0.44786799 10:0.55659283 11:0.58358537 12:0.25650353 13:0.37274254 14:0.50504782 15:0.22610044 16:0.31982886 17:0.450641 18:0.52460737 
0 4 1:0.63307204 2:0.66598635 3:0.66053756 4:0.54885672 5:0.44282101 6:0.660768 7:0.37309722 8:0.69925084 9:0.65624439 10:0.55608821 11:0.50754284 12:0.29420017 13:0.54264128 14:0.64858629 15:0.3967117 16:0.2900558 17:0.41557192 18:0.25079542 
0 4 1:0.72608989 2:0.58697823 3:0.75960278 4:0.53992651 5:0.49006624 6:0.65931016 7:0.33143379 8:0.5989102 9:0.49366751 10:0.52756387 11:0.54817222 12:0.38586044 13:0.40583612 14:0.65943445 15:0.28062338 16:0.45688948 17:0.45517365 18:0.49906668 
0 4 1:0.72011463 2:0.61715938 3:0.66846727 4:0.48496732 5:0.48558399 6:0.6782317 7:0.39139543 8:0.52920496 9:0.42859394 10:0.52868204 11:0.46462066 12:0.400266 13:0.36428063 14:0.64403888 15:0.28001062 16:0.45071921 17:0.34212016 18:0.5118012 
4 0 1:0.64988208 2:0.61774558 3:0.66217828 4:0.64688408 5:0.49058515 6:0.61038299 7:0.37002819 8:0.6683859 9:0.42066969 10:0.49747149 11:0.60951093 12:0.42691715 13:0.56978965 14:0.61565603 15:0.48253061 16:0.48572212 17:0.43063499 18:0.3850776 
0 4 1:0.69442048 2:0.64638626 3:0.62341923 4:0.58956875 5:0.42867179 6:0.7412341 7:0.39739335 8:0.63233545 9:0.5434806 10:0.4890131 11:0.5646158 12:0.17122743 13:0.37589873 14:0.43676863 15:0.2224017 16:0.40740362 17:0.38895826 18:0.49693526 
0 4 1:0.5568319 2:0.64455059 3:0.59269375 4:0.54445291 5:0.58809322 6:0.72210237 7:0.54637034 8:0.66203744 9:0.61165168 10:0.36250747 11:0.52703401 12:0.14264823 13:0.39044993 14:0.53597188 15:0.40395549 16:0.50949757 17:0.57988616 18:0.4178374 
4 4 1:0.58952817 2:0.75573152 3:0.61841855 4:0.54747025 5:0.42346973 6:0.62207003 7:0.44464572 8:0.69965625 9:0.63515902 10:0.42475479 11:0.48675087 12:0.19894075 13:0.4173588 14:0.5087689 15:0.52777467 16:0.69994906 17:0.69982959 18:0.44323255 
0 4 1:0.71301725 2:0.59543289 3:0.66698482 4:0.56417872 5:0.46844297 6:0.66647836 7:0.34466397 8:0.59240213 9:0.56604624 10:0.36697964 11:0.48232913 12:0.35627842 13:0.62133631 14:0.72272713 15:0.26534543 16:0.57961979 17:0.3875384 18:0.52220531 
4 4 1:0.69830374 2:0.59055175 3:0.6041485 4:0.64219601 5:0.46690393 6:0.62131697 7:0.23953369 8:0.58026323 9:0.66002447 10:0.57544188 11:0.55629227 12:0.32294883 13:0.37420602 14:0.58987861 15:0.28975461 16:0.53800768 17:0.42805693 18:0.66665371 
4 4 1:0.58366979 2:0.73198325 3:0.59878328 4:0.53575961 5:0.42846705 6:0.629495 7:0.40200528 8:0.66662943 9:0.52603271 10:0.49719485 11:0.65114564 12:0.27670984 13:0.47688269 14:0.52452902 15:0.42252558 16:0.3552792 17:0.50814579 18:0.43577174 
4 4 1:0.63473158 2:0.62937613 3:0.62408443 4:0.60609591 5:0.53271305 6:0.66958043 7:0.35945568 8:0.70452189 9:0.54392045 10:0.51257457 11:0.54112033 12:0.25341547 13:0.52290342 14:0.50002282 15:0.33540888 16:0.58069096 17:0.51677895 18:0.40235119 
4 4 1:0.42517417 2:0.56698318 3:0.52744384 4:0.65663647 5:0.50321993 6:0.69933202 7:0.42036143 8:0.88092187 9:0.58265037 10:0.33634776 11:0.79147769 12:0.33068194 13:0.63171074 14:0.56346328 15:0.24758966 16:0.26957611 17:0.5029184 18:0.39475494 
4 4 1:0.57390748 2:0.62927151 3:0.5705777 4:0.67629555 5:0.3751519 6:0.60736477 7:0.38070345 8:0.7453134 9:0.4801256 10:0.40532766 11:0.61311778 12:0.33353125 13:0.65701375 14:0.65508448 15:0.39050283 16:0.32706458 17:0.49231144 18:0.56024955 
4 4 1:0.57157216 2:0.68885934 3:0.54443499 4:0.72529228 5:0.44192692 6:0.52690965 7:0.38584009 8:0.67849788 9:0.4474686 10:0.39102593 11:0.62014119 12:0.076076111 13:0.39452247 14:0.56622923 15:0.37933847 16:0.31523379 17:0.56078146 18:0.40966235 
0 4 1:0.57280757 2:0.70531861 3:0.59347325 4:0.56881821 5:0.53157687 6:0.71429123 7:0.44573695 8:0.58710814 9:0.51923876 10:0.35817256 11:0.53740395 12:0.17980409 13:0.34135589 14:0.56040269 15:0.26053008 16:0.38758178 17:0.36395564 18:0.28399295 
4 4 1:0.64269673 2:0.63322861 3:0.56426201 4:0.67580787 5:0.51582298 6:0.65880391 7:0.42280347 8:0.69290115 9:0.48407902 10:0.35610789 11:0.68107737 12:0.22802146 13:0.4993756 14:0.50059494 15:0.2302247 16:0.35177396 17:0.57061822 18:0.44707871 
4 4 1:0.59955045 2:0.66350984 3:0.54565627 4:0.7244609 5:0.36030784 6:0.53031266 7:0.32096837 8:0.66596693 9:0.54314046 10:0.36538144 11:0.43790249 12:0.21539424 13:0.57296855 14:0.67535656 15:0.26360685 16:0.40058326 17:0.48033797 18:0.46140601 
0 4 1:0.5879596 2:0.69561825 3:0.59469899 4:0.59873011 5:0.50004686 6:0.70699369 7:0.4439629 8:0.58941825 9:0.51843376 10:0.46846029 11:0.6040828 12:0.24628884 13:0.50150488 14:0.59022503 15:0.29919188 16:0.28978871 17:0.31488854 18:0.34325739 
4 4 1:0.65039788 2:0.62332976 3:0.61695704 4:0.56822523 5:0.4930741 6:0.57902458 7:0.43033326 8:0.66470773 9:0.47931905 10:0.48775633 11:0.58786952 12:0.27534619 13:0.45402386 14:0.70219231 15:0.24519786 16:0.46353356 17:0.54091599 18:0.50576026 
4 4 1:0.52056849 2:0.69304308 3:0.51252935 4:0.68168144 5:0.38478867 6:0.61097066 7:0.52303906 8:0.62159396 9:0.58169502 10:0.4682914 11:0.53988265 12:0.037161442 13:0.50269548 14:0.65294158 15:0.29311604 16:0.45113422 17:0.40361405 18:0.48674814 
0 4 1:0.60946733 2:0.67600551 3:0.54678808 4:0.65634058 5:0.53934122 6:0.6775537 7:0.39122265 8:0.62894899 9:0.61224301 10:0.45682365 11:0.54038619 12:0.08012324 13:0.46523975 14:0.54681312 15:0.26861511 16:0.4649568 17:0.44846971 18:0.54706446 
0 4 1:0.54672046 2:0.7359488 3:0.52194808 4:0.55204717 5:0.37939413 6:0.72400911 7:0.53180269 8:0.52916922 9:0.56582881 10:0.38623997 11:0.61050682 12:0.087069835 13:0.464062 14:0.62005228 15:0.43462358 16:0.46194885 17:0.40502455 18:0.46302798 
4 4 1:0.58832802 2:0.6299319 3:0.55297749 4:0.5450098 5:0.56540708 6:0.70897556 7:0.44182712 8:0.6889245 9:0.65477468 10:0.47655669 11:0.489813 12:0.20908898 13:0.16154908 14:0.49127588 15:0.26546646 16:0.33779939 17:0.49924566 18:0.51812644 
0 4 1:0.64133607 2:0.65515252 3:0.60196334 4:0.57288724 5:0.52812781 6:0.68954531 7:0.44328139 8:0.6644562 9:0.54111029 10:0.42871622 11:0.44845651 12:0.32246485 13:0.3248053 14:0.48401912 15:0.27389649 16:0.45890781 17:0.42639678 18:0.48247917 
0 4 1:0.55132895 2:0.73194619 3:0.56256576 4:0.54770208 5:0.40533089 6:0.57956571 7:0.46013247 8:0.58321263 9:0.5533168 10:0.57360916 11:0.57136783 12:0.24253441 13:0.43436314 14:0.57289434 15:0.49731941 16:0.32730071 17:0.26968283 18:0.23427231 
4 4 1:0.52407529 2:0.62977629 3:0.51997283 4:0.68569302 5:0.48779619 6:0.7275709 7:0.45883027 8:0.50253982 9:0.47469206 10:0.41192991 11:0.6037942 12:0.19090589 13:0.52456465 14:0.66581318 15:0.40963923 16:0.45993158 17:0.53855659 18:0.27979728 
0 4 1:0.53876043 2:0.71859846 3:0.56240701 4:0.52302892 5:0.500294 6:0.67329062 7:0.47586317 8:0.68150713 9:0.57082455 10:0.41666012 11:0.47200798 12:0.17276116 13:0.40931593 14:0.5621379 15:0.54304587 16:0.6247856 17:0.47379228 18:0.38584425 
3.8310019244457245 0 1:0.46960639 2:0.58393447 3:0.65516894 4:0.73996395 5:0.45498587 6:0.56205209 7:0.54487853 8:0.67938581 9:0.67608984 10:0.52962437 11:0.56841994 12:0.31833359 13:0.58229829 14:0.62010748 15:0.47111161 16:0.35178793 17:0.45418148 18:0.40837386 
0 4 1:0.49720651 2:0.7216536 3:0.55388016 4:0.57017147 5:0.49085715 6:0.61400376 7:0.50285078 8:0.59341479 9:0.64296756 10:0.38653718 11:0.60266799 12:0.22078787 13:0.34184412 14:0.56049504 15:0.53548317 16:0.53477069 17:0.55489687 18:0.41402251 
4 4 1:0.49742097 2:0.72899738 3:0.54661221 4:0.61679549 5:0.50691736 6:0.69016525 7:0.41773377 8:0.56581227 9:0.5350612 10:0.38894459 11:0.67024268 12:0.26531572 13:0.48536814 14:0.47119879 15:0.42105697 16:0.40420864 17:0.56582966 18:0.55066056 
0 4 1:0.58309578 2:0.65359454 3:0.64300083 4:0.57573649 5:0.45594312 6:0.71658245 7:0.35889726 8:0.71175187 9:0.58598904 10:0.36009326 11:0.42386172 13:0.41625121 14:0.4814001 15:0.4194347 16:0.31659013 17:0.50366678 18:0.36376153 
4 0 1:0.55155956 2:0.6634208 3:0.83997655 4:0.45833427 5:0.56822171 6:0.73280316 7:0.56295491 8:0.52935137 9:0.50380042 10:0.43911296 11:0.63268808 12:0.52586092 13:0.79558601 14:0.61484151 15:0.41915471 16:0.47358418 17:0.73706608 18:0.62880665 
4 0 1:0.45102002 2:0.58956157 3:0.8007387 4:0.50743906 5:0.69690666 6:0.75007702 7:0.66182641 8:0.65827934 9:0.55748326 10:0.42399735 11:0.62104857 12:0.26032174 13:0.61219054 14:0.6512594 15:0.44407511 16:0.57905366 17:0.80606268 18:0.53973992 
4 0 1:0.22448824 2:0.5455504 3:0.67041043 4:0.49759537 5:0.72001356 6:0.67502352 7:0.55466061 8:0.75464324 9:0.80051599 10:0.40302873 11:0.59598967 12:0.54704438 13:0.72141247 14:0.67643371 15:0.44999465 16:0.43340039 17:0.69596421 18:0.39665363 
4 0 1:0.72661123 2:0.62161131 3:0.52617294 4:0.66644832 5:0.40324891 6:0.57163981 7:0.55334623 8:0.58182721 9:0.65890044 10:0.68841392 11:0.50961273 12:0.67200769 13:0.59901786 14:0.52296656 15:0.59423599 16:0.47009413 17:0.53223908 18:0.58841168 
4 4 1:0.74372 2:0.60536532 3:0.57431695 4:0.63359391 5:0.34825308 6:0.63020884 7:0.60427377 8:0.61005469 9:0.69370936 10:0.65202708 11:0.39396773 12:0.57320475 13:0.49889392 14:0.57101654 15:0.37260766 16:0.20207452 17:0.50362589 18:0.53944558 
0 4 1:0.77348593 2:0.58241621 3:0.54274229 4:0.64559 5:0.42344171 6:0.57770164 7:0.57404636 8:0.56287389 9:0.65659027 10:0.6330043 11:0.49931672 12:0.49738909 13:0.52369256 14:0.52499395 15:0.68287197 16:0.26934702 17:0.46671114 18:0.35734375 
4 4 1:0.71422697 2:0.58765603 3:0.52084192 4:0.69983435 5:0.38805682 6:0.61510926 7:0.62015312 8:0.60203438 9:0.63522864 10:0.61194937 11:0.43373565 12:0.52516169 13:0.48940802 14:0.5995771 15:0.62115508 16:0.55048823 17:0.52856936 18:0.44847738 
4 4 1:0.72609664 2:0.556997 3:0.53435621 4:0.68089283 5:0.37362239 6:0.60672736 7:0.55783541 8:0.66216592 9:0.76065165 10:0.63230928 11:0.4354124 12:0.5733789 13:0.61473101 14:0.56853315 15:0.60677378 16:0.47791154 17:0.46928748 18:0.65701053 
4 0 1:0.51905119 2:0.54460312 3:0.61940784 4:0.76934864 5:0.5843342 6:0.6045093 7:0.53183116 8:0.56046359 9:0.70695603 10:0.64109397 11:0.53551977 12:0.53736875 13:0.46590926 14:0.6184833 15:0.71953218 16:0.60792055 17:0.6545622 18:0.56850219 
-0 4 1:0.65787526 2:0.45228536 3:0.61978492 4:0.51958702 5:0.34252468 6:0.85554159 7:0.38520198 8:0.58706021 9:0.34255857 10:0.53441303 11:0.53790003 12:0.45207489 13:0.38355463 14:0.41522225 15:0.29680698 16:0.50311731 17:0.51246366 18:0.57092246 
-4 4 1:0.55569726 2:0.47886888 3:0.74551436 4:0.51973721 5:0.48929373 6:0.6650801 7:0.33496261 8:0.71848593 9:0.417705 10:0.65432234 11:0.47982737 12:0.4052798 13:0.32453967 14:0.54631883 15:0.39665464 16:0.35205991 17:0.3541405 18:0.40468633 
-4 4 1:0.64327577 2:0.36481333 3:0.70242083 4:0.52745168 5:0.30037607 6:0.69671881 7:0.30202301 8:0.64978083 9:0.44303323 10:0.64636703 11:0.4019784 12:0.39141553 13:0.5119909 14:0.47799799 15:0.3905337 16:0.41462693 17:0.40452226 18:0.39864564 
-0 4 1:0.77566684 2:0.54186724 3:0.46307675 4:0.33868346 5:0.3430862 6:0.77973708 7:0.36959337 8:0.61452648 9:0.303854 10:0.42469803 11:0.33517874 12:0.61675638 13:0.4599681 14:0.46292982 15:0.5925081 16:0.54069236 17:0.52801808 18:0.5432572 
-0 4 1:0.6542436 2:0.42261667 3:0.63571034 4:0.49519663 5:0.39041111 6:0.72658288 7:0.33532805 8:0.68395218 9:0.34359513 10:0.59396375 11:0.27874198 12:0.54299803 13:0.45661917 14:0.62657939 15:0.36038737 16:0.57580533 17:0.49831862 18:0.53988566 
-0 4 1:0.58384854 2:0.35736244 3:0.55720076 4:0.44074226 5:0.33117496 6:0.70853802 7:0.32491938 8:0.60658988 9:0.39566068 10:0.63042598 11:0.37961251 12:0.47681043 13:0.39731213 14:0.63063389 15:0.37552492 16:0.51607593 17:0.47322259 18:0.52727674 
-0 4 1:0.63710099 2:0.38592788 3:0.56627346 4:0.52008488 5:0.46574752 6:0.73938638 7:0.26864913 8:0.71971384 9:0.43979872 10:0.6018666 11:0.48323975 12:0.6509861 13:0.51091904 14:0.47049275 15:0.50590292 16:0.41572992 17:0.50590785 18:0.56570754 
-0 4 1:0.54856831 2:0.42570325 3:0.46500101 4:0.54265092 5:0.45166356 6:0.71017869 7:0.3378647 8:0.65015985 9:0.39571343 10:0.5752864 11:0.35408916 12:0.3400971 13:0.41025192 14:0.36344616 15:0.31967511 16:0.34024506 17:0.45638881 18:0.70364072 
-4 4 1:0.67594028 2:0.40868688 3:0.52036117 4:0.63330006 5:0.44830773 6:0.76392629 7:0.34656193 8:0.46793182 9:0.4508272 10:0.78248379 11:0.45825505 12:0.48044228 13:0.36020186 14:0.55051608 15:0.49897733 16:0.64884872 17:0.23144472 18:0.50828908 
-0 4 1:0.69015641 2:0.29395796 3:0.49777287 4:0.61201414 5:0.44932359 6:0.66932631 7:0.32221918 8:0.74274932 9:0.43430068 10:0.68257254 11:0.32772137 12:0.59059233 13:0.21667928 14:0.4104907 15:0.4202372 16:0.58873788 17:0.39664497 18:0.76330262 
-0 4 1:0.8164613 2:0.33767258 3:0.48107205 4:0.52128454 5:0.43058361 6:0.61621949 7:0.23192109 8:0.6489339 9:0.42404683 10:0.6897108 11:0.30666542 12:0.54125351 13:0.38093356 14:0.50734303 15:0.6317964 16:0.55077517 17:0.57106629 18:0.69445155 
-0 4 1:0.70589253 2:0.44961714 3:0.59156431 4:0.41378804 5:0.27571176 6:0.7473224 7:0.34122461 8:0.58663626 9:0.32919446 10:0.60807883 11:0.30347918 12:0.41498163 13:0.21508791 14:0.51116453 15:0.26982744 16:0.45731816 17:0.30314221 18:0.43299194 
-0 1.5237422490400865 1:0.78900673 2:0.32609246 3:0.52579365 4:0.50107753 5:0.48015158 6:0.78744463 7:0.22207633 8:0.66704775 9:0.36048521 10:0.66887647 11:0.50117345 12:0.68549939 13:0.48527986 14:0.58051168 15:0.54102095 16:0.70899471 17:0.64865963 18:0.67298993 
-0 4 1:0.75450446 2:0.39659624 3:0.61819166 4:0.56884965 5:0.57003109 6:0.8284088 7:0.25907681 8:0.62885588 9:0.2949391 10:0.55214132 11:0.44250596 12:0.70617219 13:0.35563362 14:0.55422549 15:0.50668041 16:0.59064561 17:0.52557308 18:0.50490877 
-4 4 1:0.52062139 2:0.87414012 3:0.37735749 4:0.47601015 5:0.63087662 6:0.32366865 7:0.71402413 8:0.2995386 9:0.47355173 10:0.73331096 11:0.38252436 12:0.59742451 13:0.62443239 14:0.22753333 15:0.54482097 16:0.28417088 17:0.547093 18:0.71504303 
-4 4 1:0.48813544 2:0.81336944 3:0.26263719 4:0.73691532 5:0.44965477 6:0.1978671 7:0.8106593 8:0.16455636 9:0.46681236 10:0.71616551 11:0.2594253 12:0.59842478 13:0.48310886 14:0.3101483 15:0.73691197 16:0.30693121 17:0.34193305 18:0.60134064 
-4 0 1:0.33184268 2:0.87061052 3:0.41874467 4:0.58294195 5:0.7165743 6:0.30607653 7:0.82842946 8:0.28060995 9:0.44571621 10:0.66784326 11:0.23118374 12:0.55489499 13:0.56011122 14:0.4963395 15:0.71653319 16:0.42481764 17:0.40225065 18:0.59249964 
-0 4 1:0.45432079 2:0.76034304 3:0.21902924 4:0.6027832 5:0.36666334 6:0.28529471 7:0.86514215 8:0.095930632 9:0.43496516 10:0.76431448 11:0.10480689 12:0.59601023 13:0.58691977 14:0.48214831 15:0.72523067 16:0.28168851 17:0.37704177 18:0.76334657 
-1.3560994173789458 4 1:0.46514395 2:0.81068319 3:0.33335705 4:0.58747164 5:0.51651437 6:0.26540612 7:0.73300751 8:0.2428403 9:0.44638858 10:0.56306716 11:0.14390588 12:0.53907401 13:0.81246849 14:0.47801509 15:0.63462109 16:0.46495258 17:0.55079398 18:0.63777075 
-0 4 1:0.51448147 2:0.81586186 3:0.19329724 4:0.63223001 5:0.48395302 6:0.20541214 7:0.80219345 8:0.1975491 9:0.40277032 10:0.72128412 11:0.1946855 12:0.48196463 13:0.61433749 14:0.39331171 15:0.66596411 16:0.39525115 17:0.45066141 18:0.79425483 
-0 4 1:0.53189667 2:0.85176478 3:0.24319316 4:0.6337425 5:0.36508196 6:0.20080978 7:0.81642882 8:0.14725256 9:0.45582408 10:0.79835965 11:0.24317293 12:0.64375535 13:0.71158458 14:0.48972428 15:0.84885047 16:0.58342647 17:0.41180856 18:0.52642296 
-4 4 1:0.45797914 2:0.84625004 3:0.46163671 4:0.60206736 5:0.56919591 6:0.30510493 7:0.78013307 8:0.27036652 9:0.45871316 10:0.62889498 11:0.1790709 12:0.63415117 13:0.71747553 14:0.28833439 15:0.69965061 16:0.30686621 17:0.42598612 18:0.54156753 
-4 4 1:0.57609154 2:0.9477243 3:0.24264108 4:0.56949215 5:0.58391291 6:0.28758826 7:0.74875826 8:0.19245888 9:0.46511917 10:0.7312832 11:0.33673498 12:0.64694979 13:0.70757446 14:0.35037936 15:0.68721485 16:0.47024705 17:0.65731089 18:0.64285872 
-3.0143317900797491 0 1:0.42412715 2:0.86432916 3:0.21199909 4:0.6392064 5:0.51998938 6:0.11264936 7:0.89595427 8:0.18107974 9:0.51310198 10:0.88819216 11:0.16534786 12:0.63854053 13:0.67311409 14:0.40228131 15:0.65663881 16:0.35011574 17:0.36475281 18:0.73154976 
-4 4 1:0.43219717 2:0.86412102 3:0.41197244 4:0.51141698 5:0.48620839 6:0.23363406 7:0.73204488 8:0.34395436 9:0.48094341 10:0.59109261 11:0.12958758 12:0.49786853 13:0.66134413 14:0.45246736 15:0.71433007 16:0.5459727 17:0.47902218 18:0.67784253 
-4 4 1:0.52694296 2:0.91840048 3:0.34401355 4:0.507492 5:0.51301366 6:0.27882022 7:0.74159765 8:0.32525297 9:0.54384969 10:0.6817445 11:0.25108841 12:0.53392505 13:0.54130834 14:0.27070087 15:0.64245578 16:0.35586482 17:0.60212924 18:0.67353909 
-4 4 1:0.60653046 2:0.76549856 3:0.26293048 4:0.55512648 5:0.31883701 6:0.27662638 7:0.74706614 8:0.23627925 9:0.57370053 10:0.74239146 11:0.23063401 12:0.62999551 13:0.71318331 14:0.40180462 15:0.74634257 16:0.32234278 17:0.40372046 18:0.6195964 
-0 4 1:0.54534182 2:0.75462468 3:0.099390756 4:0.65927154 5:0.37731409 6:0.22032605 7:0.84617547 8:0.12503202 9:0.51893295 10:0.79764286 11:0.064183513 12:0.52630376 13:0.61418694 14:0.33902929 15:0.68118881 16:0.37001956 17:0.4036841 18:0.56747161 
-0 4 1:0.55872481 2:0.85536531 3:0.23148639 4:0.62520571 5:0.30964791 6:0.14120231 7:0.7490151 8:0.11534691 9:0.39887776 10:0.73752335 11:0.18831273 12:0.49040759 13:0.67165725 14:0.43273783 15:0.8470316 16:0.54326581 17:0.47192916 18:0.65459103 
-4 4 1:0.53115809 2:0.91251193 3:0.3529604 4:0.51203895 5:0.47078814 6:0.31510646 7:0.67615076 8:0.23165359 9:0.45096974 10:0.66616065 11:0.35896251 12:0.70855769 13:0.84217682 14:0.32560473 15:0.68420246 16:0.54867865 17:0.46756371 18:0.71136525 
-0 4 1:0.54605601 2:0.76711211 3:0.18784345 4:0.70984402 5:0.36278639 6:0.16811491 7:0.84005161 8:0.20240604 9:0.46898824 10:0.75532749 11:0.134188 12:0.55143293 13:0.61513257 14:0.4076068 15:0.68520172 16:0.34978399 17:0.46960489 18:0.69476056 
-0 4 1:0.53739149 2:0.77858876 3:0.24641771 4:0.5973008 5:0.52493591 6:0.33259149 7:0.72384846 8:0.11857933 9:0.41321873 10:0.70093896 11:0.37280876 12:0.69335187 13:0.60709191 14:0.43012809 15:0.66023669 16:0.3897587 17:0.54056483 18:0.70450698 
-4 4 1:0.62711318 2:0.93916105 3:0.30960241 4:0.44465654 5:0.53452449 6:0.20605643 7:0.5990659 8:0.33018981 9:0.45728611 10:0.5398452 11:0.17046841 12:0.45248237 13:0.74064875 14:0.48687899 15:0.72230744 16:0.3439147 17:0.53434148 18:0.63958515 
-0 4 1:0.58746498 2:0.81988038 3:0.080936957 4:0.59055466 5:0.35094475 6:0.17978936 7:0.80393427 8:0.10893475 9:0.37305361 10:0.73852357 11:0.21575393 12:0.63306828 13:0.80563055 14:0.44857919 15:0.72006998 16:0.43320345 17:0.51893276 18:0.74994127 
-4 0 1:0.39920705 2:0.88697716 3:0.29599673 4:0.61744094 5:0.52394051 6:0.2269287 7:0.88062864 8:0.090819595 9:0.47557735 10:0.89155934 11:0.22921123 12:0.74758928 13:0.50468634 14:0.29407793 15:0.59466819 16:0.34464157 17:0.34427417 18:0.83095505 
-0 4 1:0.5276907 2:0.81918955 3:0.068112136 4:0.65717034 5:0.42658096 6:0.10758586 7:0.81249463 8:0.091715685 9:0.43608237 10:0.81363435 11:0.20403842 12:0.56222204 13:0.58521751 14:0.45110776 15:0.79440711 16:0.41072866 17:0.45976505 18:0.6836932 
-0 3.2070984749783626 1:0.38808362 2:0.80493279 3:0.29005553 4:0.59890742 5:0.68425925 6:0.30667036 7:0.83610229 8:0.35096956 9:0.53585459 10:0.6205537 11:0.24380255 12:0.71388933 13:0.5507403 14:0.27590075 15:0.59153376 16:0.13400299 17:0.55542218 18:0.93357363 
-4 0 1:0.49716189 2:0.735594 3:0.37188169 4:0.67027049 5:0.58579865 6:0.34119935 7:0.83734653 8:0.17820933 9:0.47528282 10:0.80818894 11:0.1941364 12:0.64183786 13:0.96746367 14:0.46197858 15:0.83614645 16:0.4139378 17:0.50157545 18:0.69861299 
-0 4 1:0.57196368 2:0.84756325 3:0.029317207 4:0.72348207 5:0.49604617 6:0.14605133 7:0.77250293 8:0.0073761587 9:0.35946526 10:0.80099465 11:0.31151688 12:0.53704824 13:0.54874182 14:0.46118685 15:0.8770651 16:0.53711933 17:0.51403372 18:0.7640283 
-0 4 1:0.57484283 2:0.76145777 3:0.082473692 4:0.62820455 5:0.44647635 6:0.29191279 7:0.76297532 8:0.041092888 9:0.37072112 10:0.6991628 11:0.19586596 12:0.50615032 13:0.54568018 14:0.40194501 15:0.79472658 16:0.48243985 17:0.62877904 18:0.76427595 
-4 4 1:0.61262102 2:0.79414227 3:0.2276666 4:0.6535721 5:0.45865786 6:0.14586754 7:0.81148279 8:0.16416904 9:0.36028532 10:0.75011202 11:0.19329507 12:0.50747857 13:0.71827791 14:0.3282839 15:0.76256893 16:0.42353443 17:0.50972246 18:0.66939299 
-4 4 1:0.55641244 2:0.82501071 3:0.23767978 4:0.7078037 5:0.51105821 6:0.18611032 7:0.88218125 8:0.22797624 9:0.49813514 10:0.86690082 11:0.13124488 12:0.4362966 13:0.62057931 14:0.25812543 15:0.68564931 16:0.28508826 17:0.40335188 18:0.44459974 
-0 4 1:0.55226725 2:0.77728842 3:0.21536168 4:0.6556928 5:0.37496588 6:0.2473869 7:0.83084896 8:0.15449163 9:0.43772094 10:0.70185058 11:0.17163504 12:0.60999923 13:0.63147424 14:0.40755458 15:0.71778909 16:0.34391174 17:0.39187066 18:0.79630151 
-4 4 1:0.63813475 2:0.92730832 3:0.41069878 4:0.55242034 5:0.52354485 6:0.25929484 7:0.70480885 8:0.26433572 9:0.42889237 10:0.63665466 11:0.29044651 12:0.54607922 13:0.66309298 14:0.2568294 15:0.57789975 16:0.34404646 17:0.46269624 18:0.56170973 
-0 4 1:0.54839424 2:0.86353885 3:0.21528103 4:0.58256049 5:0.27996798 6:0.14151859 7:0.77952048 8:0.13423477 9:0.46019324 10:0.67324848 11:0.26255236 12:0.67114158 13:0.58252873 14:0.384642 15:0.76229006 16:0.4185587 17:0.49805026 18:0.6525957 
-4 4 1:0.55398014 2:0.89132237 3:0.2021937 4:0.71281127 5:0.47858271 6:0.1358523 7:0.77248003 8:0.20387819 9:0.37662224 10:0.63148884 11:0.21896959 12:0.53177152 13:0.69606616 14:0.46473527 15:0.74236024 16:0.47409041 17:0.49900035 18:0.47735437 
-4 4 1:0.57128402 2:0.73552545 3:0.22102462 4:0.68709735 5:0.35923296 6:0.24202874 7:0.8145612 8:0.13333194 9:0.41669944 10:0.761514 11:0.22042426 12:0.52242156 13:0.6738702 14:0.30749376 15:0.62578109 16:0.20709266 17:0.24868579 18:0.36694925 
-0 4 1:0.51446108 2:0.8879612 3:0.091994526 4:0.62516457 5:0.36517125 6:0.12565977 7:0.8858743 8:0.030506094 9:0.43861068 10:0.77314002 11:0.054906608 12:0.6720493 13:0.47138396 14:0.26776597 15:0.76083129 16:0.46842511 17:0.44812197 18:0.7075419 
-0 4 1:0.59935934 2:0.6814523 3:0.083723513 4:0.54963823 5:0.41356276 6:0.25823057 7:0.75530572 8:0.090501188 9:0.40480283 10:0.85517511 11:0.45645288 12:0.64586354 13:0.64637012 14:0.44593641 15:0.89289481 16:0.6081731 17:0.5922167 18:0.66150786 
-0 3.1303266057190369 1:0.55642919 2:0.66577567 3:0.33498442 4:0.65043685 5:0.33481583 6:0.25408775 7:0.71889443 8:0.088844982 9:0.42392683 10:0.66275917 11:0.1890051 12:0.65389327 13:0.66788826 14:0.32112851 15:0.71756856 16:0.5638506 17:0.47435867 18:0.55753838 
-0 4 1:0.59799055 2:0.65948497 3:0.26911351 4:0.62794875 5:0.45463211 6:0.34207132 7:0.78897291 8:0.23170103 9:0.42142902 10:0.73945109 11:0.35956584 12:0.54634009 13:0.57300716 14:0.20462748 15:0.46834734 16:0.1923848 17:0.42267272 18:0.5538471 
-0 4 1:0.60080438 2:0.77141539 3:0.10410654 4:0.64914924 5:0.31268746 6:0.14734831 7:0.75471304 8:0.081641699 9:0.43251935 10:0.79023211 11:0.21143271 12:0.64301254 13:0.72578964 14:0.41238025 15:0.86750388 16:0.52547185 17:0.5017714 18:0.73432116 
-4 4 1:0.43478202 2:0.74632364 3:0.64628748 4:0.56912819 5:0.65830932 6:0.64307282 7:0.62660792 8:0.50487342 9:0.79562286 10:0.3312496 11:0.66561001 12:0.69351582 13:0.40355387 14:0.68683968 15:0.42117296 16:0.43389124 17:0.65174317 18:0.32814128 
-4 4 1:0.46220728 2:0.73213527 3:0.48214859 4:0.54353074 5:0.66807342 6:0.58509119 7:0.65020647 8:0.44681391 9:0.58371243 10:0.23861685 11:0.67964519 12:0.68279021 13:0.4848477 14:0.79760131 15:0.492047 16:0.39093248 17:0.67207356 18:0.32817811 
-4 4 1:0.45443609 2:0.79934303 3:0.55551451 4:0.53923212 5:0.63951042 6:0.61338309 7:0.594822 8:0.47200527 9:0.72176725 10:0.23263363 11:0.6367839 12:0.62742246 13:0.4279322 14:0.75395254 15:0.46514499 16:0.52703224 17:0.64402775 18:0.3620572 
-4 4 1:0.50052205 2:0.7832716 3:0.29856336 4:0.56088133 5:0.63446314 6:0.53211895 7:0.64855061 8:0.49154425 9:0.73622959 10:0.29625575 11:0.71043754 12:0.75314487 13:0.533283 14:0.73374256 15:0.31357727 16:0.34783743 17:0.61490863 18:0.38490645 
-4 4 1:0.52542635 2:0.67126666 3:0.53580495 4:0.60194207 5:0.62622702 6:0.58153227 7:0.59238932 8:0.42770772 9:0.76534925 10:0.33667886 11:0.55431523 12:0.55378276 13:0.55223472 14:0.70546771 15:0.27713234 16:0.54580784 17:0.78397188 18:0.32496948 
-4 4 1:0.45470192 2:0.70097031 3:0.53171364 4:0.56247583 5:0.61550159 6:0.60002702 7:0.65258452 8:0.41381342 9:0.66234886 10:0.32474952 11:0.6577756 12:0.70058718 13:0.55317912 14:0.77267369 15:0.47587824 16:0.48524442 17:0.77026986 18:0.48543063 
-4 4 1:0.45934173 2:0.68900352 3:0.49851152 4:0.43554955 5:0.80990352 6:0.66582554 7:0.63329199 8:0.51643148 9:0.5974065 10:0.42493995 11:0.88537005 12:0.64099995 13:0.36864961 14:0.61292423 15:0.42939392 16:0.51983947 17:0.7085637 18:0.3990389 
-0 4 1:0.45560979 2:0.73195138 3:0.37224284 4:0.56145079 5:0.71631451 6:0.60877163 7:0.69285803 8:0.48333607 9:0.68018547 10:0.3446024 11:0.63363316 12:0.59224384 13:0.47829027 14:0.68273672 15:0.39153547 16:0.59400013 17:0.83466484 18:0.516838 
-0 4 1:0.35780222 2:0.76559329 3:0.43578162 4:0.63899407 5:0.57406799 6:0.64463111 7:0.66228601 8:0.34510617 9:0.61995283 10:0.17563616 11:0.66387378 12:0.64935571 13:0.54759228 14:0.79233061 15:0.26465788 16:0.36884042 17:0.67996518 18:0.49525709 
-4 4 1:0.43591493 2:0.7063089 3:0.40412352 4:0.69736267 5:0.69641028 6:0.62331246 7:0.72804353 8:0.48445685 9:0.68349289 10:0.24512052 11:0.71914237 12:0.77657831 13:0.46478628 14:0.72138918 15:0.43093938 16:0.54226802 17:0.65015505 18:0.2375181 
-0 4 1:0.44664023 2:0.73478032 3:0.29182316 4:0.63124248 5:0.55064481 6:0.57504751 7:0.64132401 8:0.34246394 9:0.63629215 10:0.13401592 11:0.64823344 12:0.71172772 13:0.63647489 14:0.88442598 15:0.27539677 16:0.53274056 17:0.79647262 18:0.33414498 
-0 4 1:0.54471658 2:0.70235064 3:0.21757543 4:0.66869587 5:0.53197463 6:0.57595226 7:0.62506592 8:0.40710593 9:0.82058163 10:0.1823831 11:0.73657801 12:0.84216464 13:0.52768583 14:0.71399665 15:0.25362214 16:0.72238436 17:0.71621603 18:0.24210854 
-0.56312371370617964 4 1:0.53578637 2:0.74820737 3:0.26610885 4:0.53800277 5:0.53895763 6:0.64500461 7:0.62756769 8:0.34622436 9:0.9043959 10:0.23815595 11:0.4973131 12:0.87200977 13:0.46803347 14:0.67666669 15:0.40032917 16:0.36857728 17:0.59714519 18:0.24387025 
-0 4 1:0.50956732 2:0.63651465 3:0.41202458 4:0.53750658 5:0.65666568 6:0.60951515 7:0.62967319 8:0.56617159 9:0.76403934 10:0.063086654 11:0.59159726 12:0.93765221 13:0.54777117 14:0.6383634 15:0.27962713 16:0.43834325 17:0.81442194 18:0.42761399 
-4 4 1:0.47992943 2:0.75506466 3:0.37025698 4:0.59693455 5:0.73954903 6:0.59427783 7:0.6345093 8:0.46027618 9:0.66663278 10:0.23966306 11:0.59920987 12:0.65584155 13:0.46647125 14:0.54210303 15:0.28575809 16:0.65722684 17:0.71224388 18:0.40892357 
-0 4 1:0.45535676 2:0.65045748 3:0.37561058 4:0.6782562 5:0.62147853 6:0.62419777 7:0.72291661 8:0.41997059 9:0.63268617 10:0.19298409 11:0.71904789 12:0.72494713 13:0.34907341 14:0.67272203 15:0.29477948 16:0.43564227 17:0.71315931 18:0.3477269 
-4 4 1:0.55150538 2:0.71973021 3:0.3755277 4:0.59662053 5:0.49382536 6:0.77201035 7:0.56620091 8:0.38844359 9:0.94465189 10:0.26053648 11:0.75689384 12:0.55254796 13:0.29763533 14:0.80889467 15:0.19138458 16:0.55128234 17:0.60297541 18:0.064863684 
-0 4 1:0.35521121 2:0.72825082 3:0.31255546 4:0.58841508 5:0.52331048 6:0.61500135 7:0.64025557 8:0.50864584 9:0.76954216 10:0.24142888 11:0.76524678 12:0.60909416 13:0.28719271 14:0.65417997 15:0.20371533 16:0.29716855 17:0.55701392 18:0.23274931 
-0 4 1:0.49782944 2:0.7411858 3:0.23521976 4:0.64521239 5:0.60978287 6:0.58526111 7:0.56946185 8:0.47669522 9:0.9395865 10:0.10932179 11:0.55116251 12:0.75824393 13:0.45295432 14:0.78213146 15:0.30976747 16:0.63464716 17:0.80947741 18:0.28590358 
