svm_type c_svc
kernel_type linear
nr_class 3
total_sv 1216
rho 12.97996974459333 14.060235802271693 -2.1675032678751247
label 36 38 42
nr_sv 342 415 459
SV
4 4 1:0.59686929 2:0.66895212 3:0.81431585 4:0.41620778 5:0.52669907 6:0.71873288 7:0.34315361 8:0.65634084 9:0.43508789 10:0.60029687 11:0.49103738 12:0.38403438 13:0.40204519 14:0.50315461 15:0.36063835 16:0.36376517 17:0.42749537 18:0.076090145 
0 4 1:0.80842121 2:0.55332438 3:0.7758554 4:0.32902727 5:0.5645803 6:0.53172676 7:0.24030445 8:0.58562498 9:0.32553845 10:0.62758913 11:0.33051133 12:0.38321231 13:0.49962092 14:0.51652239 15:0.4108771 16:0.27167352 17:0.32629849 18:0.48103166 
0 4 1:0.84323912 2:0.5665192 3:0.75575515 4:0.23811494 5:0.54997362 6:0.45743375 7:0.17309753 8:0.57553741 9:0.21366932 10:0.5412184 11:0.26618525 12:0.42539402 13:0.36046931 14:0.40876865 15:0.39573109 16:0.25864557 17:0.34166307 18:0.38294705 
0 4 1:0.73036716 2:0.58225792 3:0.78047424 4:0.35785513 5:0.5879619 6:0.65393927 7:0.22498948 8:0.59605831 9:0.34539617 10:0.63121447 11:0.41611416 12:0.40526665 13:0.36680063 14:0.39740478 15:0.40558589 16:0.34512001 17:0.26553254 18:0.49440078 
4 4 1:0.68776014 2:0.64877816 3:0.65126298 4:0.4587996 5:0.55496157 6:0.58926718 7:0.33068636 8:0.62759627 9:0.35044746 10:0.46351614 11:0.27480037 12:0.30357015 13:0.44112385 14:0.46569303 15:0.36207429 16:0.42579264 17:0.31679674 18:0.37594572 
0 4 1:0.75151724 2:0.67740642 3:0.8138124 4:0.42785386 5:0.5103282 6:0.57164665 7:0.31759857 8:0.67834767 9:0.29870112 10:0.53137313 11:0.37543531 12:0.45627256 13:0.54868063 14:0.64288416 15:0.36448859 16:0.33043107 17:0.46236048 18:0.57076105 
0 4 1:0.76917261 2:0.58451313 3:0.79072485 4:0.33100969 5:0.56414149 6:0.56272057 7:0.23649885 8:0.58995969 9:0.29736055 10:0.50607895 11:0.17123764 12:0.40034902 13:0.28197335 14:0.37969987 15:0.39228282 16:0.27350136 17:0.42961343 18:0.4778045 
4 0 1:0.54069106 2:0.59988424 3:0.87178561 4:0.37981885 5:0.68643272 6:0.63908286 7:0.34920343 8:0.64667022 9:0.43054283 10:0.67338551 11:0.64736138 12:0.53167907 13:0.43663287 14:0.42630536 15:0.3255622 16:0.38154997 17:0.5207283 18:0.48631074 
0 4 1:0.74544312 2:0.64125045 3:0.79013894 4:0.40449361 5:0.59693536 6:0.64122502 7:0.25513408 8:0.67909147 9:0.42231232 10:0.65466794 11:0.45636343 12:0.41070279 13:0.46859581 14:0.49894068 15:0.29629313 16:0.35415109 17:0.50873509 18:0.41345559 
0 4 1:0.71373732 2:0.60388394 3:0.77577492 4:0.38414065 5:0.63230656 6:0.66919735 7:0.24873705 8:0.62888443 9:0.31440841 10:0.59683193 11:0.33661213 12:0.41025561 13:0.55114843 14:0.60157033 15:0.39427135 16:0.22952144 17:0.26579698 18:0.46366577 
0.088315807623008405 0 1:0.75077565 2:0.56788394 3:0.84504638 4:0.48967018 5:0.57111132 6:0.62214338 7:0.27433603 8:0.65177578 9:0.26999951 10:0.54621121 11:0.39733713 12:0.50631908 13:0.52551862 14:0.42729056 15:0.32701689 16:0.31628368 17:0.48864712 18:0.58976818 
0 4 1:0.75089873 2:0.54834744 3:0.78454976 4:0.46542024 5:0.63858971 6:0.6545096 7:0.28918046 8:0.65667224 9:0.30248696 10:0.48552615 11:0.38845906 12:0.52352978 13:0.56182591 14:0.50778777 15:0.45861349 16:0.39175425 17:0.38715068 18:0.5077062 
0 4 1:0.75410303 2:0.6097432 3:0.75690545 4:0.4424104 5:0.60867818 6:0.63275766 7:0.28465099 8:0.69096095 9:0.36527384 10:0.58880682 11:0.47871155 12:0.40840426 13:0.42251365 14:0.43475711 15:0.25077971 16:0.16017097 17:0.41788771 18:0.62071526 
4 4 1:0.65614193 2:0.54868341 3:0.72133299 4:0.48784918 5:0.62096512 6:0.65283084 7:0.22208945 8:0.63410795 9:0.34557424 10:0.5791013 11:0.4207124 12:0.46724758 13:0.48297117 14:0.44925356 15:0.24351697 16:0.17120423 17:0.26211026 18:0.43566661 
0 4 1:0.83975393 2:0.47817485 3:0.71084988 4:0.46051262 5:0.62326394 6:0.61928352 7:0.32644032 8:0.69235431 9:0.31380072 10:0.57242708 11:0.36034489 12:0.47896616 13:0.56069593 14:0.4123457 15:0.43574995 16:0.23307333 17:0.34831495 18:0.46371678 
4 4 1:0.49496945 2:0.6933841 3:0.58193476 4:0.35672226 5:0.62141591 6:0.53400953 7:0.40169501 8:0.64475744 9:0.4914402 10:0.57447997 11:0.36802932 12:0.31297158 13:0.46814318 14:0.57101006 15:0.3466157 16:0.2951547 17:0.44012379 18:0.36184186 
0 4 1:0.73801376 2:0.62057031 3:0.781584 4:0.41685629 5:0.5188437 6:0.64995858 7:0.28288801 8:0.64188972 9:0.35897364 10:0.55430113 11:0.32338416 12:0.52531313 13:0.47779241 14:0.63953636 15:0.38581445 16:0.24099983 17:0.41476327 18:0.50736943 
0 4 1:0.73400029 2:0.57917361 3:0.85115184 4:0.32548265 5:0.59200885 6:0.58932182 7:0.26910407 8:0.6882948 9:0.33184748 10:0.42473619 11:0.3358474 12:0.39633118 13:0.47042319 14:0.50960329 15:0.33758713 16:0.21277729 17:0.27801975 18:0.37980245 
0 4 1:0.81986921 2:0.59564302 3:0.82792855 4:0.38755519 5:0.60388785 6:0.62072187 7:0.27935425 8:0.66080857 9:0.21955024 10:0.4504185 11:0.36754946 12:0.48403218 13:0.46967167 14:0.49057899 15:0.34851931 16:0.37563021 17:0.46040598 18:0.50835897 
0 4 1:0.797285 2:0.59165134 3:0.8327164 4:0.35228898 5:0.5831147 6:0.62667026 7:0.25834219 8:0.6450382 9:0.35972011 10:0.54623242 11:0.48521925 12:0.48814378 13:0.48765064 14:0.50116951 15:0.41719121 16:0.41405596 17:0.41416818 18:0.56268097 
0 4 1:0.77641258 2:0.83475772 3:0.52681623 4:0.54074122 5:0.5251139 6:0.24900084 7:0.59260227 8:0.34107346 9:0.34797996 10:0.49157347 11:0.15156219 12:0.59334838 13:0.57827955 14:0.44712407 15:0.38183989 16:0.099821344 17:0.34096046 18:0.22432841 
0 4 1:0.78596515 2:0.85026337 3:0.51308776 4:0.46887134 5:0.45115052 6:0.2648454 7:0.56205113 8:0.32801173 9:0.28252397 10:0.49342094 11:0.14052808 12:0.48394195 13:0.45168248 14:0.4136313 15:0.54211203 16:0.25192883 17:0.3183182 18:0.33219612 
0 4 1:0.76146972 2:0.85399513 3:0.44741717 4:0.51282793 5:0.49028954 6:0.21030502 7:0.64884911 8:0.3982258 9:0.48571042 10:0.63680875 11:0.22808697 12:0.58609038 13:0.37787274 14:0.26321825 15:0.49185741 16:0.16507886 17:0.3902843 18:0.31324757 
4 0 1:0.4440542 2:0.92476572 3:0.39588273 4:0.65475692 5:0.59073028 6:0.19402537 7:0.80382559 8:0.32376313 9:0.46263547 10:0.70523469 11:0.35993528 12:0.75959801 13:0.55079296 14:0.31077153 15:0.56545489 16:0.15151742 17:0.56209039 18:0.48210411 
0 4 1:0.663474 2:0.85399896 3:0.37433154 4:0.55153526 5:0.44914524 6:0.23030906 7:0.62484304 8:0.25036545 9:0.42025336 10:0.67466049 11:0.22945561 12:0.55652864 13:0.50621261 14:0.47057353 15:0.62149306 16:0.15365293 17:0.35388841 18:0.45456427 
0 4 1:0.7627496 2:0.82532402 3:0.50836808 4:0.56262504 5:0.48439882 6:0.22969064 7:0.64853109 8:0.37597954 9:0.3919278 10:0.5661234 11:0.13726756 12:0.51034775 13:0.47740446 14:0.34371726 15:0.45533491 16:0.33318163 17:0.50369219 18:0.29018475 
0 4 1:0.73615493 2:0.83843666 3:0.4189465 4:0.51138286 5:0.49540172 6:0.30777319 7:0.62512902 8:0.30626861 9:0.35094752 10:0.55959784 11:0.22368616 12:0.57685062 13:0.41749392 14:0.33675078 15:0.42433577 16:0.14789386 17:0.28285006 18:0.42089732 
4 0 1:0.60997101 2:0.87235641 3:0.4728147 4:0.53220893 5:0.45133953 6:0.32617622 7:0.62756939 8:0.25931141 9:0.45771411 10:0.64485798 11:0.12724009 12:0.48689806 13:0.39293131 14:0.33424095 15:0.59483295 16:0.31381924 17:0.45833404 18:0.39140897 
4 0 1:0.51112263 2:0.90186491 3:0.36415618 4:0.51140987 5:0.52042991 6:0.35867472 7:0.66566422 8:0.2125435 9:0.48784675 10:0.64331147 11:0.179138 12:0.62795194 13:0.34131377 14:0.32017214 15:0.53445867 16:0.12268855 17:0.48230603 18:0.37592539 
4 0 1:0.56159648 2:0.90356485 3:0.39601309 4:0.68568514 5:0.51840867 6:0.29520893 7:0.87555776 8:0.2917881 9:0.40534667 10:0.67050872 11:0.17115273 12:0.68309115 13:0.47451977 14:0.32000893 15:0.5629834 16:0.31296823 17:0.75538017 18:0.47562349 
4 0 1:0.55128458 2:0.97188705 3:0.41478758 4:0.48450002 5:0.49970722 6:0.29280895 7:0.64469188 8:0.33601404 9:0.4594207 10:0.60630391 11:0.28311925 12:0.68323408 13:0.50802144 14:0.40807662 15:0.68175211 16:0.32796529 17:0.60556429 18:0.46390222 
4 0 1:0.61434315 2:0.92523605 3:0.37126161 4:0.5961571 5:0.55873298 6:0.24455833 7:0.74141867 8:0.27659215 9:0.37600046 10:0.70917531 11:0.22565734 12:0.59306824 13:0.42611242 14:0.37559273 15:0.65662716 16:0.32050554 17:0.6954791 18:0.49219679 
4 0 1:0.54797152 2:0.90559864 3:0.27930939 4:0.60671234 5:0.52547622 6:0.22617182 7:0.69297551 8:0.23811283 9:0.5041212 10:0.70817545 11:0.19393389 12:0.59532909 13:0.2790037 14:0.33884997 15:0.66813481 16:0.19493346 17:0.65190056 18:0.56805676 
4 0 1:0.4697284 2:0.91102393 3:0.39945433 4:0.59576293 5:0.51469732 6:0.25522914 7:0.76691575 8:0.3707808 9:0.56827323 10:0.64625981 11:0.14722792 12:0.65934082 13:0.5018886 14:0.43053975 15:0.62833545 16:0.16967079 17:0.61973067 18:0.61104601 
4 0 1:0.44825006 2:0.89042014 3:0.4398037 4:0.58564546 5:0.51300899 6:0.20789156 7:0.67896913 8:0.29034288 9:0.55832715 10:0.86512217 11:0.19800048 12:0.47118826 13:0.29913462 14:0.27193594 15:0.64334627 16:0.28550916 17:0.55403226 18:0.60359492 
4 0 1:0.61496054 2:0.96335416 3:0.4005162 4:0.59709861 5:0.55639469 6:0.29744445 7:0.6972505 8:0.22721255 9:0.39777359 10:0.60941569 11:0.18507197 12:0.64761164 13:0.34113866 14:0.30828935 15:0.4969022 16:0.13211276 17:0.6614092 18:0.46643326 
4 0 1:0.51940428 2:0.91047819 3:0.34478523 4:0.59921329 5:0.48787152 6:0.2649471 7:0.71893409 8:0.25947154 9:0.53529944 10:0.69725573 11:0.08994553 12:0.59330696 13:0.52730835 14:0.4229431 15:0.69257564 16:0.19834388 17:0.42440137 18:0.43464944 
4 0 1:0.54167034 2:0.95488542 3:0.43738681 4:0.51120923 5:0.47000038 6:0.22433348 7:0.62203779 8:0.21286217 9:0.3974891 10:0.66129608 11:0.14542969 12:0.49667022 13:0.36099549 14:0.42610578 15:0.65123733 16:0.22420288 17:0.71464677 18:0.78916717 
4 0 1:0.47643168 2:0.86945421 3:0.40717901 4:0.53884051 5:0.55747263 6:0.16067019 7:0.529404 8:0.32053551 9:0.49009473 10:0.65238543 11:0.30261967 12:0.6849976 13:0.37443709 14:0.30423398 15:0.65900774 16:0.39344271 17:0.56953883 18:0.44185145 
4 0 1:0.5085254 2:0.92155919 3:0.43038996 4:0.49649278 5:0.53757764 6:0.23188661 7:0.64890836 8:0.33876351 9:0.45726637 10:0.7766571 11:0.43511484 12:0.63084638 13:0.31667039 14:0.3347031 15:0.57741137 16:0.22261682 17:0.55802258 18:0.42820985 
4 0 1:0.4458887 2:0.87188663 3:0.4377198 4:0.47530285 5:0.53806089 6:0.32530398 7:0.71143463 8:0.32088979 9:0.47030314 10:0.64803531 11:0.27040537 12:0.53307319 13:0.57531392 14:0.47264845 15:0.62429617 16:0.29630736 17:0.68615777 18:0.6823178 
2.9768187577001979 0 1:0.62072983 2:0.87546438 3:0.38482806 4:0.60245857 5:0.47335052 6:0.2224436 7:0.77081081 8:0.26361823 9:0.37286421 10:0.63521788 11:0.1250851 12:0.6102839 13:0.37614008 14:0.31768549 15:0.67076084 16:0.21528558 17:0.42805967 18:0.4966501 
0 3.0946005270419832 1:0.7479911 2:0.85171644 3:0.46720884 4:0.52325521 5:0.53188798 6:0.18979882 7:0.58776322 8:0.29954773 9:0.37352644 10:0.64814231 11:0.2323219 12:0.51269645 13:0.39307348 14:0.30940134 15:0.42347536 17:0.2678991 18:0.38972755 
0 4 1:0.50199753 2:0.91654747 3:0.36220016 4:0.46115624 5:0.55125044 6:0.32902341 7:0.68632083 8:0.39932677 9:0.5456373 10:0.71173402 11:0.21689289 12:0.46103956 13:0.49581996 14:0.45524426 15:0.52508231 16:0.11876594 17:0.46833901 18:0.50491449 
0 4 1:0.7282668 2:0.9126726 3:0.35930997 4:0.57224254 5:0.54872234 6:0.19008904 7:0.66768149 8:0.3053145 9:0.40443416 10:0.59283131 11:0.10006675 12:0.55223473 13:0.47251539 14:0.42836203 15:0.61753818 16:0.1107873 17:0.32458484 18:0.30443119 
4 4 1:0.40874713 2:0.69564703 3:0.43326966 4:0.55487584 5:0.5976601 6:0.60005324 7:0.47840352 8:0.55967898 9:0.75939642 10:0.34356995 11:0.72934653 12:0.54582434 13:0.52362494 14:0.74753146 15:0.32212271 16:0.57160141 17:0.48077872 18:0.41564803 
4 4 1:0.42496391 2:0.75941212 3:0.4159907 4:0.58896756 5:0.60661139 6:0.62597445 7:0.54432082 8:0.53422446 9:0.65078461 10:0.35148258 11:0.63783073 12:0.50421935 13:0.83028162 14:0.70445654 15:0.27295695 16:0.72422592 17:0.39568152 18:0.34290079 
4 4 1:0.47323497 2:0.73978511 3:0.55516563 4:0.65724478 5:0.65784775 6:0.63045656 7:0.49256382 8:0.48539817 9:0.75355356 10:0.52347257 11:0.6552431 12:0.3946431 13:0.67447278 14:0.80903512 15:0.30580833 16:0.617694 17:0.51637313 18:0.28873745 
0 4 1:0.57236403 2:0.81838698 3:0.64981255 4:0.36438075 5:0.66059926 6:0.55209088 7:0.60672082 8:0.71910155 9:0.60485546 10:0.39405144 11:0.54012003 12:0.52434892 13:0.71251676 14:0.61449491 15:0.36491633 16:0.51719133 17:0.38850287 18:0.34319088 
4 4 1:0.57704223 2:0.73930619 3:0.53455042 4:0.54990249 5:0.68796684 6:0.6897539 7:0.54440497 8:0.50803707 9:0.77048248 10:0.50786407 11:0.62472179 12:0.54808395 13:0.58087727 14:0.71970563 15:0.50700143 16:0.67198057 17:0.50210738 18:0.48076108 
4 2.3234616299048514 1:0.37788394 2:0.86124493 3:0.5466642 4:0.60182946 5:0.64752421 6:0.53599635 7:0.45868543 8:0.51243867 9:0.5882825 10:0.41025357 11:0.79896915 12:0.50647403 13:0.48907521 14:0.64984013 15:0.35433925 16:0.60040415 17:0.45487266 18:0.515891 
0 4 1:0.52227511 2:0.87746522 3:0.57994761 4:0.43206626 5:0.56963967 6:0.70238849 7:0.60291572 8:0.55957835 9:0.7703927 10:0.46986787 11:0.55698015 12:0.44170766 13:0.56599392 14:0.66907525 15:0.39280246 16:0.63424157 17:0.50794698 18:0.42386866 
4 4 1:0.37482565 2:0.7288273 3:0.40614214 4:0.50117723 5:0.65834396 6:0.61756459 7:0.56498076 8:0.6491767 9:0.66835938 10:0.34850887 11:0.66704816 12:0.55160186 13:0.65083431 14:0.74446638 15:0.40065882 16:0.58631327 17:0.47298298 18:0.384805 
4 4 1:0.48007325 2:0.71952194 3:0.58204921 4:0.63045734 5:0.61650519 6:0.58447851 7:0.60183231 8:0.61488865 9:0.72132128 10:0.52685117 11:0.79420696 12:0.45183085 13:0.4515225 14:0.70488585 15:0.390204 16:0.57464891 17:0.54387974 18:0.48877297 
0 4 1:0.5285267 2:0.79125732 3:0.62987742 4:0.40174951 5:0.66968755 6:0.65787324 7:0.5234189 8:0.5680849 9:0.71320382 10:0.51829838 11:0.56701439 12:0.4477928 13:0.59807296 14:0.69364778 15:0.51504897 16:0.65848162 17:0.52598703 18:0.47729918 
4 0 1:0.55410573 2:0.71550445 3:0.7236811 4:0.48836271 5:0.70247916 6:0.62022312 7:0.52532331 8:0.56709042 9:0.66887694 10:0.45910935 11:0.46953078 12:0.40767246 13:0.49127947 14:0.6810217 15:0.6225305 16:0.81643885 17:0.69649274 18:0.3672299 
4 0 1:0.35210911 2:0.68608269 3:0.52446301 4:0.65966134 5:0.68600099 6:0.61998929 7:0.52398663 8:0.56318154 9:0.7679999 10:0.62342164 11:0.67835693 12:0.38976465 13:0.53325325 14:0.65670901 15:0.45226705 16:0.60591211 17:0.41643119 18:0.62732339 
4 0 1:0.35875265 2:0.75305312 3:0.54991436 4:0.60399733 5:0.63457567 6:0.56459125 7:0.5780962 8:0.47026506 9:0.58486025 10:0.53498099 11:0.62748367 12:0.47390169 13:0.57560085 14:0.60359849 15:0.33284795 16:0.52005998 17:0.53621786 18:0.53702821 
0 4 1:0.65778621 2:0.73446937 3:0.53478336 4:0.59351637 5:0.62256834 6:0.69435246 7:0.49643488 8:0.54374367 9:0.72893925 10:0.40551358 11:0.666031 12:0.39943452 13:0.6001007 14:0.67739091 15:0.29777274 16:0.59630428 17:0.38221634 18:0.5027739 
4 4 1:0.49809651 2:0.70425412 3:0.68363513 4:0.4721699 5:0.69716366 6:0.60519853 7:0.50346302 8:0.57589231 9:0.68572816 10:0.49323776 11:0.57031444 12:0.48645326 13:0.63248491 14:0.7244145 15:0.46146091 16:0.59929475 17:0.55113533 18:0.32934671 
4 4 1:0.43013528 2:0.77075745 3:0.56381834 4:0.57379359 5:0.5040228 6:0.67471762 7:0.50745452 8:0.53054344 9:0.84190953 10:0.37625464 11:0.63138861 12:0.4386961 13:0.55390307 14:0.74799791 15:0.39376776 16:0.74439514 17:0.33528757 18:0.3093158 
0 4 1:0.59000037 2:0.77312042 3:0.59866271 4:0.50254423 5:0.65509413 6:0.60139139 7:0.52274851 8:0.62486414 9:0.7743636 10:0.43217234 11:0.67366672 12:0.60940095 13:0.60243026 14:0.76335808 15:0.47458727 16:0.54471505 17:0.48509901 18:0.4268441 
4 4 1:0.52902388 2:0.76171911 3:0.62300536 4:0.51279265 5:0.68164275 6:0.68450386 7:0.55074042 8:0.49458368 9:0.58374773 10:0.38071841 11:0.5983935 12:0.58098508 13:0.70358856 14:0.79514965 15:0.52572827 16:0.61837822 17:0.47017497 18:0.38626323 
4 4 1:0.48835865 2:0.6531216 3:0.51987103 4:0.64312486 5:0.55690826 6:0.63887661 7:0.55210819 8:0.54491919 9:0.71829203 10:0.44732971 11:0.83433257 12:0.4818424 13:0.47863326 14:0.67858922 15:0.25172554 16:0.59664241 17:0.52414279 18:0.39460459 
4 4 1:0.53922915 2:0.65981576 3:0.45240654 4:0.48060836 5:0.55655679 6:0.72715986 7:0.57520828 8:0.53843232 9:0.81491319 10:0.36923855 11:0.6033581 12:0.5508644 13:0.51842317 14:0.69740925 15:0.37270371 16:0.54519099 17:0.48370665 18:0.55312295 
4 4 1:0.38470684 2:0.70027921 3:0.41355641 4:0.65187572 5:0.54068844 6:0.67847376 7:0.51875435 8:0.46049018 9:0.89575483 10:0.48904405 11:0.74196178 12:0.58087345 13:0.54820096 14:0.67661633 15:0.34904748 16:0.70394817 17:0.36517495 18:0.35292377 
4 4 1:0.57374113 2:0.68903124 3:0.38605641 4:0.69100247 5:0.60548485 6:0.68740614 7:0.50687975 8:0.5795003 9:0.77383789 10:0.21812745 11:0.63405275 12:0.50863333 13:0.70340143 14:0.68992735 15:0.19909727 16:0.66047844 17:0.50757521 18:0.50309011 
0 4 1:0.6231169 2:0.74449304 3:0.59918179 4:0.50235529 5:0.63278115 6:0.67777431 7:0.46370547 8:0.45579958 9:0.71483437 10:0.4146007 11:0.58473675 12:0.53729991 13:0.56746629 14:0.72382607 15:0.42220542 16:0.48772354 17:0.37621409 18:0.41417662 
0 4 1:0.56059519 2:0.78219664 3:0.67171691 4:0.43078808 5:0.634644 6:0.58597591 7:0.50769304 8:0.58366486 9:0.76175913 10:0.65382531 11:0.73347404 12:0.48880189 13:0.58377924 14:0.69899123 15:0.41185156 16:0.54276461 17:0.47645608 18:0.33366352 
4 4 1:0.55694801 2:0.71921984 3:0.58577943 4:0.50520921 5:0.57383325 6:0.74503834 7:0.552777 8:0.42424114 9:0.72902404 10:0.48166781 11:0.65806704 12:0.64390965 13:0.60866767 14:0.63120034 15:0.41099168 16:0.65453691 17:0.52002202 18:0.43532036 
4 4 1:0.42252129 2:0.74683515 3:0.47677455 4:0.45013418 5:0.63494734 6:0.57060067 7:0.44332565 8:0.47582955 9:0.69481813 10:0.48390095 11:0.61382642 12:0.4640736 13:0.45581252 14:0.66468707 15:0.43366857 16:0.53609169 17:0.39828051 18:0.42212028 
4 4 1:0.52084702 2:0.70374987 3:0.40394086 4:0.51312504 5:0.56741522 6:0.66735627 7:0.53679217 8:0.54747502 9:0.81966545 10:0.33876512 11:0.70600679 12:0.67537603 13:0.56614081 14:0.75254234 15:0.403149 16:0.63986657 17:0.53362598 18:0.47996614 
4 0 1:0.58819988 2:0.7620333 3:0.59147285 4:0.61808103 5:0.57718409 6:0.52612687 7:0.52841806 8:0.43616815 9:0.5953797 10:0.51724688 11:0.67488995 12:0.50467363 13:0.51245938 14:0.59394717 15:0.33165019 16:0.51546315 17:0.46865045 18:0.52411828 
4 0 1:0.4437704 2:0.71591228 3:0.61736076 4:0.67339408 5:0.52165854 6:0.59461406 7:0.42107506 8:0.45933303 9:0.75272124 10:0.5359908 11:0.74285794 12:0.38402236 13:0.55082918 14:0.75956365 15:0.29375783 16:0.53815866 17:0.38821206 18:0.45814801 
0 4 1:0.54893908 2:0.83112688 3:0.59406761 4:0.42916982 5:0.70579008 6:0.58833748 7:0.51449411 8:0.5328981 9:0.70266005 10:0.66292219 11:0.68936508 12:0.51035807 13:0.54982569 14:0.62125576 15:0.45543574 16:0.67119955 17:0.64960106 18:0.45364442 
0 4 1:0.57915131 2:0.8264798 3:0.65135478 4:0.40833717 5:0.58665371 6:0.65970436 7:0.56951968 8:0.59466396 9:0.76045446 10:0.48354271 11:0.61072223 12:0.46305562 13:0.49870318 14:0.71037189 15:0.47608549 16:0.59869207 17:0.44912755 18:0.3696442 
0 4 1:0.66749425 2:0.77889866 3:0.4630192 4:0.51881511 5:0.64722142 6:0.65772021 7:0.51478918 8:0.53337788 9:0.69987783 10:0.41419364 11:0.54029178 12:0.41618581 13:0.60865267 14:0.73643013 15:0.41041666 16:0.5758722 17:0.4446281 18:0.4113659 
0 4 1:0.55393984 2:0.86233116 3:0.56069529 4:0.45437032 5:0.68472289 6:0.68994356 7:0.59873485 8:0.5687303 9:0.6460554 10:0.43213382 11:0.63307122 12:0.51862821 13:0.67615353 14:0.74959134 15:0.31095603 16:0.46954304 17:0.44328068 18:0.27150544 
0 4 1:0.48095209 2:0.846319 3:0.59193515 4:0.38668997 5:0.66835547 6:0.65831597 7:0.50244306 8:0.56605315 9:0.76169993 10:0.51845922 11:0.60379484 12:0.4586318 13:0.48586552 14:0.64021555 15:0.45541672 16:0.63006179 17:0.42090101 18:0.23035672 
4 4 1:0.35539113 2:0.81512626 3:0.55061278 4:0.4501642 5:0.56606717 6:0.72051351 7:0.53872999 8:0.53631891 9:0.81125953 10:0.62126737 11:0.7095795 12:0.5171848 13:0.74584608 14:0.74371826 15:0.44047084 16:0.61622854 17:0.48916976 18:0.52753583 
4 4 1:0.38538055 2:0.68696287 3:0.57169337 4:0.38693983 5:0.70153107 6:0.70739861 7:0.58737817 8:0.68652533 9:0.78094851 10:0.45184712 11:0.6569221 12:0.53463294 13:0.44800906 14:0.67426895 15:0.57468736 16:0.66746903 17:0.54543528 18:0.5131405 
4 4 1:0.61565299 2:0.73660363 3:0.55907482 4:0.51130429 5:0.63413005 6:0.64491037 7:0.53790133 8:0.56985047 9:0.7875314 10:0.49227612 11:0.65264422 12:0.5561337 13:0.7562101 14:0.87613635 15:0.47892928 16:0.63627967 17:0.61581078 18:0.60982525 
0 4 1:0.6582379 2:0.73448382 3:0.62658791 4:0.52882338 5:0.59767776 6:0.65511492 7:0.49717883 8:0.49554502 9:0.70011388 10:0.4072812 11:0.65677728 12:0.52020265 13:0.59282064 14:0.82746083 15:0.41653839 16:0.51695505 17:0.49369306 18:0.44937065 
0 4 1:0.51641924 2:0.81214493 3:0.55525385 4:0.38930623 5:0.67011268 6:0.51426255 7:0.53817679 8:0.57226787 9:0.6272611 10:0.56996963 11:0.59211089 12:0.48587599 13:0.61693319 14:0.68405557 15:0.4543905 16:0.47988141 17:0.4329479 18:0.42679886 
0 4 1:0.54819617 2:0.75147648 3:0.65516966 4:0.36325852 5:0.80748462 6:0.67254372 7:0.49215359 8:0.5279797 9:0.59325158 10:0.59803344 11:0.68633576 12:0.58723535 13:0.68340938 14:0.68191594 15:0.47711093 16:0.55576952 17:0.58542701 18:0.54918465 
4 0 1:0.53233733 2:0.7291775 3:0.78220413 4:0.56314351 5:0.53485266 6:0.77896601 7:0.45527134 8:0.60695341 9:0.48725147 10:0.4371185 11:0.43967687 12:0.45004458 13:0.59257274 14:0.51880523 15:0.3168111 16:0.54130772 17:0.69085969 18:0.42955137 
4 0 1:0.48960388 2:0.64779388 3:0.69769472 4:0.5684419 5:0.4356573 6:0.75442437 7:0.47732523 8:0.6454945 9:0.70236025 10:0.6009951 11:0.59774904 12:0.57556683 13:0.89385024 14:0.66284462 15:0.55538449 16:0.57473587 17:0.6380496 18:0.61923343 
4 0 1:0.51657444 2:0.6489205 3:0.78576 4:0.64002767 5:0.56293243 6:0.82601276 7:0.51451624 8:0.62997803 9:0.6089393 10:0.52781245 11:0.4855184 12:0.50461011 13:0.80973559 14:0.58782712 15:0.48091962 16:0.59643896 17:0.56538708 18:0.44408062 
4 0 1:0.45865176 2:0.6028283 3:0.69503107 4:0.53113605 5:0.4652062 6:0.85048413 7:0.43028321 8:0.62683935 9:0.60095177 10:0.66626557 11:0.56960614 12:0.5700824 13:0.82449216 14:0.60613824 15:0.46760618 16:0.48133445 17:0.43514377 18:0.48339124 
0.37095938978507159 0 1:0.51958037 2:0.64029414 3:0.78297387 4:0.64003838 5:0.54385988 6:0.83321655 7:0.5260915 8:0.64599274 9:0.64271163 10:0.5816948 11:0.5103428 12:0.48404508 13:0.69022221 14:0.50509036 15:0.51045955 16:0.52759484 17:0.56855697 18:0.59420762 
4 0 1:0.50494069 2:0.64428087 3:0.75541806 4:0.60769574 5:0.51880176 6:0.83817546 7:0.51458803 8:0.68363513 9:0.694646 10:0.62632334 11:0.49607875 12:0.38147206 13:0.67608166 14:0.48313933 15:0.49928891 16:0.58971043 17:0.58301875 18:0.58631437 
4 0 1:0.54194175 2:0.63447125 3:0.74944826 4:0.6029257 5:0.50860516 6:0.86987165 7:0.42319688 8:0.66164438 9:0.60967187 10:0.62480213 11:0.58879005 12:0.58880505 13:0.65245077 14:0.52255153 15:0.41047313 16:0.41219262 17:0.50360295 18:0.33555345 
4 0 1:0.44718219 2:0.64199863 3:0.78768666 4:0.57666471 5:0.48257353 6:0.76215627 7:0.37762315 8:0.64138836 9:0.65751734 10:0.64568609 11:0.5103461 12:0.52705798 13:0.61507869 14:0.50741358 15:0.52105128 16:0.47886588 17:0.48958388 18:0.56944459 
0 4 1:0.59574481 2:0.78202162 3:0.70717754 4:0.46609158 5:0.64661026 6:0.60296201 7:0.29002541 8:0.77146706 9:0.4045758 10:0.50088197 11:0.50623015 12:0.1497698 13:0.53263901 14:0.47354109 15:0.48502923 16:0.56703035 17:0.52263789 18:0.37856836 
0 1.2226607404972374 1:0.6185656 2:0.79147793 3:0.73121068 4:0.40282967 5:0.88913878 6:0.70424864 7:0.43453243 8:0.63016623 9:0.30109699 10:0.5204363 11:0.33988753 12:0.51412079 13:0.62338271 14:0.63854623 15:0.26852942 16:0.45681954 17:0.57371386 18:0.38244251 
4 0 1:0.52520363 2:0.67155096 3:0.86734435 4:0.40037047 5:0.72852211 6:0.60401521 7:0.37930134 8:0.61565329 9:0.43270376 10:0.63454119 11:0.36770976 12:0.52766574 13:0.75294358 14:0.75721232 15:0.34551671 16:0.50454972 17:0.66892823 18:0.58416785 
4 0 1:0.5208805 2:0.70687896 3:0.87527809 4:0.40255114 5:0.70795795 6:0.6404071 7:0.43526691 8:0.62379158 9:0.45583235 10:0.71662006 11:0.46972984 12:0.66511528 13:0.60771411 14:0.69207512 15:0.36844049 16:0.52892713 17:0.61181522 18:0.42275451 
4 4 1:0.69347848 2:0.7443994 3:0.76272539 4:0.36341425 5:0.63542716 6:0.69411073 7:0.36518222 8:0.60916451 9:0.42524275 10:0.56106102 11:0.60333355 12:0.56283878 13:0.58217598 14:0.64365203 15:0.24771116 16:0.49774685 17:0.60181721 18:0.46441289 
4 0 1:0.53001849 2:0.63071284 3:0.83218502 4:0.40318621 5:0.61604624 6:0.67739777 7:0.48226371 8:0.68934481 9:0.51707668 10:0.75544264 11:0.59508721 12:0.49990138 13:0.54552087 14:0.65800729 15:0.2769742 16:0.46201972 17:0.60816038 18:0.66951463 
4 0 1:0.55790279 2:0.7356603 3:0.8581051 4:0.4062068 5:0.70061009 6:0.62852347 7:0.34388323 8:0.6376128 9:0.4654324 10:0.75333119 11:0.5008092 12:0.58678572 13:0.51584439 14:0.5944889 15:0.27323022 16:0.46649834 17:0.63733715 18:0.55292101 
4 2.3515512456013243 1:0.66236006 2:0.6798251 3:0.77050564 4:0.4890063 5:0.56497922 6:0.65662197 7:0.52954762 8:0.58197486 9:0.49605479 10:0.74360711 11:0.54582449 12:0.39089816 13:0.48425119 14:0.70256094 15:0.29876384 16:0.47047774 17:0.69644895 18:0.50632727 
0 4 1:0.64942154 2:0.76490818 3:0.7632802 4:0.42877372 5:0.74311212 6:0.63677786 7:0.31919775 8:0.56570659 9:0.45637875 10:0.57411077 11:0.5072093 12:0.4017378 13:0.67160587 14:0.65594371 15:0.20320293 16:0.48641094 17:0.66505675 18:0.53661462 
4 4 1:0.43414436 2:0.56715182 3:0.8216945 4:0.34540803 5:0.70363084 6:0.60285893 7:0.3722553 8:0.72311573 9:0.45474876 10:0.66551787 11:0.58674282 12:0.6847381 13:0.58264426 14:0.55470647 15:0.17509922 16:0.56422822 17:0.67478373 18:0.7810043 
4 0 1:0.47959037 2:0.67707351 3:0.84371876 4:0.36043741 5:0.78206348 6:0.72221977 7:0.46653016 8:0.68917423 9:0.46096279 10:0.61033209 11:0.44661329 12:0.5135395 13:0.47650617 14:0.73311152 15:0.29035598 16:0.50271017 17:0.53911876 18:0.57075299 
4 0 1:0.49176835 2:0.60547812 3:0.75180068 4:0.40387811 5:0.76001488 6:0.63977666 7:0.38826304 8:0.68993983 9:0.53829153 10:0.63512867 11:0.47735411 12:0.58498169 13:0.64350842 14:0.74457712 15:0.39985082 16:0.69824511 17:0.57902726 18:0.55995364 
4 0 1:0.51128979 2:0.63615746 3:0.82551358 4:0.41347483 5:0.58466859 6:0.57067256 7:0.39947923 8:0.64902022 9:0.420328 10:0.62693971 11:0.51820223 12:0.52479259 13:0.4480033 14:0.7069695 15:0.33600452 16:0.56320334 17:0.42176426 18:0.56324633 
4 0 1:0.58397407 2:0.64191134 3:0.80854611 4:0.48953744 5:0.64384727 6:0.69749909 7:0.46564396 8:0.67731321 9:0.47122836 10:0.64100488 11:0.44689676 12:0.46014068 13:0.53607277 14:0.64508632 15:0.20984323 16:0.48230958 17:0.65168707 18:0.71671869 
4 0 1:0.51472423 2:0.6231656 3:0.81610452 4:0.44018361 5:0.69859383 6:0.70389439 7:0.38669158 8:0.71112308 9:0.44960026 10:0.66447999 11:0.47159063 12:0.49275674 13:0.6197885 14:0.65971664 15:0.29040809 16:0.55987453 17:0.61276425 18:0.76864279 
4 0 1:0.44604878 2:0.61729974 3:0.88562906 4:0.36092833 5:0.6335627 6:0.65057898 7:0.46900913 8:0.62227477 9:0.52812524 10:0.80382212 11:0.42885124 12:0.61871162 13:0.52084814 14:0.68500202 15:0.38474781 16:0.52759349 17:0.65805337 18:0.60805261 
4 4 1:0.58272894 2:0.67277341 3:0.79586509 4:0.35584037 5:0.60707443 6:0.71867766 7:0.42814568 8:0.71097279 9:0.38743213 10:0.58018849 11:0.57067388 12:0.58766319 13:0.85338502 14:0.71901271 15:0.26648268 16:0.45660418 17:0.56227908 18:0.71294639 
4 0 1:0.61054526 2:0.65267415 3:0.79255085 4:0.46208243 5:0.52002018 6:0.69658562 7:0.48728958 8:0.58445443 9:0.42832708 10:0.5886383 11:0.38353284 12:0.66688755 13:0.74005289 14:0.77188988 15:0.44630474 16:0.51512736 17:0.64372881 18:0.91967091 
4 4 1:0.54950874 2:0.66516958 3:0.70512768 4:0.38681421 5:0.78016322 6:0.58974485 7:0.42958257 8:0.73922222 9:0.38305743 10:0.66993683 11:0.49314673 12:0.56025981 13:0.64843147 14:0.66207559 15:0.240629 16:0.44710979 17:0.79491706 18:0.63085056 
4 0 1:0.41491663 2:0.62279088 3:0.96503345 4:0.40715362 5:0.70036332 6:0.59433676 7:0.40674963 8:0.65307333 9:0.43251827 10:0.79960144 11:0.50353604 12:0.66683821 13:0.54629399 14:0.6497298 15:0.33904022 16:0.60906861 17:0.60006831 18:0.46875491 
4 1.1781978720957271 1:0.59282435 2:0.76554362 3:0.85812336 4:0.33024599 5:0.6016748 6:0.60689571 7:0.48338146 8:0.63816477 9:0.37626194 10:0.63861824 11:0.38475859 12:0.4339513 13:0.81048065 14:0.6404547 15:0.20811893 16:0.3670787 17:0.72958621 18:0.53969972 
4 0 1:0.62591502 2:0.63760177 3:0.79731031 4:0.5201356 5:0.60808027 6:0.69708301 7:0.46107418 8:0.60675026 9:0.48684086 10:0.62597081 11:0.34985597 12:0.483704 13:0.50542291 14:0.72733719 15:0.38796586 16:0.49446568 17:0.59462018 18:0.45345374 
4 0 1:0.554793 2:0.73934001 3:0.79359035 4:0.39180334 5:0.76846528 6:0.66420683 7:0.35140636 8:0.57587634 9:0.29101467 10:0.56802731 11:0.46649804 12:0.67699289 13:0.85039078 14:0.77931694 15:0.27017402 16:0.37916374 17:0.5703203 18:0.66486977 
0 4 1:0.65303947 2:0.77116572 3:0.70823874 4:0.4240301 5:0.78517054 6:0.67113897 7:0.43825513 8:0.68358604 9:0.41240343 10:0.5983595 11:0.29932666 12:0.4827884 13:0.70473771 14:0.58029021 15:0.25710649 16:0.2633205 17:0.52870923 18:0.38397826 
4 0 1:0.67426722 2:0.7459449 3:0.78830391 4:0.49449214 5:0.63126214 6:0.70791267 7:0.3750873 8:0.55104638 9:0.31976374 10:0.64354791 11:0.46222221 12:0.51018042 13:0.64399936 14:0.48719883 15:0.32386765 16:0.52433986 17:0.61226287 18:0.61745923 
0 4 1:0.66913382 2:0.83612793 3:0.69682728 4:0.39124682 5:0.78602332 6:0.66793418 7:0.47570264 8:0.58797051 9:0.45521939 10:0.65545526 11:0.45338759 12:0.33676114 13:0.65405199 14:0.63565878 15:0.27526531 16:0.45154691 17:0.73838068 18:0.43200974 
0 4 1:0.84788788 2:0.70676579 3:0.85222756 4:0.41350402 5:0.50018491 6:0.50817341 7:0.21449756 8:0.75100038 9:0.34115892 10:0.59289457 11:0.41418768 12:0.36449343 13:0.47430657 14:0.59057308 15:0.38927693 16:0.37043942 17:0.36356491 18:0.33602035 
0 1.1199162755722671 1:0.7109847 2:0.7251344 3:0.82922142 4:0.37905541 5:0.54402644 6:0.52539449 7:0.49233615 8:0.71336739 9:0.43859352 10:0.57323089 11:0.52717682 12:0.38070716 13:0.43724799 14:0.64217781 15:0.42490423 16:0.45712093 17:0.49826345 18:0.4670492 
0 4 1:0.7307927 2:0.60068714 3:0.76756424 4:0.56009104 5:0.66428788 6:0.46434865 7:0.28298113 8:0.74439329 9:0.30138056 10:0.45810714 11:0.50822148 12:0.35367166 13:0.60674718 14:0.74397035 15:0.47125401 16:0.48689766 17:0.37706867 18:0.44637972 
0 4 1:0.79941026 2:0.68484153 3:0.79647368 4:0.48523874 5:0.55390651 6:0.54001164 7:0.27407753 8:0.70041554 9:0.39046597 10:0.56753242 11:0.57697461 12:0.39343959 13:0.51272992 14:0.64939496 15:0.41673679 16:0.59764727 17:0.36559791 18:0.55509537 
0 4 1:0.81606094 2:0.72387835 3:0.77016487 4:0.46692456 5:0.54900379 6:0.5785733 7:0.26320318 8:0.66850764 9:0.47410118 10:0.58733872 11:0.63268023 12:0.37311886 13:0.23809667 14:0.60190286 15:0.4292206 16:0.521954 17:0.453353 18:0.47208694 
0 4 1:0.78994855 2:0.63890582 3:0.76121312 4:0.5432947 5:0.48409937 6:0.52496106 7:0.29149018 8:0.66308611 9:0.49969268 10:0.51047774 11:0.51209923 12:0.37623451 13:0.4236956 14:0.6503417 15:0.40401598 16:0.59688921 17:0.26087991 18:0.30987658 
0 4 1:0.83277759 2:0.87894341 3:0.78217555 4:0.28744691 5:0.52237784 6:0.48443113 7:0.37660385 8:0.68677828 9:0.48893612 10:0.55891196 11:0.54131792 12:0.41430958 13:0.50015008 14:0.65278544 15:0.4924009 16:0.50266869 17:0.47163905 18:0.53071759 
0 4 1:0.80567097 2:0.80686844 3:0.82669189 4:0.36910525 5:0.52963465 6:0.51117038 7:0.35468343 8:0.72179053 9:0.3760183 10:0.51238931 11:0.54593848 12:0.44041356 13:0.53167596 14:0.75429773 15:0.47583114 16:0.45399523 17:0.4151396 18:0.48586166 
4 0 1:0.69250549 2:0.59862011 3:0.91885514 4:0.51247606 5:0.47844362 6:0.5480787 7:0.3376663 8:0.72225022 9:0.56219374 10:0.57383219 11:0.42553796 12:0.33456972 13:0.57890158 14:0.81041037 15:0.45926858 16:0.63183967 17:0.68075967 18:0.48344589 
4 0 1:0.67532532 2:0.63427527 3:0.86560933 4:0.45993176 5:0.63333105 6:0.61702174 7:0.37694571 8:0.6520903 9:0.47795739 10:0.61982917 11:0.51828978 12:0.40624465 13:0.42060476 14:0.56157803 15:0.26083735 16:0.59289807 17:0.54024429 18:0.40445306 
0 4 1:0.82595898 2:0.87466252 3:0.7673173 4:0.27881871 5:0.49454999 6:0.49303869 7:0.3707665 8:0.6535514 9:0.50224481 10:0.57944028 11:0.487322 12:0.42177816 13:0.56367265 14:0.58759062 15:0.41265871 16:0.42016182 17:0.35992744 18:0.3389622 
0 4 1:0.86644776 2:0.8168498 3:0.75515145 4:0.36420123 5:0.47014383 6:0.51419708 7:0.31298624 8:0.66274368 9:0.48579853 10:0.55164304 11:0.53614884 12:0.45931908 13:0.67407862 14:0.66676917 15:0.48434116 16:0.4675391 17:0.44696674 18:0.51733086 
4 4 1:0.70514025 2:0.7317677 3:0.70055011 4:0.63384991 5:0.50969839 6:0.70866661 7:0.56578308 8:0.69019816 9:0.59713036 10:0.48404283 11:0.71375696 12:0.57746036 13:0.70995919 14:0.51236753 15:0.29060746 16:0.4849514 17:0.7352255 18:0.55988869 
0 4 1:0.61534039 2:0.73037893 3:0.60657225 4:0.55807893 5:0.58523671 6:0.58293548 7:0.53643628 8:0.6429273 9:0.63830433 10:0.44515158 11:0.58858129 12:0.5513874 13:0.68544518 14:0.63054964 15:0.37497776 16:0.45090498 17:0.57840295 18:0.52316474 
0 4 1:0.7881425 2:0.73530189 3:0.65878281 4:0.51861788 5:0.61387761 6:0.6854462 7:0.46075092 8:0.63764323 9:0.56715706 10:0.53631943 11:0.47076397 12:0.53045456 13:0.69635346 14:0.52733696 15:0.38779025 16:0.48431534 17:0.55730288 18:0.50763624 
0 4 1:0.64236643 2:0.65759858 3:0.7591211 4:0.42036689 5:0.72345731 6:0.64665301 7:0.43124892 8:0.87791014 9:0.5092131 10:0.5504146 11:0.60957439 12:0.5307349 13:0.67599499 14:0.5516122 15:0.3260801 16:0.29572786 17:0.73669502 18:0.58272345 
0 4 1:0.61491125 2:0.69911308 3:0.80459972 4:0.45476146 5:0.73261128 6:0.62643094 7:0.39060963 8:0.85797661 9:0.45270963 10:0.4675276 11:0.62121916 12:0.52825974 13:0.62715733 14:0.62869314 15:0.48438065 16:0.32404026 17:0.73775092 18:0.51951122 
2.5212885850775639 0 1:0.49287072 2:0.61070186 3:0.86854421 4:0.49601184 5:0.71319284 6:0.64720599 7:0.44468914 8:0.92493842 9:0.44857972 10:0.5193885 11:0.62097694 12:0.57095825 13:0.56851658 14:0.58370236 15:0.46610049 16:0.48965995 17:0.69258196 18:0.53373045 
4 4 1:0.63698934 2:0.65531541 3:0.85640551 4:0.38605129 5:0.55012774 6:0.61924864 7:0.31265515 8:0.76487849 9:0.51803737 10:0.53944306 11:0.48269198 12:0.4796955 13:0.62289728 14:0.60632522 15:0.38970651 16:0.44958876 17:0.74936943 18:0.51185933 
4 4 1:0.6335325 2:0.45795062 3:0.37987916 4:0.56915675 5:0.60183074 6:0.65837165 7:0.25532775 8:0.64518425 9:0.79843917 10:0.38917122 11:0.54095997 12:0.5620784 13:0.61496808 14:0.7722914 15:0.40635509 16:0.32649813 17:0.61847051 18:0.53318431 
4 4 1:0.65392604 2:0.64102711 3:0.78513169 4:0.49798877 5:0.59382171 6:0.75855825 7:0.43608272 8:0.84727679 9:0.45618241 10:0.60020976 11:0.60871388 12:0.70223056 13:0.61905487 14:0.70033468 15:0.33688256 16:0.37770552 17:0.5660569 18:0.57654566 
4 4 1:0.62563556 2:0.64377689 3:0.79419482 4:0.47797314 5:0.65564196 6:0.74045727 7:0.43043885 8:0.82011513 9:0.53648857 10:0.48648395 11:0.51371238 12:0.51366464 13:0.56747557 14:0.76866703 15:0.42520198 16:0.53019527 17:0.8369111 18:0.58486187 
4 4 1:0.51059705 2:0.61249708 3:0.74089017 4:0.50649534 5:0.63575825 6:0.80407106 7:0.33294885 8:0.87335281 9:0.67423546 10:0.44526922 11:0.67551213 12:0.72665217 13:0.68028965 14:0.69459849 15:0.3632405 16:0.55521311 17:0.76014925 18:0.54113684 
4 0 1:0.59043512 2:0.59366736 3:0.74747234 4:0.56554842 5:0.4234714 6:0.71228725 7:0.52560266 8:0.78313257 9:0.49529929 10:0.48714853 11:0.47948017 12:0.48776107 13:0.52151836 14:0.59048457 15:0.53707949 16:0.56017655 17:0.48803151 18:0.56402448 
4 0 1:0.37641216 2:0.60397588 3:0.82962402 4:0.30404666 5:0.67404964 6:0.74074444 7:0.59962983 8:0.77683244 9:0.38859685 10:0.51879613 11:0.72201635 12:0.8930736 13:0.45811683 14:0.63480503 15:0.50072624 16:0.51998581 17:0.63325929 18:0.60804778 
3.0600022241463964 0 1:0.41357404 2:0.66049328 3:0.78386626 4:0.58961214 5:0.68369766 6:0.52790378 7:0.39864028 8:0.78599726 9:0.58004228 10:0.60328652 11:0.65800218 12:0.58842411 13:0.53972531 14:0.697701 15:0.56508057 16:0.48193294 17:0.59449483 18:0.51543529 
0 4 1:0.63808848 2:0.78380973 3:0.74788607 4:0.32679216 5:0.57038981 6:0.61055352 7:0.48151484 8:0.77523142 9:0.49256944 10:0.5388776 11:0.61633699 12:0.45775309 13:0.46336747 14:0.79524899 15:0.40626535 16:0.4810413 17:0.53775509 18:0.39712542 
4 4 1:0.6041046 2:0.65370872 3:0.71526088 4:0.45222965 5:0.66742361 6:0.73882427 7:0.44618632 8:0.81120218 9:0.42422884 10:0.52529113 11:0.58630234 12:0.66673666 13:0.42483596 14:0.83046213 15:0.56099421 16:0.43925374 17:0.60671536 18:0.56319531 
4 0 1:0.63511945 2:0.61361593 3:0.79043939 4:0.52974172 5:0.6045115 6:0.72980074 7:0.37962241 8:0.7777477 9:0.46220129 10:0.62873877 11:0.58048921 12:0.66079463 13:0.55725116 14:0.5848959 15:0.50374101 16:0.51748777 17:0.64369417 18:0.42182536 
4 0 1:0.55098149 2:0.63578372 3:0.78919692 4:0.457459 5:0.71642215 6:0.74211269 7:0.58315553 8:0.85805827 9:0.49395956 10:0.5962789 11:0.57937112 12:0.55371394 13:0.38817234 14:0.69233367 15:0.40391283 16:0.55961291 17:0.59075852 18:0.39147117 
4 4 1:0.59259652 2:0.65719869 3:0.73461981 4:0.42713762 5:0.68126947 6:0.83139737 7:0.46449185 8:0.8061859 9:0.38249448 10:0.51430852 11:0.6642007 12:0.84716741 13:0.39154507 14:0.83156674 15:0.47628102 16:0.47173503 17:0.60693384 18:0.68551035 
4 0 1:0.47295951 2:0.48712066 3:0.79539106 4:0.48812337 5:0.73901866 6:0.83831274 7:0.61039563 8:0.77847756 9:0.3181013 10:0.61101055 11:0.62407788 12:0.62047615 13:0.39490169 14:0.72208453 15:0.44765307 16:0.54796146 17:0.63854747 18:0.58330801 
4 0 1:0.30586352 2:0.67189257 3:0.7716048 4:0.43711504 5:0.7654124 6:0.62602134 7:0.50028274 8:0.78033029 9:0.58866247 10:0.61094814 11:0.69066565 12:0.61324405 13:0.53469499 14:0.58787474 15:0.46222355 16:0.52924313 17:0.5751028 18:0.52638435 
3.039516658671646 0 1:0.43400492 2:0.63040166 3:0.90096479 4:0.43604918 5:0.65584568 6:0.67240601 7:0.47255244 8:0.7594553 9:0.54644804 10:0.54174231 11:0.69806313 12:0.55289184 13:0.41427694 14:0.73501946 15:0.27253108 16:0.42711962 17:0.5020863 18:0.50955683 
4 0 1:0.47120271 2:0.63054401 3:0.79871304 4:0.41755017 5:0.59074605 6:0.89935546 7:0.61465679 8:0.91598405 9:0.57408321 10:0.58189753 11:0.540023 12:0.63502736 13:0.37655957 14:0.62973948 15:0.52571325 16:0.54174175 17:0.46468876 18:0.16967135 
4 0 1:0.39972584 2:0.56129486 3:0.82164707 4:0.3879656 5:0.63482116 6:0.68824096 7:0.56179047 8:0.86755397 9:0.51755989 10:0.63715666 11:0.58679894 12:0.66780829 13:0.43266787 14:0.66488885 15:0.47980079 16:0.40561139 17:0.60770276 18:0.73211106 
4 2.8974638806827491 1:0.50960137 2:0.53651859 3:0.70269953 4:0.39066251 5:0.79660771 6:0.85922567 7:0.49849711 8:0.76180327 9:0.3685353 10:0.55859978 11:0.63703651 12:0.77709853 13:0.42397217 14:0.50835702 15:0.50544868 16:0.42237773 17:0.40696475 18:0.51924157 
4 0 1:0.53179432 2:0.58368195 3:0.87890908 4:0.53761549 5:0.70698822 6:0.70291892 7:0.46801628 8:0.73826189 9:0.44159009 10:0.61912698 11:0.55843941 12:0.60243515 13:0.42081756 14:0.55172877 15:0.48407368 16:0.59811056 17:0.668587 18:0.54760734 
4 0 1:0.66054106 2:0.67646587 3:0.78721766 4:0.49775652 5:0.6310086 6:0.59989999 7:0.36382831 8:0.81386887 9:0.45533911 10:0.68982578 11:0.68055746 12:0.67814534 13:0.4485205 14:0.71081644 15:0.57120566 16:0.58409548 17:0.68666154 18:0.55355579 
0 4 1:0.67584996 2:0.71097269 3:0.72755293 4:0.44599682 5:0.55154294 6:0.71469849 7:0.41020105 8:0.653365 9:0.54981896 10:0.54793222 11:0.68459164 12:0.56798043 13:0.69746907 14:0.82124919 15:0.6205402 16:0.48420534 17:0.56531508 18:0.46692099 
4 4 1:0.55971747 2:0.63554292 3:0.72009165 4:0.52186738 5:0.64174991 6:0.58648672 7:0.3926725 8:0.83618818 9:0.46092983 10:0.72124298 11:0.69930847 12:0.72797551 13:0.52215788 14:0.71820353 15:0.54197903 16:0.51100916 17:0.63634721 18:0.44424092 
4 4 1:0.63221714 2:0.60361542 3:0.74009926 4:0.54133776 5:0.6335368 6:0.62720684 7:0.36150147 8:0.84135484 9:0.40993536 10:0.54244957 11:0.5668307 12:0.52018553 13:0.33032406 14:0.69869018 15:0.54822893 16:0.6412342 17:0.68064183 18:0.49405182 
4 0 1:0.31301219 2:0.5415695 3:0.85207751 4:0.41100087 5:0.63553639 6:0.67701948 7:0.51004876 8:0.7390367 9:0.47810383 10:0.59063042 11:0.64701205 12:0.55039824 13:0.57983907 14:0.45601601 15:0.43580781 16:0.61628245 17:0.60706898 18:0.48892974 
4 0 1:0.58885061 2:0.52316113 3:0.86477664 4:0.55470349 5:0.59382015 6:0.79751749 7:0.42525815 8:0.80572359 9:0.54345829 10:0.70109406 11:0.58726741 12:0.53433888 13:0.46787734 14:0.65100353 15:0.35424428 16:0.34052544 17:0.43925616 18:0.44545051 
4 4 1:0.63182101 2:0.62270912 3:0.7693567 4:0.4609974 5:0.57876286 6:0.52426138 7:0.38842816 8:0.7326938 9:0.39919222 10:0.58891572 11:0.46588016 12:0.4589092 13:0.46498824 14:0.65098684 15:0.50544323 16:0.47851172 17:0.58349041 18:0.41262592 
4 0 1:0.62953045 2:0.48874193 3:0.81100412 4:0.58506705 5:0.5211346 6:0.73572099 7:0.33051017 8:0.76277861 9:0.54723103 10:0.68589333 11:0.54871317 12:0.53344135 13:0.47993645 14:0.74669714 15:0.51876565 16:0.5422975 17:0.65993476 18:0.55620315 
4 0 1:0.40216806 2:0.54913905 3:0.87713376 4:0.56550703 5:0.74035169 6:0.79070696 7:0.52627246 8:0.80739273 9:0.46314521 10:0.53949409 11:0.60714202 12:0.52709371 13:0.53977376 14:0.55054854 15:0.47161171 16:0.53097937 17:0.63240159 18:0.55076248 
4 0 1:0.48411429 2:0.56249996 3:0.89407199 4:0.48535286 5:0.67433467 6:0.72059527 7:0.43483671 8:0.73478933 9:0.60834481 10:0.77154784 11:0.73289874 12:0.6097279 13:0.50380111 14:0.5012407 15:0.37853575 16:0.5333715 17:0.54342229 18:0.3705763 
4 4 1:0.45483381 2:0.61029764 3:0.65671127 4:0.33266466 5:0.52158174 6:0.72068938 7:0.38460759 8:0.8368159 9:0.51951114 10:0.58419831 11:0.42416844 12:0.58806538 13:0.70932684 14:0.77359114 15:0.54045846 16:0.47319839 17:0.41725176 18:0.48318163 
4 0 1:0.53087165 2:0.5737863 3:0.80493992 4:0.45406484 5:0.5530975 6:0.83136169 7:0.32728254 8:0.74833341 9:0.43027988 10:0.69113227 11:0.5163771 12:0.56221517 13:0.4778202 14:0.67576789 15:0.45387535 16:0.51651147 17:0.51500384 18:0.69031793 
4 0 1:0.62242528 2:0.59428211 3:0.77952609 4:0.50742479 5:0.54268389 6:0.59168544 7:0.26187103 8:0.75140596 9:0.4507406 10:0.68130004 11:0.52048914 12:0.5155805 13:0.44193458 14:0.63354535 15:0.59783509 16:0.54948777 17:0.66966043 18:0.51135743 
4 0 1:0.32924581 2:0.58591379 3:0.89715801 4:0.47984003 5:0.70459457 6:0.7638056 7:0.49376179 8:0.80163337 9:0.59380392 10:0.61127762 11:0.58532326 12:0.4998208 13:0.48575992 14:0.52843561 15:0.46265579 16:0.57334377 17:0.63222018 18:0.60144571 
4 0 1:0.5235626 2:0.60986814 3:0.74901094 4:0.5585456 5:0.85814954 6:0.79284641 7:0.39503492 8:0.7765702 9:0.50155815 10:0.51949077 11:0.6231461 12:0.56327419 13:0.53392407 14:0.45167264 15:0.44327452 16:0.58663777 17:0.644646 18:0.58012459 
0 4 1:0.53072607 2:0.67869903 3:0.81322273 4:0.33665335 5:0.60776842 6:0.60392877 7:0.35569806 8:0.8343833 9:0.63142597 10:0.63353869 11:0.79893596 12:0.53378456 13:0.57250934 14:0.56456669 15:0.46483217 16:0.50663413 17:0.48245465 18:0.4173567 
4 0 1:0.53859936 2:0.63522332 3:0.82086339 4:0.42713312 5:0.47474426 6:0.78568316 7:0.27179518 8:0.76205542 9:0.41354958 10:0.64770765 11:0.44038369 12:0.53742502 13:0.48558108 14:0.77709522 15:0.53124641 16:0.41678665 17:0.41749052 18:0.6439506 
4 0 1:0.39457545 2:0.6347057 3:0.81220718 4:0.49866738 5:0.73314022 6:0.78875668 7:0.48562662 8:0.71661182 9:0.51770468 10:0.5501052 11:0.56289545 12:0.63842362 13:0.33117504 14:0.51727167 15:0.56788575 16:0.53781856 17:0.4585163 18:0.48284196 
4 0 1:0.57537679 2:0.74842301 3:0.5460385 4:0.81417356 5:0.49201084 6:0.44614317 7:0.54280595 8:0.48170881 9:0.6894052 10:0.41221393 11:0.65255327 12:0.55249877 13:0.71001027 14:0.77047236 15:0.39850543 16:0.67100523 17:0.57697355 18:0.61434471 
4 4 1:0.68413373 2:0.76940169 3:0.48508505 4:0.65056725 5:0.35163761 6:0.60295119 7:0.57103628 8:0.52563701 9:0.71031466 10:0.38659856 11:0.6333334 12:0.42734773 13:0.82113835 14:0.8341602 15:0.41665143 16:0.71883967 17:0.569797 18:0.81128984 
4 4 1:0.66401269 2:0.77754558 3:0.44729379 4:0.74882232 5:0.34039728 6:0.59928867 7:0.56496317 8:0.51272161 9:0.68368737 10:0.25461443 11:0.56420153 12:0.33759275 13:0.58092546 14:0.79033488 15:0.41576253 16:0.6368961 17:0.45666072 18:0.65078149 
0 4 1:0.68158547 2:0.73490156 3:0.45711821 4:0.73070314 5:0.47957637 6:0.67401989 7:0.61325057 8:0.56441959 9:0.85592846 10:0.3898578 11:0.68393983 12:0.41652494 13:0.54168598 14:0.72142827 15:0.35743012 16:0.66403729 17:0.43929584 18:0.5640277 
0 4 1:0.60527964 2:0.66713123 3:0.54601595 4:0.65884505 5:0.66980856 6:0.66251273 7:0.72818039 8:0.65643942 9:0.750009 10:0.46201835 11:0.67331842 12:0.60359816 13:0.59751415 14:0.75610019 15:0.48978584 16:0.52283905 17:0.48934088 18:0.54325393 
4 0 1:0.50966291 2:0.77864757 3:0.57533659 4:0.82633905 5:0.53780884 6:0.50896601 7:0.55383538 8:0.51271641 9:0.73597374 10:0.3841768 11:0.68829199 12:0.49636821 13:0.48957879 14:0.78989598 15:0.38051936 16:0.54138626 17:0.4421454 18:0.30804696 
4 0 1:0.25152315 2:0.62178543 3:0.6901886 4:0.49814847 5:0.48000303 6:0.62479533 7:0.604667 8:0.69894821 9:0.85853163 10:0.4757884 11:0.63217518 12:0.44323296 13:0.67893425 14:0.88557501 15:0.60605968 16:0.6938549 17:0.58389441 18:0.68654133 
0 4 1:0.60400069 2:0.86569805 3:0.54984852 4:0.64634631 5:0.4768187 6:0.49521163 7:0.47709169 8:0.45968945 9:0.69897147 10:0.33728724 11:0.46657813 12:0.3040665 13:0.38118254 14:0.65333023 15:0.3289651 16:0.50362612 17:0.56778578 18:0.50340735 
4 0 1:0.47649522 2:0.7902395 3:0.53741446 4:0.66218785 5:0.48546782 6:0.53830364 7:0.57080802 8:0.59022125 9:0.81124523 10:0.39901942 11:0.59500133 12:0.45667279 13:0.53007718 14:0.68760815 15:0.43855195 16:0.63437313 17:0.57261499 18:0.66088224 
4 4 1:0.54950142 2:0.84888337 3:0.48342517 4:0.633602 5:0.4192922 6:0.53049802 7:0.55864644 8:0.52405232 9:0.73615233 10:0.30628649 11:0.53152726 12:0.43871645 13:0.53535974 14:0.70035293 15:0.46159128 16:0.67904725 17:0.56666939 18:0.6404516 
0 4 1:0.70770192 2:0.76406653 3:0.52596725 4:0.67168233 5:0.46399842 6:0.60628328 7:0.48899392 8:0.53552778 9:0.69776951 10:0.33690339 11:0.61387242 12:0.41940923 13:0.40006915 14:0.61571419 15:0.36897002 16:0.46144436 17:0.48724927 18:0.63536034 
0 4 1:0.49220667 2:0.79703977 3:0.64050407 4:0.63849032 5:0.409049 6:0.46781427 7:0.50186528 8:0.57220728 9:0.73507303 10:0.36047726 11:0.6384116 12:0.34101606 13:0.44337932 14:0.71619482 15:0.29991786 16:0.51799234 17:0.52596133 18:0.56077401 
0 4 1:0.61318178 2:0.89556343 3:0.51369949 4:0.66719489 5:0.45068822 6:0.4565293 7:0.42333207 8:0.44738623 9:0.69284366 10:0.45722227 11:0.64660058 12:0.43250501 13:0.61884209 14:0.62441607 15:0.34462098 16:0.59475995 17:0.39486651 18:0.43773005 
4 4 1:0.64945022 2:0.87399796 3:0.48327462 4:0.69499396 5:0.42051336 6:0.45173953 7:0.50517823 8:0.45577281 9:0.67341924 10:0.42416723 11:0.59969618 12:0.34681821 13:0.48825979 14:0.7061985 15:0.40452272 16:0.60728877 17:0.64045159 18:0.61475991 
0 4 1:0.57588413 2:0.88110903 3:0.51843602 4:0.61809693 5:0.37585218 6:0.37793549 7:0.45338369 8:0.470636 9:0.70017246 10:0.52642119 11:0.64177562 12:0.41980763 13:0.68938187 14:0.73890133 15:0.31744166 16:0.43122058 17:0.39535003 18:0.47019286 
0 4 1:0.67021276 2:0.84188679 3:0.44807694 4:0.80109297 5:0.40858733 6:0.42271741 7:0.51366962 8:0.4202498 9:0.60462085 10:0.41132879 11:0.59394719 12:0.31885133 13:0.49011939 14:0.72653842 15:0.40816393 16:0.53309247 17:0.43576787 18:0.68149561 
0 4 1:0.69626417 2:0.81788858 3:0.50200932 4:0.72039311 5:0.43088645 6:0.49996059 7:0.43545166 8:0.42790238 9:0.7589823 10:0.39210171 11:0.68977289 12:0.47710952 13:0.52756731 14:0.74175936 15:0.3829658 16:0.56141512 17:0.42674875 18:0.43240394 
0 4 1:0.60202358 2:0.8660951 3:0.53623301 4:0.68782409 5:0.45742618 6:0.52966566 7:0.50283998 8:0.46670487 9:0.71593329 10:0.3560897 11:0.58807848 12:0.35849519 13:0.50489342 14:0.75885301 15:0.34290532 16:0.56621861 17:0.58694009 18:0.63252121 
0 4 1:0.456017 2:0.72529158 3:0.50151834 4:0.56190313 5:0.53812873 6:0.36081892 7:0.39565858 8:0.70712293 9:0.68273252 10:0.22561183 11:0.5305007 12:0.42467879 13:0.30223373 14:0.46645445 15:0.48612502 16:0.58152891 17:0.22780307 18:0.58557984 
0 4 1:0.65852815 2:0.853306 3:0.45142291 4:0.71806067 5:0.46249221 6:0.4886708 7:0.55185003 8:0.50954851 9:0.73061361 10:0.41104962 11:0.63688525 12:0.47971292 13:0.49862005 14:0.58113254 15:0.35013363 16:0.47639974 17:0.28847173 18:0.55595909 
4 4 1:0.60789444 2:0.8365039 3:0.48947038 4:0.75008861 5:0.4352045 6:0.51291341 7:0.47759099 8:0.39673867 9:0.7075752 10:0.39408007 11:0.62742732 12:0.35119311 13:0.47986141 14:0.7772207 15:0.3451383 16:0.50671892 17:0.47184803 18:0.44757299 
0 4 1:0.63900603 2:0.87617217 3:0.56434265 4:0.625717 5:0.48235866 6:0.40811013 7:0.49945284 8:0.53885904 9:0.74387262 10:0.39890889 11:0.58358388 12:0.57515178 13:0.53483564 14:0.74685403 15:0.49528909 16:0.46635111 17:0.53817819 18:0.51960271 
0 4 1:0.63663799 2:0.91119972 3:0.50590867 4:0.68871075 5:0.38820128 6:0.38351007 7:0.46279894 8:0.42599427 9:0.81759068 10:0.51667269 11:0.57524451 12:0.4756449 13:0.55000518 14:0.63534813 15:0.30801383 16:0.54462413 17:0.48455544 18:0.5090198 
0 4 1:0.65775415 2:0.81762824 3:0.51984204 4:0.67282736 5:0.47032811 6:0.47959464 7:0.52152061 8:0.48593393 9:0.70716848 10:0.43426043 11:0.58476744 12:0.41273751 13:0.38872815 14:0.54576409 15:0.32344484 16:0.46309823 17:0.43315456 18:0.57950813 
0 4 1:0.59199748 2:0.83751423 3:0.49703296 4:0.65477757 5:0.45851754 6:0.49694737 7:0.46861633 8:0.51712937 9:0.65091164 10:0.37011457 11:0.64915417 12:0.38886951 13:0.44776172 14:0.69006892 15:0.44570551 16:0.58431131 17:0.49872653 18:0.70230398 
0 4 1:0.58996664 2:0.85603356 3:0.41678014 4:0.66628807 5:0.52046607 6:0.41959015 7:0.54607045 8:0.6777058 9:0.7449825 10:0.26637539 11:0.52063535 12:0.53633653 13:0.47864394 14:0.59990755 15:0.48242392 16:0.55916303 17:0.33629086 18:0.41261815 
0 4 1:0.59967492 2:0.87295097 3:0.53275854 4:0.6284809 5:0.46585571 6:0.49690341 7:0.58900819 8:0.51263223 9:0.71105636 10:0.48966341 11:0.62098911 12:0.39913791 13:0.53846665 14:0.76229851 15:0.35284949 16:0.42585013 17:0.53655892 18:0.62623134 
0 4 1:0.53100704 2:0.89265346 3:0.47757888 4:0.70505192 5:0.43530386 6:0.47844602 7:0.60628239 8:0.53425171 9:0.6370047 10:0.36430905 11:0.45744718 12:0.24056893 13:0.45020015 14:0.59496216 15:0.35320614 16:0.60284394 17:0.48495799 18:0.56902217 
0 4 1:0.53402385 2:0.82077748 3:0.58974277 4:0.63113519 5:0.49544291 6:0.3926275 7:0.47685587 8:0.57032812 9:0.68574065 10:0.34243887 11:0.48850509 12:0.29392096 13:0.43697377 14:0.70838949 15:0.37257477 16:0.47894879 17:0.39618608 18:0.49318687 
4 0 1:0.21146175 2:0.64109371 3:0.65678095 4:0.58140671 5:0.45505007 6:0.58987542 7:0.57696527 8:0.63636627 9:0.85208344 10:0.56017316 11:0.80011936 12:0.53547485 13:0.63443787 14:0.68777314 15:0.44339661 16:0.70884419 17:0.52748966 18:0.64968592 
0 4 1:0.83908997 2:0.66645452 3:0.86923204 4:0.34470939 5:0.49719642 6:0.576335 7:0.18485803 8:0.72429353 9:0.35358611 10:0.52291207 11:0.33622608 12:0.31708499 13:0.41979565 14:0.57004415 15:0.4067757 16:0.38144441 17:0.33295611 18:0.26356309 
4 0 1:0.56682315 2:0.71783365 3:0.83523792 4:0.31411424 5:0.47476102 6:0.62182841 7:0.23764322 8:0.68191796 9:0.31787355 10:0.66660383 11:0.4893819 12:0.53787836 13:0.42448876 14:0.56791711 15:0.39860505 16:0.47332155 17:0.4702054 18:0.55393814 
4 4 1:0.49278067 2:0.46754426 3:0.5953063 4:0.38850922 5:0.49619587 6:0.72306081 7:0.45975746 8:0.80900176 9:0.19522764 10:0.61117835 11:0.46956039 12:0.46474793 13:0.47794519 14:0.65555459 15:0.47857522 16:0.60342438 17:0.27805006 18:0.56604123 
0 4 1:0.75606755 2:0.64484145 3:0.74989188 4:0.45414125 5:0.52263441 6:0.74458612 7:0.25571916 8:0.77886519 9:0.32260643 10:0.52165945 11:0.38819268 12:0.266956 13:0.30932867 14:0.46216789 15:0.36752181 16:0.43425758 17:0.32866506 18:0.29804877 
0 4 1:0.82951516 2:0.62385117 3:0.90316233 4:0.34163403 5:0.48144571 6:0.56129844 7:0.17571851 8:0.7387558 9:0.28527652 10:0.51756908 11:0.34718872 12:0.22584671 13:0.28946793 14:0.41298876 15:0.31858702 16:0.43060997 17:0.37700483 18:0.23823991 
4 1.9969947198725215 1:0.33504219 2:0.47349555 3:0.74149766 4:0.46678071 5:0.59664807 6:0.75232503 7:0.38228328 8:0.79284679 9:0.36978264 10:0.62194744 11:0.55987785 12:0.41121924 13:0.49599314 14:0.41945872 15:0.33705546 16:0.4835268 17:0.24551207 18:0.39374864 
0 4 1:0.76203916 2:0.64893676 3:0.75431459 4:0.41744755 5:0.54828576 6:0.80212802 7:0.33957974 8:0.82726827 9:0.27766445 10:0.52242131 11:0.23794475 12:0.28094568 13:0.46520751 14:0.49523848 15:0.33279716 16:0.40886295 17:0.21406151 18:0.34908067 
0 4 1:0.8503958 2:0.62174405 3:0.8575042 4:0.31952261 5:0.40115373 6:0.65968207 7:0.1559665 8:0.7240421 9:0.22065409 10:0.55951525 11:0.25574427 12:0.26555052 13:0.34228369 14:0.39249714 15:0.4035229 16:0.53886968 17:0.26692784 18:0.36314284 
0 4 1:0.82017183 2:0.65014186 3:0.82915146 4:0.41659765 5:0.44670075 6:0.59509728 7:0.21685479 8:0.78073358 9:0.2876611 10:0.56159498 11:0.31154108 12:0.29083313 13:0.44109914 14:0.50743249 15:0.36653431 16:0.4201583 17:0.27301941 18:0.27545975 
4 4 1:0.64320839 2:0.40889479 3:0.68306845 4:0.45547163 5:0.8188334 6:0.79564514 7:0.33228262 8:0.81216201 9:0.30452741 10:0.77240509 11:0.36180012 12:0.53901712 13:0.46194278 14:0.53722598 15:0.35646134 16:0.48845176 17:0.27171747 18:0.4128602 
0 4 1:0.85666076 2:0.61783126 3:0.80401027 4:0.32898881 5:0.50012774 6:0.53985174 7:0.22940657 8:0.69878056 9:0.31246382 10:0.53893448 11:0.44141448 12:0.40693335 13:0.48820096 14:0.48690678 15:0.32182439 16:0.36176443 17:0.29042732 18:0.33416899 
0 4 1:0.87081693 2:0.61343276 3:0.73491786 4:0.43988395 5:0.49203093 6:0.5948158 7:0.30690867 8:0.71442652 9:0.27042989 10:0.59907895 11:0.30471551 12:0.30697567 13:0.58397639 14:0.50933625 15:0.29337698 16:0.32256533 17:0.087181054 18:0.42679932 
4 4 1:0.64787449 2:0.65671818 3:0.72085642 4:0.45745878 5:0.47198708 6:0.64197761 7:0.11324168 8:0.65772613 9:0.19831175 10:0.68923023 11:0.21280172 12:0.29334953 13:0.49653075 14:0.58900619 15:0.37796487 16:0.41096729 17:0.25076889 18:0.39846912 
4 0 1:0.49197133 2:0.57302791 3:0.8208955 4:0.49025808 5:0.61005966 6:0.63740754 7:0.35941778 8:0.71177981 9:0.35369327 10:0.61290395 11:0.47071588 12:0.37615859 13:0.50741921 14:0.54677807 15:0.51689787 16:0.47355496 17:0.35188318 18:0.43277183 
0 4 1:0.74452059 2:0.61122708 3:0.77974897 4:0.51450626 5:0.47883832 6:0.60153687 7:0.21667837 8:0.69001479 9:0.20445175 10:0.5790191 11:0.33477664 12:0.36831174 13:0.40932576 14:0.4383358 15:0.29956336 16:0.2855203 17:0.16742059 18:0.31235091 
4 4 1:0.55740727 2:0.53644403 3:0.74012009 4:0.46121631 5:0.61624096 6:0.60378108 7:0.36861467 8:0.74458171 9:0.38997692 10:0.61651685 11:0.53679678 12:0.27018162 13:0.47626339 14:0.4402047 15:0.33004687 16:0.34342562 17:0.34025121 18:0.44834629 
0 0.86698892892146562 1:0.74586294 2:0.71299246 3:0.79304155 4:0.49161904 5:0.49762593 6:0.72812733 7:0.26679293 8:0.79787088 9:0.35180765 10:0.62651683 11:0.36277705 12:0.34756143 13:0.50703248 14:0.68512167 15:0.33685452 16:0.36018715 17:0.32194368 18:0.3769193 
0 4 1:0.79829501 2:0.61176756 3:0.89284752 4:0.39447313 5:0.47905845 6:0.65371109 7:0.1416973 8:0.7572401 9:0.32110345 10:0.5936362 11:0.37940346 12:0.26606125 13:0.37707601 14:0.44285661 15:0.21243531 16:0.43997054 17:0.40215375 18:0.39432094 
4 0 1:0.64493598 2:0.63129093 3:0.78476085 4:0.37999472 5:0.50434943 6:0.72395405 7:0.19739454 8:0.73783411 9:0.23927552 10:0.7571111 11:0.32533163 12:0.50315263 13:0.5052365 14:0.56468198 15:0.43612443 16:0.56413864 17:0.21454095 18:0.78356807 
4 0 1:0.63460504 2:0.57532474 3:0.86325909 4:0.32311797 5:0.53070974 6:0.71388457 7:0.16845245 8:0.70409051 9:0.28878386 10:0.543452 11:0.26613805 12:0.40514128 13:0.32055043 14:0.50915271 15:0.37897229 16:0.44866903 17:0.302936 18:0.49593065 
4 4 1:0.48107171 2:0.52722363 3:0.72153811 4:0.51365129 5:0.53263663 6:0.77327644 7:0.27314683 8:0.77211306 9:0.33768876 10:0.63563146 11:0.47682412 12:0.51534027 13:0.66736868 14:0.67502838 15:0.46842365 16:0.37843415 17:0.35496923 18:0.43448084 
4 0 1:0.44432283 2:0.46128746 3:0.70827107 4:0.47453865 5:0.7789059 6:0.89482309 7:0.17226085 8:0.64342223 9:0.3626707 10:0.77628222 11:0.43766065 12:0.35924773 13:0.36482683 14:0.36872117 15:0.37918695 16:0.42269716 17:0.35944039 18:0.64014726 
4 0 1:0.39016773 2:0.52891252 3:0.83678473 4:0.45322238 5:0.78772651 6:0.88423219 7:0.28399597 8:0.71298872 9:0.32042887 10:0.74715118 11:0.38550559 12:0.34010018 13:0.39011111 14:0.38081416 15:0.47848365 16:0.4331813 17:0.12394041 18:0.33896026 
0 4 1:0.79846097 2:0.64021791 3:0.82255254 4:0.47090542 5:0.48208508 6:0.71293387 7:0.20210186 8:0.79932152 9:0.30756622 10:0.64570233 11:0.30882617 12:0.26915302 13:0.45267533 14:0.48839354 15:0.34845019 16:0.50516482 17:0.3834257 18:0.44540419 
0 4 1:0.77161147 2:0.65650409 3:0.81099775 4:0.4778093 5:0.45727079 6:0.6646042 7:0.21816638 8:0.8061109 9:0.37878393 10:0.57163417 11:0.39713023 12:0.2988916 13:0.40438525 14:0.46930004 15:0.35478571 16:0.50589934 17:0.37916674 18:0.36767325 
0 4 1:0.74283964 2:0.56012898 3:0.84320968 4:0.45097638 5:0.53004121 6:0.76861978 7:0.21066623 8:0.88581555 9:0.25063965 10:0.59998869 11:0.28394935 12:0.31008986 13:0.42154112 14:0.56190123 15:0.30774257 16:0.42527471 17:0.23706284 18:0.32717917 
0 4 1:0.67590098 2:0.65551035 3:0.74086404 4:0.4450545 5:0.52686259 6:0.67268629 7:0.19779457 8:0.70934347 9:0.435625 10:0.57110331 11:0.3630715 12:0.36058197 13:0.63700606 14:0.45446817 15:0.43554364 16:0.33375312 17:0.39318643 18:0.41511512 
4 0 1:0.59988356 2:0.43936712 3:0.8234128 4:0.46128805 5:0.4981411 6:0.71295761 7:0.24605075 8:0.81124099 9:0.37449457 10:0.70386629 11:0.29216142 12:0.4543402 13:0.4470697 14:0.58907442 15:0.44852335 16:0.62489918 17:0.29638592 18:0.61669298 
0 4 1:0.78962282 2:0.73846032 3:0.67067015 4:0.39580779 5:0.4558515 6:0.55300062 7:0.10802507 8:0.62548672 9:0.17149066 10:0.54014736 11:0.22230825 12:0.35707031 13:0.48924572 14:0.51784995 15:0.42190861 16:0.49034207 17:0.28707916 18:0.48283569 
0 4 1:0.84013604 2:0.642279 3:0.86559699 4:0.37914844 5:0.41366476 6:0.57897012 7:0.17951469 8:0.77002056 9:0.25473773 10:0.54170647 11:0.29312144 12:0.31103072 13:0.4535502 14:0.57939381 15:0.38093585 16:0.34816977 17:0.17890276 18:0.27787913 
0 4 1:0.84414883 2:0.66948862 3:0.85983492 4:0.3994673 5:0.44721128 6:0.63194996 7:0.15161987 8:0.7690094 9:0.23026626 10:0.55479706 11:0.32012206 12:0.31658518 13:0.29387985 14:0.58529814 15:0.38716124 16:0.41535331 17:0.32219698 18:0.49408801 
0 4 1:0.84470692 2:0.6384842 3:0.84659009 4:0.34717797 5:0.48130478 6:0.53824091 7:0.17731558 8:0.7262772 9:0.35059057 10:0.47192885 11:0.30668149 12:0.20675962 13:0.25260498 14:0.5179779 15:0.39332388 16:0.49857173 17:0.48935108 18:0.36258536 
0 4 1:0.80347205 2:0.64563259 3:0.88470693 4:0.36793216 5:0.45955312 6:0.65297147 7:0.24146382 8:0.84694375 9:0.36177983 10:0.6070962 11:0.29309761 12:0.17167648 13:0.29009135 14:0.50647334 15:0.40061201 16:0.4342661 17:0.40218966 18:0.33173637 
0 4 1:0.85282853 2:0.58933212 3:0.90418441 4:0.37361946 5:0.5168698 6:0.68293871 7:0.090868115 8:0.75443611 9:0.21820318 10:0.5894 11:0.2809013 12:0.28929165 13:0.25809116 14:0.56042769 15:0.41313959 16:0.63478848 17:0.48779215 18:0.52639046 
4 4 1:0.65105477 2:0.54915287 3:0.71344051 4:0.50454342 5:0.62772143 6:0.70620151 7:0.29403223 8:0.83308838 9:0.367741 10:0.7051184 11:0.45825872 12:0.42789727 13:0.4565541 14:0.44876131 15:0.22989683 16:0.42192748 17:0.38063956 18:0.58659991 
4 0 1:0.7677102 2:0.58355679 3:0.88597649 4:0.55480447 5:0.49076642 6:0.71707052 7:0.17672306 8:0.84783819 9:0.27416906 10:0.6486039 11:0.41399497 12:0.42398443 13:0.44483817 14:0.61527557 15:0.43388234 16:0.54436661 17:0.27642136 18:0.21705873 
4 4 1:0.62005788 2:0.54101191 3:0.74859551 4:0.53559357 5:0.60587339 6:0.71925636 7:0.23597285 8:0.79894536 9:0.30631758 10:0.57092792 11:0.4457718 12:0.43862272 13:0.60164923 14:0.56706266 15:0.39374225 16:0.43061617 17:0.31148932 18:0.57924561 
4 0 1:0.61426169 2:0.59057263 3:0.73116445 4:0.58684261 5:0.49277964 6:0.59410982 7:0.23419578 8:0.76240668 9:0.3107581 10:0.69898656 11:0.40089535 12:0.50260285 13:0.53621204 14:0.69726294 15:0.43487662 16:0.52402326 17:0.28659289 18:0.51107565 
0 4 1:0.79440766 2:0.56441589 3:0.71095158 4:0.58884723 5:0.54114144 6:0.77625755 7:0.2386136 8:0.73627749 9:0.27168061 10:0.63035254 11:0.4177691 12:0.37037093 13:0.50353107 14:0.63248087 15:0.34658397 16:0.30889061 17:0.12684177 18:0.42715047 
0 4 1:0.79483095 2:0.62087618 3:0.81113035 4:0.46878037 5:0.52173999 6:0.59083532 7:0.24755128 8:0.71853168 9:0.20705994 10:0.46143384 11:0.30364214 12:0.31293936 13:0.43598689 14:0.39693906 15:0.24021852 16:0.42402675 17:0.37847154 18:0.5336839 
0 4 1:0.77611267 2:0.66928547 3:0.78934442 4:0.40418877 5:0.49898473 6:0.6315186 7:0.24194195 8:0.76412639 9:0.40338302 10:0.58322721 11:0.42394594 12:0.23097081 13:0.38356489 14:0.50376326 15:0.30261835 16:0.41700062 17:0.42492642 18:0.56741618 
4 4 1:0.70519073 2:0.54515147 3:0.71557752 4:0.46997473 5:0.49236789 6:0.70670373 7:0.21363422 8:0.72628037 9:0.28797915 10:0.76305138 11:0.38355571 12:0.38282425 13:0.50345293 14:0.52408746 15:0.29018396 16:0.53005817 17:0.35912521 18:0.58900493 
4 4 1:0.61694531 2:0.58829129 3:0.79856623 4:0.44900195 5:0.60018735 6:0.64178458 7:0.27102512 8:0.79057922 9:0.38095786 10:0.56047274 11:0.47522506 12:0.53254123 13:0.57133278 14:0.58087555 15:0.35737147 16:0.42644779 17:0.34772589 18:0.50749357 
0.005588134576846782 0 1:0.50644004 2:0.52902145 3:0.86672553 4:0.48758258 5:0.69845834 6:0.62848942 7:0.39121773 8:0.66890818 9:0.33229905 10:0.58058107 11:0.6274151 12:0.46121128 13:0.60332041 14:0.62272755 15:0.4213022 16:0.40062092 17:0.365217 18:0.57701769 
0 4 1:0.52894125 2:0.69960196 3:0.76376577 4:0.32954304 5:0.57319512 6:0.57276903 7:0.2307616 8:0.6947235 9:0.48204036 10:0.59856077 11:0.40991095 12:0.40816248 13:0.52380868 14:0.46763812 15:0.37474498 16:0.47291722 17:0.31770154 18:0.37935004 
0 4 1:0.77047547 2:0.66149463 3:0.74961394 4:0.5193453 5:0.51074723 6:0.67672081 7:0.28428597 8:0.77280877 9:0.33732517 10:0.56326625 11:0.38311126 12:0.20692227 13:0.39605371 14:0.55496042 15:0.29238154 16:0.39558037 17:0.33059729 18:0.54636345 
4 0 1:0.52665081 2:0.66357723 3:0.78460239 4:0.35347312 5:0.52486847 6:0.59204241 7:0.28697313 8:0.70746913 9:0.48404274 10:0.62434087 11:0.39497275 12:0.32105932 13:0.60510529 14:0.49366048 15:0.47133214 16:0.62640771 17:0.46413799 18:0.4867469 
0 4 1:0.74119651 2:0.74505624 3:0.75079013 4:0.3997476 5:0.55356543 6:0.63766485 7:0.19311507 8:0.69637688 9:0.49864771 10:0.64576019 11:0.45573121 12:0.37789746 13:0.60887813 14:0.55582591 15:0.32574947 16:0.42811087 17:0.46470745 18:0.3718659 
0 1.882024150723747 1:0.71381661 2:0.66839346 3:0.82732649 4:0.40174571 5:0.40851329 6:0.68929318 7:0.10633186 8:0.80058998 9:0.18827926 10:0.6570088 11:0.27375604 12:0.37066822 13:0.52034867 14:0.63825241 15:0.46774441 16:0.42411775 17:0.30715741 18:0.55243716 
0 4 1:0.78243432 2:0.67931488 3:0.84683305 4:0.41312779 5:0.48008712 6:0.6045006 7:0.27098967 8:0.77998444 9:0.30565714 10:0.52430303 11:0.42461149 12:0.23912117 13:0.42822068 14:0.49589383 15:0.45161274 16:0.36987529 17:0.46553956 18:0.49047369 
4 4 1:0.68516555 2:0.67270342 3:0.64998848 4:0.42642351 5:0.51244725 6:0.64453397 7:0.1822948 8:0.78132445 9:0.30566078 10:0.55885902 11:0.3217703 12:0.44980679 13:0.48228019 14:0.6185107 15:0.36154967 16:0.43196618 17:0.37454753 18:0.33831899 
4 4 1:0.78375475 2:0.59887468 3:0.72393217 4:0.4284251 5:0.46983279 6:0.70805488 7:0.17667786 8:0.71827959 9:0.24205036 10:0.61080183 11:0.38526499 12:0.36043476 13:0.47717345 14:0.57575575 15:0.37622111 16:0.43955172 17:0.30246147 18:0.29215928 
0 4 1:0.83043493 2:0.59515939 3:0.86409613 4:0.34825004 5:0.50093328 6:0.58084781 7:0.11841596 8:0.66070475 9:0.19905468 10:0.58971156 11:0.3478454 12:0.22732716 13:0.39358679 14:0.52736352 15:0.30709672 16:0.45056709 17:0.34138605 18:0.3761149 
0 4 1:0.74317308 2:0.63310005 3:0.85106186 4:0.38513153 5:0.58103994 6:0.6917923 7:0.18370033 8:0.79348784 9:0.33917036 10:0.6275249 11:0.45817722 12:0.42014913 13:0.61875679 14:0.66307331 15:0.41216794 16:0.41331742 17:0.19412389 18:0.24889092 
0 4 1:0.86959212 2:0.65302534 3:0.84598067 4:0.33620777 5:0.48761831 6:0.52192473 7:0.1478814 8:0.6430576 9:0.32728978 10:0.50520628 11:0.34037038 12:0.23027571 13:0.60118301 14:0.46391795 15:0.40279646 16:0.38124025 17:0.38809158 18:0.49198046 
0 4 1:0.80648232 2:0.69845329 3:0.77253342 4:0.37214454 5:0.51456077 6:0.64499783 7:0.26878343 8:0.80169949 9:0.41675941 10:0.57946124 11:0.37666007 12:0.22738839 13:0.42447266 14:0.46822414 15:0.29867887 16:0.23291751 17:0.29492497 18:0.5552739 
0 4 1:0.73304341 2:0.67344552 3:0.82063249 4:0.51474743 5:0.51714461 6:0.69171609 7:0.206832 8:0.74924664 9:0.30278847 10:0.54087837 11:0.37164808 12:0.42582717 13:0.55114036 14:0.61966461 15:0.31645115 16:0.42461984 17:0.30282577 18:0.14021395 
0 4 1:0.84755281 2:0.72858447 3:0.82867609 4:0.37008819 5:0.46542235 6:0.6079095 7:0.15386535 8:0.68315842 9:0.30505118 10:0.49975079 11:0.38414004 12:0.27490423 13:0.47809017 14:0.5059286 15:0.33310391 16:0.48041079 17:0.39140192 18:0.44021759 
0 4 1:0.72234702 2:0.62680388 3:0.78786343 4:0.28983315 5:0.56383797 6:0.60562161 7:0.28467083 8:0.70146056 9:0.33848903 10:0.57661544 11:0.34200364 12:0.36132234 13:0.5774009 14:0.61746398 15:0.36609267 16:0.46615461 17:0.34423137 18:0.25429434 
0 4 1:0.75917899 2:0.60717232 3:0.8327801 4:0.46268132 5:0.46004129 6:0.63366863 7:0.21377657 8:0.71838563 9:0.3715836 10:0.60750819 11:0.44992014 12:0.36161233 13:0.59809121 14:0.52868495 15:0.25053604 16:0.36285552 17:0.35763924 18:0.40879722 
4 4 1:0.6908995 2:0.52361066 3:0.73374396 4:0.43641201 5:0.62166447 6:0.65621795 7:0.35047982 8:0.74753289 9:0.2811039 10:0.6234945 11:0.2812608 12:0.34309038 13:0.48013697 14:0.44951175 15:0.29845004 16:0.48227491 17:0.4948348 18:0.55286752 
0 4 1:0.78399424 2:0.71069128 3:0.79963747 4:0.41621383 5:0.47512224 6:0.55562749 7:0.18736583 8:0.70327768 9:0.2465945 10:0.5660073 11:0.34401146 12:0.3337726 13:0.44360067 14:0.52118588 15:0.30927266 16:0.39242977 17:0.25765212 18:0.34014331 
4 4 1:0.72449831 2:0.6217898 3:0.74514654 4:0.44512049 5:0.56340258 6:0.57622371 7:0.25040679 8:0.74557231 9:0.30870764 10:0.5759318 11:0.33460732 12:0.35117902 13:0.52318416 14:0.53204647 15:0.30260331 16:0.49295092 17:0.30539885 18:0.382455 
0 4 1:0.79143238 2:0.66650597 3:0.80531461 4:0.43118966 5:0.5147125 6:0.63674969 7:0.19581481 8:0.74020442 9:0.35930097 10:0.60130717 11:0.38425499 12:0.26522128 13:0.41527716 14:0.49014141 15:0.39276664 16:0.47607087 17:0.34755151 18:0.30006065 
0 4 1:0.81300494 2:0.63507303 3:0.82200537 4:0.47129641 5:0.49531025 6:0.55624206 7:0.1837301 8:0.73041865 9:0.24830889 10:0.56898233 11:0.34627454 12:0.39019658 13:0.37088592 14:0.57322961 15:0.39245306 16:0.55437944 17:0.40997706 18:0.56826985 
4 4 1:0.67225407 2:0.4568494 3:0.73825115 4:0.52215476 5:0.52685691 6:0.62850248 7:0.20417008 8:0.83381812 9:0.36691397 10:0.72855172 11:0.56177092 12:0.53084185 13:0.72668141 14:0.56890378 15:0.40709198 16:0.45459806 17:0.22249514 18:0.41662528 
4 4 1:0.75227012 2:0.55299747 3:0.8192233 4:0.51867998 5:0.4487477 6:0.666188 7:0.18276912 8:0.83621703 9:0.35294658 10:0.6035568 11:0.40102066 12:0.26625488 13:0.44219066 14:0.50585623 15:0.3381199 16:0.38886801 17:0.41989279 18:0.37382263 
1.3699371861050174 4 1:0.81872926 2:0.55432995 3:0.74846649 4:0.43556336 5:0.51289544 6:0.72890568 7:0.20780588 8:0.88073294 9:0.37548161 10:0.61905353 11:0.47183608 12:0.40762506 13:0.46553763 14:0.72955863 15:0.47288394 16:0.51744604 17:0.36292301 18:0.52603632 
0 4 1:0.80465824 2:0.61933353 3:0.90292324 4:0.31473084 5:0.55120467 6:0.69072587 7:0.28669297 8:0.71066783 9:0.44256268 10:0.48544495 11:0.44575562 12:0.37267863 13:0.46431678 14:0.56694914 15:0.37333214 16:0.44276542 17:0.28635081 18:0.2447513 
4 4 1:0.82074065 2:0.69328986 3:0.71239999 4:0.4047226 5:0.43961489 6:0.69695667 7:0.074369672 8:0.69023664 9:0.26221463 10:0.4891583 11:0.44828785 12:0.39508689 13:0.3547846 14:0.47207308 15:0.34703545 16:0.45742045 17:0.45973231 18:0.28775688 
4 4 1:0.75660209 2:0.66209548 3:0.73215836 4:0.4754944 5:0.5665485 6:0.81000372 7:0.075048264 8:0.67785623 9:0.18820545 10:0.55802272 11:0.5025547 12:0.34918021 13:0.41215753 14:0.53291753 15:0.24010092 16:0.43151218 17:0.44769979 18:0.44576884 
0 4 1:0.78831479 2:0.60065171 3:0.88964889 4:0.36004004 5:0.46071236 6:0.58706883 7:0.22474944 8:0.80817656 9:0.3407082 10:0.644793 11:0.41468066 12:0.44863439 13:0.54791471 14:0.53834912 15:0.34284062 16:0.52267236 17:0.46345892 18:0.45763179 
4 4 1:0.78376805 2:0.60361008 3:0.78528032 4:0.40927141 5:0.4774659 6:0.55197879 7:0.24120576 8:0.7674655 9:0.2675802 10:0.74079693 11:0.34165115 12:0.42948506 13:0.47894896 14:0.38955924 15:0.29977688 16:0.37242961 17:0.40696297 18:0.39074333 
0 4 1:0.73087555 2:0.76853251 3:0.6695764 4:0.48601062 5:0.46520952 6:0.6378767 7:0.26008857 8:0.73581226 9:0.34487684 10:0.44736951 11:0.40385768 12:0.37045182 13:0.4141762 14:0.5269305 15:0.42682316 16:0.44413794 17:0.39000758 18:0.18528838 
4 4 1:0.83499184 2:0.69877908 3:0.59850773 4:0.39533077 5:0.37422373 6:0.67899357 7:0.057754211 8:0.65618775 9:0.32211108 10:0.46823901 11:0.68914523 12:0.29079176 13:0.45050752 14:0.39601105 15:0.31087014 16:0.38315441 17:0.30742824 18:0.24184209 
0 4 1:0.8010859 2:0.76207379 3:0.62327102 4:0.34790208 5:0.46057248 6:0.56187418 7:0.1990595 8:0.58838933 9:0.37784445 10:0.38802947 11:0.60169264 12:0.36717416 13:0.27461203 14:0.49159652 15:0.31092206 16:0.64464874 17:0.18120934 18:0.2953896 
4 4 1:0.62825355 2:0.63804249 3:0.43452428 4:0.53064357 5:0.61518959 6:0.62599376 7:0.26426739 8:0.75250253 9:0.48030855 10:0.5853058 11:0.51313833 12:0.45261195 13:0.45776062 14:0.51552425 15:0.39777628 16:0.58213016 17:0.36986979 18:0.54092691 
0 4 1:0.7739206 2:0.65604142 3:0.78617831 4:0.46559739 5:0.57884655 6:0.65141055 7:0.23658755 8:0.72689645 9:0.35437852 10:0.53911534 11:0.35425568 12:0.25234765 13:0.53089895 14:0.55550614 15:0.21510825 16:0.32108083 17:0.256087 18:0.42387966 
4 4 1:0.75799944 2:0.64550195 3:0.73506621 4:0.4547111 5:0.57831536 6:0.62849967 7:0.19292944 8:0.77574237 9:0.34481429 10:0.63271911 11:0.37441074 12:0.56843405 13:0.68445667 14:0.73555597 15:0.45015549 16:0.52047021 17:0.45098994 18:0.43090188 
0 4 1:0.76565423 2:0.55370923 3:0.8759609 4:0.31962 5:0.5216394 6:0.44209817 7:0.29569385 8:0.66857814 9:0.46174452 10:0.58407052 11:0.45910654 12:0.43590241 13:0.54650214 14:0.54133082 15:0.47623944 16:0.42114152 17:0.33343523 18:0.40473337 
4 0 1:0.5106502 2:0.66984303 3:0.73060948 4:0.59095198 5:0.57456351 6:0.62309188 7:0.33041007 8:0.72210836 9:0.46023441 10:0.64064226 11:0.55296159 12:0.2934771 13:0.71473496 14:0.53860035 15:0.40177092 16:0.38717544 17:0.57673704 18:0.59171969 
0 4 1:0.56050119 2:0.6683134 3:0.67395266 4:0.49880518 5:0.52976198 6:0.62491182 7:0.2537494 8:0.69877875 9:0.49745121 10:0.5579308 11:0.53742002 12:0.32044746 13:0.4385362 14:0.61979456 15:0.49735823 16:0.40597525 17:0.22895204 18:0.45192519 
0 4 1:0.703178 2:0.62844477 3:0.73623053 4:0.57832351 5:0.60514599 6:0.53113436 7:0.22913153 8:0.63759302 9:0.39436979 10:0.62179699 11:0.59638073 12:0.26916213 13:0.64259029 14:0.56435295 15:0.35480645 16:0.5282237 17:0.37327272 18:0.4133625 
0 4 1:0.64869598 2:0.61044447 3:0.67446922 4:0.62540671 5:0.56837051 6:0.54697633 7:0.27681988 8:0.71801667 9:0.49060246 10:0.66721923 11:0.51725938 12:0.26414194 13:0.60815871 14:0.56648347 15:0.40968987 16:0.46053371 17:0.36901216 18:0.4091476 
4 4 1:0.65536971 2:0.62508637 3:0.72471175 4:0.57862132 5:0.55422503 6:0.57823005 7:0.30306034 8:0.76302776 9:0.34634723 10:0.5677378 11:0.57722801 12:0.31364742 13:0.62215068 14:0.61659565 15:0.39091327 16:0.46784165 17:0.55672524 18:0.48072785 
4 4 1:0.67994688 2:0.62366641 3:0.73243998 4:0.50431333 5:0.56129306 6:0.54621928 7:0.30554396 8:0.62523256 9:0.46944261 10:0.60652191 11:0.51081435 12:0.36213957 13:0.50117507 14:0.51301974 15:0.32339032 16:0.43428854 17:0.50393537 18:0.53131605 
4 0 1:0.44368055 2:0.52888452 3:0.79704341 4:0.7428658 5:0.52811115 6:0.69944534 7:0.39038303 8:0.76518845 9:0.35410121 10:0.65751004 11:0.48826667 12:0.18040591 13:0.65459237 14:0.53992424 15:0.42371078 16:0.44653944 17:0.30396357 18:0.34817922 
0 4 1:0.67459 2:0.63926713 3:0.8029868 4:0.43000348 5:0.57050384 6:0.53515555 7:0.40927747 8:0.68500598 9:0.61846157 10:0.4067525 11:0.45225225 12:0.24720673 13:0.47304998 14:0.55789735 15:0.35710847 16:0.45991377 17:0.48676694 18:0.5408611 
0 4 1:0.64356431 2:0.67917603 3:0.7017865 4:0.52873725 5:0.46251346 6:0.67264248 7:0.26556491 8:0.71611664 9:0.47270449 10:0.57999122 11:0.4513232 12:0.1900698 13:0.63937375 14:0.60020099 15:0.37868418 16:0.41262116 17:0.38889332 18:0.52477795 
0 4 1:0.65675837 2:0.69323962 3:0.66103835 4:0.49395148 5:0.51611081 6:0.64998213 7:0.32006725 8:0.67505187 9:0.50149496 10:0.56334833 11:0.39656941 12:0.30712541 13:0.53947298 14:0.58185417 15:0.30246835 16:0.39933254 17:0.18996845 18:0.40176714 
4 4 1:0.67202505 2:0.61829775 3:0.66522938 4:0.58170643 5:0.56936189 6:0.57966443 7:0.30338349 8:0.67756447 9:0.49288601 10:0.59837961 11:0.40747206 12:0.34500225 13:0.4909425 14:0.59038627 15:0.2841513 16:0.41308702 17:0.42668698 18:0.45319682 
0 4 1:0.6800451 2:0.65621108 3:0.74593536 4:0.50205574 5:0.56605583 6:0.60055512 7:0.33238638 8:0.62857217 9:0.33112155 10:0.59679684 11:0.6044574 12:0.34601463 13:0.51385085 14:0.54840914 15:0.35235848 16:0.45645646 17:0.44964425 18:0.60859906 
0 4 1:0.64574996 2:0.67194725 3:0.69064475 4:0.45769511 5:0.49932337 6:0.57840156 7:0.36388013 8:0.70120251 9:0.45267655 10:0.51854684 11:0.304349 12:0.21317752 13:0.47334089 14:0.44089817 15:0.42756554 16:0.47586435 17:0.48401403 18:0.46233883 
0 4 1:0.68463047 2:0.57974995 3:0.6438254 4:0.66788287 5:0.58930247 6:0.62111041 7:0.26420749 8:0.67636869 9:0.41411925 10:0.59662519 11:0.39409684 12:0.21989941 13:0.7069638 14:0.50867467 15:0.36364608 16:0.3698225 17:0.18822785 18:0.39494997 
0 4 1:0.64119778 2:0.72874061 3:0.66898927 4:0.50956188 5:0.52961482 6:0.58444511 7:0.38120768 8:0.64405689 9:0.46801959 10:0.59586242 11:0.44238146 12:0.25061424 13:0.6357855 14:0.56371251 15:0.33968641 16:0.35312537 17:0.31778431 18:0.59221835 
0 4 1:0.68921164 2:0.67697035 3:0.73712418 4:0.51219192 5:0.52949963 6:0.55142382 7:0.24883964 8:0.60902742 9:0.38357157 10:0.67092984 11:0.51142304 12:0.26800967 13:0.52375431 14:0.4554745 15:0.28923552 16:0.33068263 17:0.41206869 18:0.50987531 
0 4 1:0.63049929 2:0.69069397 3:0.68196661 4:0.53157177 5:0.51697436 6:0.62970203 7:0.2904804 8:0.75368735 9:0.57525556 10:0.67645659 11:0.41795988 12:0.29264043 13:0.53303402 14:0.56821623 15:0.32322578 16:0.32757495 17:0.24593095 18:0.31417833 
0 4 1:0.73732704 2:0.60035366 3:0.80390874 4:0.49981559 5:0.58450562 6:0.53523367 7:0.25133552 8:0.60483962 9:0.49771096 10:0.60687671 11:0.5822516 12:0.28883191 13:0.56810029 14:0.53131328 15:0.35247719 16:0.39399693 17:0.46790577 18:0.44603635 
0 4 1:0.72380444 2:0.64851235 3:0.69761256 4:0.44318822 5:0.56225299 6:0.61707497 7:0.3959804 8:0.5791488 9:0.42419584 10:0.54540119 11:0.43134709 12:0.25239878 13:0.52180181 14:0.53548312 15:0.33664388 16:0.37560085 17:0.28503189 18:0.48562482 
0 2.8722117328056269 1:0.69270277 2:0.66241969 3:0.64830737 4:0.57185772 5:0.49450569 6:0.70745218 7:0.32469167 8:0.69252076 9:0.45781743 10:0.6095579 11:0.44477737 12:0.14752472 13:0.44701484 14:0.34875479 15:0.2815879 16:0.40701596 17:0.33756384 18:0.69336808 
0 4 1:0.54400695 2:0.68040942 3:0.6049313 4:0.54193758 5:0.60361631 6:0.67770802 7:0.44264571 8:0.68131069 9:0.4674051 10:0.46583479 11:0.45107679 12:0.16738956 13:0.48014743 14:0.50562805 15:0.37935387 16:0.50359225 17:0.36652293 18:0.44098077 
0 4 1:0.58066076 2:0.78638745 3:0.62557592 4:0.52740429 5:0.45695983 6:0.55548245 7:0.35068181 8:0.73495606 9:0.51633664 10:0.50361668 11:0.38997063 12:0.18411611 13:0.40284641 14:0.45988491 15:0.49429858 16:0.62381267 17:0.5888133 18:0.54377567 
0 4 1:0.71486217 2:0.62971062 3:0.71417796 4:0.53536387 5:0.53597561 6:0.59341853 7:0.26589114 8:0.65979431 9:0.51736736 10:0.45904051 11:0.49256957 12:0.31125213 13:0.78178482 14:0.54971506 15:0.34811595 16:0.45168232 17:0.33173401 18:0.60155398 
0 4 1:0.68844918 2:0.58304876 3:0.63103621 4:0.61899871 5:0.53190278 6:0.54305311 7:0.14063623 8:0.65369573 9:0.60781259 10:0.63911261 11:0.52207488 12:0.24414777 13:0.4801415 14:0.44820063 15:0.33159767 16:0.43063942 17:0.44502484 18:0.74118626 
0 4 1:0.57260318 2:0.75891213 3:0.62089821 4:0.53818791 5:0.47955921 6:0.59171728 7:0.33204733 8:0.72158258 9:0.40712656 10:0.64245565 11:0.53391914 12:0.28809732 13:0.51440287 14:0.52973273 15:0.41050866 16:0.39251881 17:0.3870957 18:0.4362476 
4 4 1:0.63136126 2:0.64680906 3:0.65434332 4:0.57460219 5:0.59138759 6:0.59158798 7:0.30064211 8:0.71972573 9:0.41248483 10:0.59914004 11:0.41005844 12:0.22564115 13:0.54894281 14:0.44008936 15:0.39395387 16:0.49338073 17:0.39442113 18:0.3949648 
4 4 1:0.42652754 2:0.59394455 3:0.57001962 4:0.63380949 5:0.53816873 6:0.66639571 7:0.38927354 8:0.95250004 9:0.39752158 10:0.54774792 11:0.69225024 12:0.30249448 13:0.63327545 14:0.51512694 15:0.25211806 16:0.39469845 17:0.45962173 18:0.53518285 
4 4 1:0.58577094 2:0.66207447 3:0.6001529 4:0.61588047 5:0.39712158 6:0.516116 7:0.29264599 8:0.77935742 9:0.31816562 10:0.5315395 11:0.48862538 12:0.3253103 13:0.68430674 14:0.62022465 15:0.40564558 16:0.39216864 17:0.50025486 18:0.73761476 
4 4 1:0.5691992 2:0.69277778 3:0.56155551 4:0.71699031 5:0.46891688 6:0.46114605 7:0.32714004 8:0.73594769 9:0.28854681 10:0.53429841 11:0.43372524 12:0.077086127 13:0.46241259 14:0.54293243 15:0.32140983 16:0.36130714 17:0.52739044 18:0.47881663 
0 4 1:0.56919622 2:0.73635408 3:0.61151354 4:0.54494968 5:0.56894616 6:0.68176085 7:0.34056609 8:0.63451847 9:0.41146552 10:0.47481697 11:0.48912233 12:0.15506756 13:0.52489165 14:0.53121185 15:0.33985586 16:0.43410306 17:0.30548952 18:0.51071276 
4 4 1:0.6438792 2:0.6505493 3:0.57860353 4:0.66764866 5:0.52804031 6:0.57629942 7:0.32902519 8:0.75703371 9:0.32629925 10:0.51489095 11:0.62166836 12:0.23411676 13:0.56304244 14:0.46657048 15:0.22886858 16:0.30568325 17:0.4207972 18:0.43121295 
4 4 1:0.59764466 2:0.67126895 3:0.57615692 4:0.71314602 5:0.39599882 6:0.46831701 7:0.26022295 8:0.72813134 9:0.40881888 10:0.47113206 11:0.36565237 12:0.22323324 13:0.68256749 14:0.57761364 15:0.23806321 16:0.4240022 17:0.34881415 18:0.61939586 
0 4 1:0.59125711 2:0.72261557 3:0.6203776 4:0.56052803 5:0.53071416 6:0.63962988 7:0.3471151 8:0.64324044 9:0.43386562 10:0.58528602 11:0.48030314 12:0.21925147 13:0.55313065 14:0.52253356 15:0.33254991 16:0.33140125 17:0.21109818 18:0.51522047 
4 4 1:0.64312845 2:0.66365795 3:0.66335877 4:0.55313392 5:0.51122707 6:0.47715488 7:0.36042695 8:0.6647967 9:0.40560751 10:0.59619574 11:0.54575888 12:0.1864846 13:0.654065 14:0.62109482 15:0.28632662 16:0.45897385 17:0.43287304 18:0.49027809 
2.8409817361695922 4 1:0.52286976 2:0.71361186 3:0.54664149 4:0.67167851 5:0.40714013 6:0.57918411 7:0.43319597 8:0.64031584 9:0.43161276 10:0.52027942 11:0.35726885 12:0.0095584372 13:0.63633275 14:0.55485725 15:0.31560796 16:0.36235933 17:0.23833429 18:0.50142141 
0 4 1:0.60885605 2:0.69935842 3:0.55802717 4:0.62827043 5:0.55860336 6:0.64117982 7:0.28617678 8:0.71795658 9:0.49897403 10:0.56374324 11:0.40053958 12:0.063052969 13:0.54392424 14:0.44582748 15:0.31853119 16:0.39145032 17:0.33128343 18:0.6817935 
0 4 1:0.5440031 2:0.74903968 3:0.54528355 4:0.53073236 5:0.42746832 6:0.71822742 7:0.44496188 8:0.60369033 9:0.44298815 10:0.50888004 11:0.45842292 12:0.072332428 13:0.56077362 14:0.56289529 15:0.41493197 16:0.38970887 17:0.29210223 18:0.48858037 
0 4 1:0.5781792 2:0.66058873 3:0.57631636 4:0.54037739 5:0.61312776 6:0.67420284 7:0.38196293 8:0.72011582 9:0.5498409 10:0.53762165 11:0.41225001 12:0.15748149 13:0.29246932 14:0.43430532 15:0.28491305 16:0.37511841 17:0.47269623 18:0.59680305 
0 4 1:0.64383117 2:0.69165313 3:0.63991783 4:0.55461142 5:0.55390093 6:0.61307012 7:0.40774571 8:0.67061593 9:0.42260656 10:0.53131626 11:0.42743402 12:0.24981062 13:0.40820216 14:0.44786717 15:0.31690914 16:0.38714466 17:0.34885062 18:0.50809388 
4 4 1:0.52449547 2:0.67632517 3:0.55412343 4:0.66889161 5:0.48537822 6:0.6757462 7:0.32827183 8:0.59028254 9:0.4092776 10:0.60134515 11:0.57628466 12:0.26453193 13:0.63196402 14:0.61437114 15:0.35137279 16:0.46121081 17:0.37653205 18:0.38325141 
0 4 1:0.53556347 2:0.74346662 3:0.58737837 4:0.49388476 5:0.53481851 6:0.60941262 7:0.4130442 8:0.71844333 9:0.44519553 10:0.49657507 11:0.37790947 12:0.15232772 13:0.41475115 14:0.52110847 15:0.51810471 16:0.54129935 17:0.29874691 18:0.47611515 
4 0 1:0.45380826 2:0.59555206 3:0.68497131 4:0.73214809 5:0.46206158 6:0.52272473 7:0.48094821 8:0.71570802 9:0.60130675 10:0.64172103 11:0.49032668 12:0.32455892 13:0.65381053 14:0.64636279 15:0.45962633 16:0.36696 17:0.43630093 18:0.52992832 
0 4 1:0.48460649 2:0.76111382 3:0.57416052 4:0.56601252 5:0.5111173 6:0.61933649 7:0.44487063 8:0.67976311 9:0.55017827 10:0.51205189 11:0.56771106 12:0.26823554 13:0.47751874 14:0.57089021 15:0.48629269 16:0.4665631 17:0.37101144 18:0.46371911 
4 4 1:0.4901015 2:0.75199688 3:0.5710823 4:0.58936864 5:0.53014814 6:0.64404534 7:0.32744063 8:0.65668967 9:0.40881553 10:0.50592113 11:0.54669112 12:0.23871584 13:0.50969857 14:0.49785006 15:0.43861542 16:0.40703435 17:0.4847757 18:0.53616793 
0 0.8427888527721854 1:0.76800623 2:0.55030868 3:0.88315625 4:0.39464788 5:0.53581393 6:0.4569984 7:0.32720821 8:0.67355744 9:0.50717646 10:0.5396074 11:0.50356565 12:0.39526276 13:0.66983449 14:0.56131228 15:0.4979325 16:0.40612861 17:0.42310886 18:0.45609148 
0 4 1:0.57472339 2:0.68844385 3:0.67293067 4:0.57055252 5:0.50490589 6:0.68502311 7:0.26251236 8:0.80567254 9:0.47282816 10:0.5028724 11:0.30790697 12:0.10361403 13:0.53570648 14:0.52423819 15:0.39270406 16:0.29973597 17:0.37590727 18:0.43712866 
4 0 1:0.54629974 2:0.73529215 3:0.80503973 4:0.44597708 5:0.63565409 6:0.71523599 7:0.45809399 8:0.58220054 9:0.35499797 10:0.50341224 11:0.53803142 12:0.51940691 13:0.75993759 14:0.67234799 15:0.52078556 16:0.64584747 17:0.78373028 18:0.68546815 
4 0 1:0.43395714 2:0.6388917 3:0.79008472 4:0.50127334 5:0.71243938 6:0.74062478 7:0.62382373 8:0.70599941 9:0.45311885 10:0.5693242 11:0.53782436 12:0.29616396 13:0.70341772 14:0.63480627 15:0.41480439 16:0.6120512 17:0.73174579 18:0.57575521 
4 0 1:0.57652724 2:0.60166578 3:0.78478537 4:0.59744938 5:0.47497388 6:0.74422373 7:0.33708034 8:0.77169885 9:0.5297766 10:0.69148412 11:0.62639092 12:0.44176213 13:0.71559204 14:0.49888703 15:0.44855493 16:0.49812172 17:0.57283891 18:0.62463317 
4 0 1:0.19782356 2:0.59381274 3:0.7181656 4:0.48403577 5:0.74947958 6:0.65708636 7:0.50861823 8:0.79274768 9:0.6890468 10:0.50565302 11:0.64069942 12:0.55460554 13:0.76189864 14:0.63750693 15:0.43661799 16:0.56198489 17:0.77361483 18:0.4271136 
4 4 1:0.71158459 2:0.63100985 3:0.54805953 4:0.64580469 5:0.40107887 6:0.54156819 7:0.52038167 8:0.64827966 9:0.63362704 10:0.73700041 11:0.46174246 12:0.68411049 13:0.51096204 14:0.62257725 15:0.57077467 16:0.42390928 17:0.52950821 18:0.57860059 
4 0 1:0.76051091 2:0.5971729 3:0.56287407 4:0.73596659 5:0.50256028 6:0.59854722 7:0.48277909 8:0.63159113 9:0.60385515 10:0.61665741 11:0.32903147 12:0.46818184 13:0.42751697 14:0.60415597 15:0.65072141 16:0.52366178 17:0.53434071 18:0.58443609 
4 4 1:0.72306433 2:0.62452202 3:0.60048012 4:0.62076438 5:0.38928422 6:0.63247298 7:0.56198317 8:0.65798031 9:0.68483404 10:0.68165043 11:0.40769287 12:0.55732268 13:0.4961271 14:0.60294761 15:0.32988473 16:0.3273617 17:0.52019539 18:0.53070553 
4 4 1:0.75381627 2:0.63472464 3:0.57740541 4:0.68256622 5:0.44007069 6:0.56902864 7:0.53843402 8:0.62197074 9:0.58559209 10:0.68709501 11:0.41799559 12:0.51099794 13:0.46263368 14:0.57829055 15:0.55636564 16:0.26618482 17:0.45657723 18:0.23971494 
4 4 1:0.6889109 2:0.60476171 3:0.5641238 4:0.71086457 5:0.41652318 6:0.59833798 7:0.55411114 8:0.64104834 9:0.56676572 10:0.66323229 11:0.44604366 12:0.55706576 13:0.49967834 14:0.68114517 15:0.60176756 16:0.51570972 17:0.46600942 18:0.34092727 
4 4 1:0.70739518 2:0.5722519 3:0.56603311 4:0.67442744 5:0.40944321 6:0.58686759 7:0.50565638 8:0.72240687 9:0.72461661 10:0.69491999 11:0.41521456 12:0.5846119 13:0.55308233 14:0.6102584 15:0.56349677 16:0.38549587 17:0.5043 18:0.58905099 
4 0 1:0.50073093 2:0.56925426 3:0.63550328 4:0.74171587 5:0.58433511 6:0.59196881 7:0.48523439 8:0.62713884 9:0.65350033 10:0.63126638 11:0.47430878 12:0.52786193 13:0.49342378 14:0.74530475 15:0.68182085 16:0.56540546 17:0.74324479 18:0.53921086 
-0 4 1:0.64608067 2:0.46375346 3:0.66338101 4:0.46477151 5:0.47558161 6:0.84591248 7:0.34983295 8:0.60161413 9:0.26423883 10:0.65834703 11:0.52428716 12:0.42191273 13:0.38349648 14:0.38249051 15:0.43947904 16:0.49411722 17:0.61123027 18:0.52929222 
-4 4 1:0.53353258 2:0.52870592 3:0.79489821 4:0.44236303 5:0.56525228 6:0.56740978 7:0.31278335 8:0.70495338 9:0.34494341 10:0.69855178 11:0.39200563 12:0.3406747 13:0.37946132 14:0.55649493 15:0.40809105 16:0.29791728 17:0.31685776 18:0.35539256 
-0 4 1:0.7651761 2:0.53963508 3:0.49198548 4:0.27455451 5:0.44655586 6:0.70490028 7:0.31356406 8:0.61848379 9:0.24011402 10:0.54850652 11:0.39054897 12:0.60814564 13:0.46030364 14:0.55501453 15:0.63487256 16:0.45329797 17:0.67433957 18:0.53447328 
-0 4 1:0.6582914 2:0.44897283 3:0.71951274 4:0.44311991 5:0.5141276 6:0.6085786 7:0.30401267 8:0.65155559 9:0.31310823 10:0.61940178 11:0.30457905 12:0.48175867 13:0.52448285 14:0.56622811 15:0.41509265 16:0.49255088 17:0.53391151 18:0.5078776 
-0 3.5548199950372674 1:0.59500317 2:0.38553908 3:0.63114752 4:0.38101066 5:0.44894668 6:0.59548136 7:0.27135553 8:0.58316559 9:0.32937148 10:0.62386302 11:0.32033619 12:0.35503031 13:0.42477441 14:0.53779305 15:0.41774255 16:0.43140369 17:0.52911739 18:0.45520529 
-0 4 1:0.55895591 2:0.42548966 3:0.50092943 4:0.47966218 5:0.52959249 6:0.6049279 7:0.28387532 8:0.6403398 9:0.35291616 10:0.66377897 11:0.2951572 12:0.31547373 13:0.36474418 14:0.32509587 15:0.42852415 16:0.2992538 17:0.63333442 18:0.63562954 
-0 4 1:0.58219267 2:0.4715768 3:0.45794935 4:0.43164513 5:0.42285344 6:0.56433478 7:0.26304861 8:0.6155373 9:0.36917859 10:0.71128938 11:0.48650342 12:0.43985081 13:0.53164434 14:0.59948941 15:0.52514464 16:0.38478156 17:0.63764986 18:0.64980829 
-3.9508551033461536 4 1:0.67475445 2:0.39532328 3:0.58683432 4:0.5731496 5:0.55539064 6:0.70425575 7:0.30295602 8:0.50992303 9:0.48275745 10:0.80598021 11:0.43620313 12:0.45345205 13:0.51406904 14:0.57687427 15:0.64819135 16:0.38758492 17:0.22848815 18:0.43579363 
-0 4 1:0.70464436 2:0.29075204 3:0.54605454 4:0.52373301 5:0.58042473 6:0.56743471 7:0.36337064 8:0.72464772 9:0.47554835 10:0.66576941 11:0.33119125 12:0.47623964 13:0.30764448 14:0.40186158 15:0.55221452 16:0.30487509 17:0.52285622 18:0.52958627 
-0 0.66092997597554892 1:0.54826962 2:0.4847789 3:0.48282404 4:0.39412978 5:0.46577884 6:0.62313559 7:0.30462229 8:0.60311967 9:0.38909964 10:0.68987085 11:0.35480321 12:0.58956119 13:0.59371432 14:0.42415908 15:0.56880652 16:0.24291837 17:0.56530107 18:0.57070067 
-0 4 1:0.81905562 2:0.35163607 3:0.53575648 4:0.46151102 5:0.52257278 6:0.46853845 7:0.17610125 8:0.62987558 9:0.42181974 10:0.73943345 11:0.27501813 12:0.47825764 13:0.3133662 14:0.52015052 15:0.65258177 16:0.43306052 17:0.81848194 18:0.50160822 
-0 4 1:0.70406782 2:0.44963021 3:0.63562452 4:0.32963368 5:0.42110395 6:0.68604319 7:0.3158778 8:0.57851613 9:0.32355922 10:0.63964555 11:0.28477288 12:0.38524402 13:0.38702945 14:0.47881508 15:0.37027047 16:0.39752238 17:0.31341585 18:0.41565009 
-0 4 1:0.75733285 2:0.39082167 3:0.6685013 4:0.48845422 5:0.65893732 6:0.68241107 7:0.20023397 8:0.61047339 9:0.26201784 10:0.63925707 11:0.50230691 12:0.59007385 13:0.37169195 14:0.54829105 15:0.54527485 16:0.43756891 17:0.53965523 18:0.40044774 
-4 0 1:0.39469185 2:0.88897314 3:0.29550331 4:0.5946866 5:0.46114947 6:0.19226575 7:0.9964298 8:0.1528773 9:0.70032616 10:0.77204969 11:0.20057812 12:0.70787343 13:0.47122709 14:0.41607569 15:0.72959013 16:0.19084388 17:0.70666044 18:0.48636 
-4 0 1:0.4194815 2:0.94588253 3:0.26325117 4:0.62319469 5:0.47215815 6:0.05556738 7:0.87795554 8:0.1353353 9:0.61385836 10:0.66088119 11:0.20376652 12:0.80286245 13:0.52776384 14:0.52426109 15:0.92264858 16:0.32333039 17:0.792321 18:0.4729571 
-4 0 1:0.40964696 2:0.84150096 3:0.30767254 4:0.66942334 5:0.40391593 6:0.18382614 7:1 8:0.271856 9:0.69580282 10:0.73131423 11:0.41877907 12:0.83352078 13:0.27817253 14:0.35208684 15:0.75015269 16:0.10079377 17:0.74624674 18:0.66761562 
-4 4 1:0.50825722 2:0.9193517 3:0.35830332 4:0.52660988 5:0.59388373 6:0.2857082 7:0.69302636 8:0.31812593 9:0.48059372 10:0.76064821 11:0.33326439 12:0.70295799 13:0.46016722 14:0.34067311 15:0.57897123 16:0.24583837 17:0.6716881 18:0.59929682 
-4 4 1:0.49446275 2:0.82999342 3:0.28980456 4:0.76314619 5:0.44488528 6:0.18742509 7:0.83979848 8:0.19586989 9:0.54296694 10:0.65349258 11:0.21751045 12:0.62721973 13:0.36583913 14:0.44685717 15:0.72895295 16:0.10837741 17:0.48299339 18:0.48279488 
-4 0 1:0.35762817 2:0.7621549 3:0.35495461 4:0.58303277 5:0.54354266 6:0.37978732 7:0.96246977 8:0.19782082 9:0.61339735 10:0.70027262 11:0.26061528 12:0.65722659 13:0.39850191 14:0.45160241 15:0.75724166 16:0.2108371 17:0.62571872 18:0.65496711 
-4 4 1:0.3401673 2:0.88147795 3:0.42599718 4:0.61253468 5:0.66077659 6:0.26556897 7:0.82092845 8:0.27839292 9:0.52671751 10:0.63347967 11:0.23072405 12:0.49594482 13:0.50751403 14:0.50875812 15:0.69184059 16:0.16526807 17:0.51192084 18:0.35848825 
-4 0 1:0.49442009 2:0.82742643 3:0.25814668 4:0.71315948 5:0.35645675 6:0.13436914 7:0.85835867 8:0.13654287 9:0.58404491 10:0.76091607 11:0.26431105 12:0.71163184 13:0.54971273 14:0.43095337 15:0.70877772 16:0.20255704 17:0.42361668 18:0.48116494 
-0 4 1:0.48309021 2:0.74436722 3:0.26993607 4:0.58585388 5:0.33318775 6:0.24630514 7:0.83768565 8:0.10955566 9:0.55704463 10:0.68075452 11:0.11946447 12:0.54999459 13:0.48447606 14:0.55915259 15:0.72788461 16:0.15203851 17:0.58056259 18:0.49747528 
-0 4 1:0.48282802 2:0.83068047 3:0.34110977 4:0.59231012 5:0.49378122 6:0.21696479 7:0.75866459 8:0.28070814 9:0.52799146 10:0.60595981 11:0.13423829 12:0.61529899 13:0.68968912 14:0.48719735 15:0.6902789 16:0.38026321 17:0.69144729 18:0.43124605 
-0 4 1:0.5173731 2:0.77811036 3:0.2162371 4:0.63792502 5:0.45062632 6:0.14852718 7:0.80377213 8:0.17903152 9:0.51843746 10:0.66097133 11:0.24293114 12:0.57598757 13:0.52772955 14:0.49561832 15:0.63496173 16:0.23153606 17:0.59651339 18:0.66443793 
-0 4 1:0.52813508 2:0.92020353 3:0.17199105 4:0.67664204 5:0.313764 6:0.10630076 7:0.8968592 8:0.10828037 9:0.58109111 10:0.69906435 11:0.19290209 12:0.66228563 13:0.52991583 14:0.51392874 15:0.81404777 16:0.28490483 17:0.53279146 18:0.39224868 
-4 4 1:0.4552285 2:0.8868975 3:0.42244014 4:0.63582307 5:0.52674816 6:0.29107313 7:0.79032681 8:0.29247436 9:0.50565966 10:0.6359582 11:0.13479563 12:0.71684537 13:0.51805938 14:0.40591838 15:0.66290543 16:0.18346829 17:0.55531631 18:0.43515823 
-0 4 1:0.59112992 2:0.93233481 3:0.2542036 4:0.58563856 5:0.51955722 6:0.25931957 7:0.6745877 8:0.22294715 9:0.51387912 10:0.76342327 11:0.33151534 12:0.71162762 13:0.5120982 14:0.37007394 15:0.64993821 16:0.42354336 17:0.83171567 18:0.44253607 
-4 0 1:0.43882299 2:0.85389826 3:0.27407748 4:0.65542058 5:0.43640577 6:0.11453247 7:0.83909989 8:0.20947224 9:0.65224319 10:0.7889467 11:0.17515429 12:0.61525695 13:0.55162328 14:0.38455946 15:0.69560336 16:0.21406201 17:0.61498584 18:0.58105009 
-4 4 1:0.4226356 2:0.91426774 3:0.39060269 4:0.50577615 5:0.44898933 6:0.13390284 7:0.73648311 8:0.30818842 9:0.52824852 10:0.60415137 11:0.13643266 12:0.55173063 13:0.57912658 14:0.47714256 15:0.76380242 16:0.32046483 17:0.630867 18:0.51177966 
-0 4 1:0.45345389 2:0.91068096 3:0.24597868 4:0.64797535 5:0.57599743 6:0.20212522 7:0.8756391 8:0.18404905 9:0.53688847 10:0.62583968 11:0.35865821 12:0.75300189 13:0.36258568 14:0.34442273 15:0.57565357 16:0.14403212 17:0.78297201 18:0.51696215 
-0 4 1:0.45833511 2:0.80679007 3:0.2368414 4:0.65414504 5:0.32848211 6:0.23521586 7:0.90667564 8:0.27130409 9:0.63578653 10:0.52654544 11:0.29080218 12:0.70927492 13:0.60780596 14:0.46402073 15:0.69690367 16:0.37166975 17:0.72959648 18:0.54857595 
-4 4 1:0.51519476 2:0.96162319 3:0.32096556 4:0.55158033 5:0.4918358 6:0.23098365 7:0.72761662 8:0.33557525 9:0.60574656 10:0.66488543 11:0.19976152 12:0.64912315 13:0.40207893 14:0.37540047 15:0.63596632 16:0.24743985 17:0.71568214 18:0.42789426 
-0 4 1:0.62217008 2:0.75221059 3:0.3014911 4:0.5573464 5:0.30875585 6:0.29528038 7:0.7177584 8:0.32012049 9:0.66626367 10:0.73645058 11:0.23706021 12:0.66692988 13:0.50095107 14:0.50180089 15:0.72408617 16:0.26364328 17:0.60295293 18:0.56207094 
-0 4 1:0.58361564 2:0.66803697 3:0.19554492 4:0.62524248 5:0.36640994 6:0.26542878 7:0.77957962 8:0.21062674 9:0.60006952 10:0.74168233 11:0.064764767 12:0.56240924 13:0.54494872 14:0.44126336 15:0.7323913 16:0.30056833 17:0.52458763 18:0.46305376 
-0 4 1:0.55307637 2:0.90095496 3:0.20482414 4:0.67405984 5:0.26724316 6:0.062339382 7:0.74785205 8:0.12530748 9:0.49485603 10:0.68574686 11:0.12525109 12:0.57222109 13:0.55896746 14:0.51379157 15:0.86899516 16:0.36494391 17:0.63421348 18:0.56980747 
-0 4 1:0.60174461 2:0.77222453 3:0.19896795 4:0.7336296 5:0.30283695 6:0.15963695 7:0.70991459 8:0.12869519 9:0.41829791 10:0.62895354 11:0.038380752 12:0.62786197 13:0.57187313 14:0.45050405 15:0.66847234 16:0.23882323 17:0.64879462 18:0.53596025 
-4 4 1:0.53875817 2:0.87394411 3:0.29123871 4:0.6493722 5:0.32284129 6:0.069891479 7:0.82717864 8:0.19465488 9:0.58242172 10:0.73520436 11:0.19609206 12:0.72417527 13:0.52869794 14:0.42145146 15:0.71779463 16:0.26068496 17:0.63596844 18:0.54529231 
-0 4 1:0.53433113 2:0.86914993 3:0.23348657 4:0.72132654 5:0.2875799 6:0.019923232 7:0.86297624 8:0.19980124 9:0.54202975 10:0.58843646 11:0.19474663 12:0.72135044 13:0.58181461 14:0.43741682 15:0.55902578 16:0.11284413 17:0.56107622 18:0.48697764 
-4 4 1:0.55305909 2:0.8893425 3:0.38402006 4:0.48246075 5:0.40180345 6:0.28054995 7:0.61670289 8:0.30180222 9:0.48229785 10:0.68529744 11:0.35405811 12:0.71632439 13:0.5720301 14:0.370795 15:0.70765203 16:0.36923512 17:0.56883457 18:0.62584759 
-0 1.0116703637300097 1:0.55297637 2:0.77769224 3:0.18108598 4:0.71872961 5:0.29362219 6:0.11520293 7:0.80728258 8:0.18603383 9:0.5290814 10:0.67563058 11:0.08170058 12:0.5818242 13:0.45620602 14:0.43802118 15:0.64816823 16:0.22716096 17:0.72231737 18:0.60786452 
-0 4 1:0.55622954 2:0.76742214 3:0.26558727 4:0.59186222 5:0.491735 6:0.3106528 7:0.66785931 8:0.16811331 9:0.48132188 10:0.67806499 11:0.36777038 12:0.71050076 13:0.54000767 14:0.54084714 15:0.67334922 16:0.26874947 17:0.63326044 18:0.51707365 
-4 4 1:0.67827751 2:0.88346291 3:0.37691827 4:0.4177739 5:0.51145481 6:0.16884926 7:0.51587547 8:0.40781267 9:0.4339829 10:0.55030208 11:0.1627073 12:0.51948738 13:0.67295591 14:0.58947059 15:0.64508442 16:0.32026643 17:0.60952877 18:0.44471255 
-0 4 1:0.59739673 2:0.84938828 3:0.098813632 4:0.61520541 5:0.34360668 6:0.13143924 7:0.85149522 8:0.10566931 9:0.50888884 10:0.72898377 11:0.19199649 12:0.69043259 13:0.56102524 14:0.44536611 15:0.66294804 16:0.23654067 17:0.68538222 18:0.58643378 
-4 0 1:0.40687578 2:0.87369176 3:0.30688864 4:0.63018365 5:0.46818693 6:0.25310651 7:0.89243243 8:0.072448596 9:0.63147255 10:0.75492688 11:0.27238182 12:0.65854327 13:0.39623833 14:0.33379714 15:0.62825107 16:0.13115603 17:0.57306428 18:0.60838583 
-0 4 1:0.55736066 2:0.78087892 3:0.12570458 4:0.66840637 5:0.3932185 6:0.087783617 7:0.7763416 8:0.12778472 9:0.54595214 10:0.73902992 11:0.20629605 12:0.55776254 13:0.49769105 14:0.53098271 15:0.7706082 16:0.28708646 17:0.63639576 18:0.44599976 
-4 4 1:0.39673699 2:0.82239615 3:0.32220073 4:0.63545351 5:0.60861137 6:0.29641873 7:0.79672973 8:0.34640469 9:0.59033198 10:0.53625992 11:0.32206323 12:0.67256704 13:0.3881745 14:0.35250551 15:0.53432677 16:0.12504903 17:0.7980705 18:0.63963192 
-4 0 1:0.50446943 2:0.76042289 3:0.3942795 4:0.71222502 5:0.51857717 6:0.35498107 7:0.76847838 8:0.2005185 9:0.54039048 10:0.77192913 11:0.15291431 12:0.71930981 13:0.71864824 14:0.57444695 15:0.77347909 16:0.30877172 17:0.57399752 18:0.58684768 
-0 4 1:0.599821 2:0.7543662 3:0.14823556 4:0.64682171 5:0.42297702 6:0.29496662 7:0.70202751 8:0.1064141 9:0.45794212 10:0.70600729 11:0.20647651 12:0.54371261 13:0.47069246 14:0.49045072 15:0.7242501 16:0.34097734 17:0.76616918 18:0.54249464 
-0 4 1:0.62468375 2:0.75439104 3:0.25860898 4:0.66146474 5:0.39468233 6:0.16808533 7:0.77735867 8:0.23723348 9:0.40738011 10:0.75396224 11:0.12414288 12:0.5453794 13:0.44502818 14:0.37270497 15:0.6888159 16:0.33914327 17:0.67406054 18:0.66877873 
-4 4 1:0.56895336 2:0.83750837 3:0.26015532 4:0.76628924 5:0.42499427 6:0.18915761 7:0.8572862 8:0.23209457 9:0.56400379 10:0.81138158 11:0.082251587 12:0.554558 13:0.41685555 14:0.39924921 15:0.62647955 16:0.22688542 17:0.46339875 18:0.33992325 
-0 4 1:0.58823 2:0.73197823 3:0.28355116 4:0.64176789 5:0.31900945 6:0.23859013 7:0.74670713 8:0.15526591 9:0.47776659 10:0.67229122 11:0.24543542 12:0.62257371 13:0.51235075 14:0.48835289 15:0.68180828 16:0.22252994 17:0.5844437 18:0.64521814 
-4 4 1:0.64400917 2:0.92291637 3:0.41354668 4:0.57419055 5:0.45694763 6:0.25268635 7:0.63271605 8:0.33506072 9:0.45643144 10:0.66497658 11:0.3031148 12:0.61239507 13:0.49383474 14:0.32680192 15:0.54473116 16:0.26852467 17:0.48726413 18:0.43655512 
-0 4 1:0.55912117 2:0.85112435 3:0.23436895 4:0.58921826 5:0.25539006 6:0.10023894 7:0.73666541 8:0.16785658 9:0.49296046 10:0.70905699 11:0.20020333 12:0.68959087 13:0.4530021 14:0.48903785 15:0.80850468 16:0.25480389 17:0.72747501 18:0.48560829 
-4 4 1:0.5635792 2:0.88559777 3:0.23566429 4:0.70995888 5:0.45420955 6:0.11627064 7:0.78079565 8:0.26018612 9:0.42063777 10:0.68210915 11:0.16894538 12:0.59415399 13:0.55845607 14:0.46395496 15:0.73894341 16:0.28814078 17:0.61105052 18:0.35046785 
-0 4 1:0.57563195 2:0.74724802 3:0.20798192 4:0.68830762 5:0.30182327 6:0.1648095 7:0.78492624 8:0.11725194 9:0.49014211 10:0.78518788 11:0.16051383 12:0.67763815 13:0.47888036 14:0.37713395 15:0.64822659 16:0.079537365 17:0.33409004 18:0.22748627 
-0 4 1:0.530161 2:0.85506795 3:0.11231293 4:0.64215864 5:0.2555711 6:0.15291873 7:0.80261221 8:0.040399359 9:0.5721362 10:0.66624725 11:0.19153786 12:0.66334644 13:0.44944137 14:0.39235084 15:0.77595651 16:0.32011317 17:0.62059548 18:0.44891163 
-0 4 1:0.60768258 2:0.67830313 3:0.29102627 4:0.64079908 5:0.40390067 6:0.311083 7:0.78088119 8:0.27116788 9:0.4774172 10:0.79499578 11:0.30099026 12:0.58852016 13:0.35278466 14:0.25830056 15:0.5038488 16:0.1816972 17:0.48594845 18:0.44159595 
-0 4 1:0.63817624 2:0.74031208 3:0.17935553 4:0.6432127 5:0.26639955 6:0.1550717 7:0.69513908 8:0.1713318 9:0.53877967 10:0.79139695 11:0.22038558 12:0.66926415 13:0.55065041 14:0.49387994 15:0.76593939 16:0.3067333 17:0.63048145 18:0.64243867 
-4 4 1:0.41253892 2:0.76840029 3:0.69494045 4:0.5567397 5:0.64448457 6:0.62633896 7:0.54783771 8:0.62667685 9:0.7339785 10:0.40562076 11:0.69133769 12:0.52821643 13:0.46950726 14:0.6826655 15:0.38562049 16:0.56240282 17:0.52611458 18:0.43694267 
-4 4 1:0.43960549 2:0.75544345 3:0.5314699 4:0.55345949 5:0.68796333 6:0.60074484 7:0.58161184 8:0.52951281 9:0.4718682 10:0.33989377 11:0.70624733 12:0.52737236 13:0.55571914 14:0.75643879 15:0.37983999 16:0.50346256 17:0.58606039 18:0.40402588 
-4 4 1:0.41446586 2:0.87260597 3:0.539183 4:0.59136935 5:0.6043087 6:0.62113948 7:0.51556573 8:0.55760498 9:0.67700778 10:0.31655543 11:0.71701545 12:0.4867875 13:0.51000937 14:0.72810171 15:0.35860259 16:0.59330116 17:0.46425881 18:0.51737841 
